-8.176275927292292467e-02
3.109263726101084424e-02
-3.262155082878609447e-04
3.007507286379230982e-02
1.077021283693038733e-03
1.355917244940661737e-02
2.948354046985457444e-04
-7.293427172501282252e-04
-4.214982900473602384e-02
2.963698674221719453e-02
5.690366196645099683e-02
-2.665888918113083761e-02
-1.153732981595990970e-02
3.210085478081062260e-02
2.768217222586599746e-02
6.093126199112339214e-02
1.567763151780346420e-02
-7.059580199363439668e-02
7.264515172338420479e-02
-5.942051875172549291e-03
6.389900565362582885e-02
3.764136513140391160e-02
-2.448814680084220735e-02
-6.393124603571145870e-02
7.377532141646511721e-02
2.069712866805686891e-02
-7.136444583683709819e-02
-4.638762817878926831e-02
-5.272669060646346245e-02
5.365751910288596438e-02
6.256620193077377934e-03
-1.276958614874168507e-02
9.221346821687584350e-03
3.765840244769999567e-02
-6.659030428764659004e-02
7.971581517418999119e-02
-8.042566590799664350e-02
6.357843492940593033e-02
-8.039661452734143954e-02
-6.992858624663472744e-02
-2.761341197434208361e-03
-4.203887804621418700e-02
2.534993062580011280e-02
-1.926042097530160369e-02
5.266683281538497852e-02
-2.625517507933436412e-02
6.689936141832006355e-02
-5.696635266566784511e-02
1.120958979200341321e-02
3.879324573835424284e-02
-5.234672291210795692e-02
2.395914096303408680e-04
5.809720231833395698e-02
2.638139874289097131e-02
2.226998391602615091e-02
-1.934666412134612712e-02
6.622915352655228682e-02
7.931140524557442339e-03
5.444311186430625393e-02
3.782183366070845931e-02
-7.223184738143648143e-02
6.716477106632293137e-02
6.858343564173605134e-02
7.878920093408484093e-02
-2.771299814809935480e-02
2.946816312549828398e-02
8.578584473659070508e-03
7.032809383933383285e-02
2.965368397900917941e-02
-7.593362392202471223e-02
-2.567177782641505424e-02
-7.071679002504520362e-02
1.162922510545724708e-02
-9.786436729017966574e-03
-1.893935605194559113e-02
5.691332851025590611e-02
4.280852491805983706e-02
-7.190136998586135753e-02
8.055903956880108852e-02
4.586315321071604556e-02
3.824537064908807571e-02
7.634343263615625541e-02
1.467940329843492320e-02
4.598284883059050587e-04
3.018405695717378545e-02
-3.892433817251601813e-02
5.576809677095623252e-02
4.650342121802075734e-02
-7.362130568035388234e-02
7.454424405568493839e-02
4.609890244381703583e-02
1.271150397076950544e-02
5.215961887527778562e-02
6.437705490581230316e-02
-5.980928711027636013e-02
3.545283255835958436e-02
2.236811369299027130e-02
7.449286132930307835e-02
5.001627884970433202e-02
4.245277229918542616e-02
6.813650250802869013e-03
-7.707954700481944865e-02
1.629811333701808307e-02
8.192461899326458630e-03
4.571063809725442462e-02
-2.314133085240108190e-02
7.233328056355434188e-02
8.289668163259364397e-02
-5.477307183487828413e-02
6.277549847697436181e-02
6.280332291325133043e-02
-6.457551284589410634e-02
8.240717753628828968e-02
-4.765532264074849589e-02
-1.511950257679409160e-02
8.087862064723005950e-02
6.431971935793784345e-02
-1.503705706719060675e-02
7.503534285702778694e-02
-7.098148996450016901e-02
-1.645976578268201762e-02
6.707883313005646997e-02
2.941669967370853789e-02
-1.750020253026221551e-02
4.463635716532682318e-02
1.769637637030239963e-02
-6.556500280245050605e-02
6.576174409047499947e-02
-6.839523212873646618e-02
-2.207766624131511646e-02
-4.995330091696752184e-02
-6.623939531278687232e-02
-1.815630565181630685e-02
7.602754320999741133e-02
4.280112782778772162e-02
-9.305702643688559816e-03
-1.312199239234368431e-02
2.669752426159067993e-02
4.814948362280063732e-02
7.402553842034270692e-02
-7.842064123493354411e-02
-7.324385229658848806e-02
-2.362371377643492087e-02
-5.878103153007142173e-02
1.374712571410052764e-02
6.893048639384502518e-02
-6.111229658698348610e-02
4.556512454368041865e-03
4.949011889903853767e-02
5.819084784400627153e-02
-1.554176917108490708e-02
-3.410085690493729754e-02
4.703402705159032138e-02
7.803520689358409146e-02
-5.742096927551967878e-03
-4.184529542378307571e-02
7.392437952340191742e-02
4.266944831318250642e-02
7.496163250858375871e-03
-3.121790745403837941e-02
1.421214203320078640e-02
-1.629121549071818609e-02
-3.644120890258823603e-02
2.561128590835448637e-02
-1.682387876741230082e-02
-5.645948756092519089e-02
-7.298533943340503038e-02
6.839076799033422249e-03
-2.758170904783815297e-02
2.640266886202985441e-02
-7.855319645525339622e-02
1.512482284122883269e-02
-2.817641106127211775e-02
-7.222587755121463726e-02
1.459776331823309237e-02
7.108568422655259234e-02
-6.200175423384261808e-02
-7.694998398692395880e-02
3.995725747521494675e-02
-1.691089282802192562e-02
1.858814345723387718e-02
-3.456826056103148165e-02
-8.274919268961684893e-02
-1.635370358094831444e-02
3.477021737127167222e-02
5.876631686864053350e-02
4.910118294647097814e-02
-6.611683196041007182e-02
-2.416349769000176312e-02
6.270091972260971591e-03
-1.712677392854827785e-04
4.880758584019917468e-02
8.783415346657205691e-03
4.590245415110771887e-03
-7.218429810870868879e-04
-5.347566830748616551e-02
1.496819934562587662e-02
-6.562828678633839119e-02
4.008927943404311245e-02
4.466129781544225796e-02
4.048757083460413631e-02
1.871041520680320758e-02
1.606997221597608605e-02
8.108269121803995949e-02
-6.511318597208316794e-02
4.440109410891787678e-02
5.047591664179182369e-02
5.568751493187737434e-03
-3.723781305542090553e-02
6.785932475116607243e-02
-8.904906604083509536e-03
7.736086686778068100e-02
2.230745894465135937e-02
7.004427710262328688e-03
-2.258954148313274679e-02
-6.835943315144078769e-02
-4.710801802797227184e-02
-2.229206485723655984e-02
-5.294584948311519684e-02
1.482549530691920636e-03
8.350443792395548237e-02
4.271185345800412869e-03
-7.458184267531085820e-02
-4.134997909163750512e-02
1.632251491310476865e-02
2.052844532774446284e-02
-2.698966030148283735e-02
6.299011475825164186e-02
6.135174920417010846e-02
2.252388991614355518e-02
-6.261094985847504013e-02
4.856437035487659593e-02
8.038401010593518303e-02
-4.782255538573341319e-02
2.497285257596405794e-02
-3.065970416461719084e-02
-6.254017881800354173e-02
2.752267266910649046e-03
6.128727429876054678e-02
-4.259653052603203788e-02
-2.059717544186021043e-02
3.024178039327030110e-03
7.715469834131602478e-02
-7.407332995206056259e-02
5.691015064576274152e-02
-3.830952154702509799e-02
5.516954289571640579e-02
3.253997363695476652e-02
3.943048754570481484e-02
3.358941605708537503e-02
-3.184274886185681219e-03
-2.476129693946173965e-02
-7.190494090401564065e-02
7.595534743018070301e-02
7.410590755730639412e-04
-4.762420354675758055e-02
-7.009257617537348328e-02
7.228996037573467981e-02
-7.533317787972414192e-02
6.842073956273009294e-04
7.551630521483781999e-02
6.072485933487156706e-02
6.234993460412321942e-02
-2.340070451375318022e-02
2.447819291193560620e-02
-2.019733889736043120e-02
-2.181865894814939699e-02
5.042738679572034144e-02
5.248888107862031971e-03
9.018687206404224499e-03
5.529420585017463807e-02
-7.866902669672071191e-02
7.288439520256057014e-02
6.800177835108062174e-02
4.441167664518694269e-02
7.409344869101783249e-02
-5.606732665168887714e-02
9.139420982356066814e-03
5.568518939863215111e-02
-4.230133924880901536e-02
1.941219210344453938e-02
-3.493427605706089789e-03
5.904262176272223606e-02
-1.744948855709518853e-02
-5.034282133154512756e-02
2.131674411108758216e-02
-6.774863489702985520e-02
3.993129781802329248e-02
-7.693575651978144803e-02
-2.385046978207491786e-02
-2.625968312759480866e-02
8.197367690319057321e-02
2.207097190587906099e-02
5.985164771162515551e-02
-2.119986783860018653e-02
-6.376834148072137165e-02
-4.211410157134692911e-03
-5.884023311663849620e-02
8.296872670460400667e-02
5.199134825878723443e-02
4.837135947216636422e-02
-3.283019276958456384e-02
7.811740122335844583e-02
2.582792787091710285e-02
-3.099583210532980831e-02
4.596589789811494908e-02
-2.844768023074792374e-02
-5.959371204581492831e-02
2.543510341117767581e-02
-7.013735170592270973e-02
3.128749796066632172e-02
7.063772413575492015e-02
2.280912480372665474e-02
5.199351421871373224e-02
3.873473061050076993e-02
-4.512736297751645392e-02
3.763727379483286506e-03
-3.582098817892059861e-02
5.563381680809900698e-02
-5.345601673905905210e-02
-5.875617866468432066e-02
-2.487661486791276078e-03
-5.142376697361237398e-02
-5.440139608896533280e-02
7.677871502387909053e-02
-6.604099268838695136e-02
5.833007826035016552e-02
4.777408813779662755e-02
7.725458507794755181e-02
7.886114214638828557e-02
-8.358455714221701971e-02
-5.018395852486219610e-02
-5.579503684006596742e-02
7.834146351438264766e-02
-2.480381145659169007e-03
-3.666603226869026566e-02
-3.665894113812762090e-02
-6.211459252243847068e-02
6.213411256986858811e-02
3.244281810051913295e-02
5.460235203755331446e-02
7.298900885651260495e-02
-3.348935995032747970e-03
-5.680816842541176054e-02
7.159890820800907107e-02
-3.840905989157746697e-02
4.237024069849032459e-02
-2.189661545042437263e-03
7.852745313216294432e-02
-2.159374990026120822e-02
6.934823664058686887e-02
-5.880589091031872273e-02
5.577981332264447811e-03
1.933809352322114761e-02
-4.231239490241007345e-02
-6.096394372148624535e-02
-3.347549485400342500e-02
-7.577971227239667373e-02
4.576191847450894468e-03
-3.298641657440398722e-02
1.764204100692934318e-02
5.215777974919835747e-02
5.399678080840633609e-02
5.553670123684445459e-02
6.929147019152429032e-02
2.690260944664474296e-02
-6.908534752046446847e-03
-3.049292904730423887e-02
-1.412722174485599169e-02
6.945816975805665927e-03
-7.423954847175336103e-02
-1.923372921175153794e-02
-4.992192309245607751e-02
-3.325186897298946370e-02
4.452433183506229741e-02
3.868049719727954805e-02
6.385435093785682414e-03
-7.748023389081212797e-02
-2.478929383756071220e-02
5.008635601483432676e-02
8.246414308926888759e-02
-2.840979141788108064e-02
-6.615217021773978079e-02
-4.656017611334591078e-02
7.794691377632040341e-02
-4.697699411907649281e-02
3.915801081239926595e-02
2.076828077193725031e-02
7.185525131912970376e-02
-3.082484034102208476e-02
-1.266797707914522897e-02
-6.550364797098251479e-03
6.137756249870560121e-02
7.944561092859653284e-02
4.586672218775442178e-02
-6.994458453356292016e-03
-5.525347279415591950e-02
-4.732584491225044071e-02
7.315760467253862309e-02
3.404705098383295492e-03
1.826740462305141699e-02
-7.884743549904427162e-02
-1.706338855016395484e-02
-4.460489293370797914e-03
9.626774851228689367e-03
1.510747821512485600e-02
-6.726310148845943138e-02
-3.803078221497496053e-02
-3.363739969184120077e-02
2.602829585889473996e-02
7.329218447818275362e-02
4.119456508846161547e-02
1.386549612460619141e-02
-4.160536887920305432e-02
3.440817830958237122e-02
-5.208720198497438642e-02
-3.552420151092267747e-02
2.713368076920454064e-02
4.506835073926887536e-02
6.127868371304476258e-02
2.039170041166719904e-02
-5.820572904616780341e-02
6.790334743184767152e-02
7.786261684639503300e-02
2.055475617491460405e-02
2.053642768427839382e-02
5.113769185718855526e-02
-3.420953910732470876e-02
-7.974919958494892935e-02
7.754287451979507972e-02
-7.952026002521946080e-02
3.941464613496709068e-02
4.811269416477609306e-03
-4.222782059244039460e-02
-2.154944865086244610e-03
-4.036328015511597700e-02
-3.431444294143826124e-03
5.701059902464014617e-03
-1.844640584819205731e-02
-2.004852876075075008e-04
-1.904015809901066225e-02
-3.325116905761359848e-02
-4.896729550771618950e-02
-5.781980900398400736e-03
-1.543914708547572401e-02
-7.484495911778574206e-02
-5.250127418832012394e-02
-7.984410865652144529e-02
6.258776800424667441e-02
2.192598338288111182e-02
-3.817269474214638608e-02
3.420968168996119108e-02
-8.392800136192637983e-02
-7.368020595159904818e-02
4.433867794451304412e-03
-4.387193437788491912e-02
6.655977155968526016e-02
7.540233923253952808e-03
-7.509251709118136553e-02
-5.455750080684677872e-02
1.177506956924562198e-02
-4.970059381788123620e-02
3.263928866910793813e-02
-5.235933396700791914e-02
1.264181258092299254e-02
2.338002552649189048e-02
6.905804678975430155e-02
1.965463595905136973e-02
-4.207828688226774444e-02
-1.282586122686305008e-02
1.218214890181441856e-02
-3.723018929538778055e-02
-1.225366549779190184e-02
7.903924880267876318e-02
-8.450282304144095258e-02
7.518889694624258935e-02
-2.728342954907199414e-02
2.643899237911551126e-02
9.041992537452692158e-04
6.179165480989159964e-02
-4.932145381811565976e-02
-5.947099255446501587e-02
4.385080654538986433e-02
-6.910509483971433164e-02
2.422210885198314290e-02
-1.132789538066109047e-02
-2.139786696229707685e-02
-6.298077016526415495e-02
-7.605615166910489888e-02
6.149455343616022640e-04
4.910713573906605456e-02
-5.370845623773630451e-02
-1.530994062231084973e-02
-8.091256915100224212e-02
-4.625621841251031929e-02
-3.180249740653934981e-02
6.632198892190993567e-02
-6.811377470706071746e-02
2.787397367369487400e-02
3.139395515782604507e-02
3.911863165435862377e-02
1.920337370813762767e-03
-9.381395750490101326e-03
-4.642478885632546348e-02
1.122187938136255669e-02
4.289260423671892308e-02
-2.266692652043779399e-02
3.258509875897916408e-03
-2.222693066446367050e-02
2.183438001364344794e-02
6.612570323370173253e-02
-4.746861511161103164e-02
4.443368907198427809e-02
4.765500327186941720e-02
4.697231035453594550e-02
4.624467939137691386e-02
3.652100336608118947e-02
-6.803325382599775817e-02
-4.720453638864458012e-02
-5.069214408544953088e-02
-7.575319088556452252e-02
-3.044820976160361042e-02
5.505755358420560963e-02
-1.618761760155952578e-02
2.367992295597809438e-02
-6.778595628155364983e-02
-1.867179436552640626e-02
-2.860765677608891749e-02
8.003770060972939526e-02
-1.070340026553535939e-02
-6.045654855086592117e-02
6.770248747078558282e-02
5.829039134172056547e-02
-9.675211622517249088e-03
5.739223922899081010e-02
8.038649830150948472e-02
2.578942551970342389e-02
3.228494086987655776e-02
-8.574660873838943487e-03
3.248506952739202425e-02
2.333056764586073639e-02
3.698158608103631340e-02
1.453686220352053138e-02
1.974814836685950814e-02
2.494172572236616481e-02
7.024843659835106058e-02
6.216718447430127914e-02
5.030939597078687431e-02
-7.471882467064651367e-02
-5.993204736401358534e-02
-1.438841294639632562e-02
2.369294302497726434e-02
-5.537836704552319411e-02
-4.156205195445995815e-02
5.635107358520724530e-02
5.655080537551390729e-02
1.587706913580949619e-02
-4.811372915825875424e-02
-4.317360060290802160e-02
-5.022605217916573106e-03
4.451201294554807397e-02
4.836674718824462982e-02
1.720354028601418783e-02
7.026663992345028031e-02
-7.596417622935171254e-02
-1.206350478017997885e-02
5.760366770411717852e-02
-7.366393657367598102e-02
6.976061864357818720e-02
-3.974738529251076874e-02
4.667962876101858227e-02
-7.917400899209997567e-02
4.450795225304027269e-02
6.176321829182762624e-02
-6.685363586530808366e-02
-6.819968277756058295e-02
9.936299323098848890e-03
-1.999558451549836302e-02
-9.150970356987531140e-03
3.619823397771407270e-02
-8.155578461357373965e-02
4.722108967124605261e-03
-7.690276378986166117e-02
-4.633180401082671179e-02
2.473606693496081810e-02
-5.523004214336365431e-02
-1.031777625774693563e-04
8.452822094967252231e-02
6.192618010818862206e-02
2.034371317744626539e-02
5.624611250280669994e-02
-1.340771864745995967e-02
7.125752880835101166e-02
1.780826284410674809e-02
7.221314005770093636e-02
-2.482382380788183268e-02
6.973670637534398753e-02
4.515284661804344624e-02
-3.655582218174367737e-02
-6.661518098135871258e-02
-1.384585643257774112e-02
-4.655630922651800979e-02
-5.946292854366058700e-02
-7.674566218094461267e-02
1.076428001578218219e-02
-5.297512085920676878e-02
-1.870258255980424000e-02
2.634597892314433087e-03
-1.495819157324095039e-02
7.102506849345360807e-02
-6.378313555446370187e-02
7.562474490137779948e-02
-6.634168558417991024e-02
3.752598453195823969e-03
6.930885464566849397e-02
-2.246219412356613432e-02
-3.957850017077942095e-02
-3.277751628598323669e-02
-4.093588953814231851e-02
-3.705556372741747317e-02
3.166257179530397592e-02
-2.666917187624211205e-02
-3.364404697529043559e-02
5.124829976074898874e-02
-1.271850255242580607e-02
-8.367892902522951204e-02
-4.865994510525470385e-02
3.362582078838577404e-03
-3.301003204788214435e-02
2.480642757764202344e-02
6.591992735181576024e-02
-4.337094112144943697e-02
-9.464007666246929129e-03
-1.711531352156482610e-02
-2.988423912148190781e-02
-5.889852441327059207e-03
-1.068908359911792394e-02
-5.368714754687557017e-02
2.914919847293077904e-02
6.240888029928720604e-02
-4.145494171984809989e-02
-7.571542483979662452e-03
4.804826534755204936e-02
2.167785828620760746e-03
3.471231963028201251e-02
-2.577908071282190849e-02
1.852639847182493971e-03
-5.435695932152517784e-02
-6.351025634840971879e-02
8.406603212899482758e-02
6.859510638801680216e-02
-3.682214031837611340e-02
-8.236092643894912801e-02
7.890996772297986794e-03
-3.250791096837995359e-02
2.080863745815528243e-02
-7.987209061308962743e-02
-2.723682400864983755e-02
2.049060373842227778e-02
7.372873344151009700e-02
3.721880344191479117e-02
2.291378902237330151e-02
1.677020108520900499e-02
8.937271814172947915e-04
7.761770058386197046e-02
8.182607588318671632e-02
-3.814408375459118344e-02
-4.876978199405835462e-02
1.599308764687311368e-02
-1.174239681045465000e-02
-6.148861446149603283e-02
1.070007655992821771e-02
-8.164919156862864014e-02
-4.241162250085070418e-02
6.396986276964897189e-02
-7.380132033348649201e-02
4.133615776632301730e-02
-5.258279075990886231e-02
2.781115636362486987e-02
-6.690019359173782210e-02
2.016964957428209193e-02
6.130210293479843031e-02
-2.257875762475754222e-02
-3.468395966841720385e-02
-3.822789827230470977e-02
2.956563094399244918e-02
-3.112753211394100189e-02
-2.139790876489817972e-02
-2.764550601504773414e-02
-5.112102401187307993e-02
-7.851453205158478998e-02
-6.946322406811714090e-02
7.423277104602873933e-02
-5.577680662737373452e-02
6.588733410358479925e-02
7.806205451956715891e-02
6.290616414318375704e-02
1.792950341797006075e-02
-4.750999791138844214e-02
6.632297940875664377e-03
3.456670177334847383e-02
6.352926138525807898e-02
-2.024664748661765545e-02
-9.867986138343692870e-03
-5.448232055029735704e-02
-8.317853998867018317e-02
8.108041747181582437e-02
-3.329314310572574487e-02
-3.282844945564401123e-02
-4.032039708505009284e-02
-4.936020082015123850e-02
5.338888768566435461e-02
-7.818360554616654579e-03
-5.177520310703304096e-02
6.711207576895161786e-02
7.472423261806040995e-02
-7.931156797686986226e-02
-2.761223877898316692e-04
-4.852684772721514717e-02
-2.064095047029321228e-02
7.032429466686346275e-02
5.507850493302657302e-02
7.600616466923887371e-02
2.946873575293419700e-02
8.061084589091321861e-02
-1.381235109315610832e-02
-7.177088173682044658e-02
1.053594091879635208e-02
-7.277480033044805841e-02
7.616337940703099552e-02
4.752383779363564265e-02
4.878052247329325852e-02
-7.621492086952938450e-02
-1.467313608780074219e-02
7.837909002125229008e-02
-2.680083587890360469e-02
-8.138246853046400553e-02
-2.570493999186317796e-02
-3.092298844237725136e-02
-1.339284792771246180e-02
7.776812552974393666e-02
6.035742680103897695e-02
-8.012214321506891390e-02
7.446866331405954664e-03
6.680167093914121668e-02
7.847198698087212709e-03
2.730359744599958338e-02
6.238595332553331652e-03
-1.628865406923928061e-02
6.487206207482049125e-02
7.947602682384666273e-02
-2.690202140238104334e-02
-1.773145626942040920e-02
1.680150747798421496e-02
-8.118739178501432896e-02
-5.697406545331407113e-03
-3.340816437113461324e-02
6.907326194897728255e-02
4.522781357277316783e-02
-5.929350925267951045e-02
5.834592612131889178e-02
-7.949433417647398803e-02
3.150995696682326597e-02
2.438534285340090979e-03
-7.406022600199721473e-03
-6.387584066041777919e-02
6.444111806137717280e-02
-4.871821992376807603e-02
-1.622858532969233269e-02
6.020332912081388654e-02
-1.043601437511314234e-02
-7.441485965550086179e-02
1.667399190724247471e-02
1.885499115161048955e-02
6.263385019276190846e-02
-4.934044522513484493e-02
-5.981016937163539243e-02
-6.463125327252536301e-02
2.512755539962774343e-02
3.728756331701006677e-02
8.584203966510745021e-03
8.149660302449207583e-02
6.546224977100686959e-02
5.320473416835466707e-02
-4.108831003289948464e-02
3.874682673116740250e-02
2.902403299581954310e-02
-2.059105088318953503e-02
5.327668476318042634e-02
4.441164854651513672e-02
8.462186355500986301e-03
-2.756581740928980978e-02
-6.240408798152018155e-02
4.210757894756836373e-02
-2.378541478143469251e-02
6.079440138447697595e-02
-8.491666620466657711e-02
2.097425135460126433e-02
8.958876648452171465e-03
-2.881716262899162301e-02
-3.000002874460865054e-02
2.602465120997586590e-02
-2.823402086470353650e-02
-4.019226465759940387e-02
-2.765513093695683849e-02
2.735060478746023649e-02
7.577509682818120429e-02
6.426855675467449402e-02
1.144425809357495216e-02
2.022435965328588103e-02
1.046056817281482143e-03
3.328776924001147774e-02
-8.502079228394512911e-02
-7.354354282614615490e-02
3.913137628686028102e-02
1.361491491844744883e-02
-4.933242789160170033e-02
-4.460877959841551971e-02
-3.868054630700820673e-03
4.705176728519483431e-02
3.530455733333984214e-02
-8.074645321005577414e-02
-6.736028828145890213e-02
4.809517206983038307e-02
-5.368433498034560353e-02
1.462222118389833181e-02
2.270593548830869557e-02
7.681738390755488144e-02
-6.564040120790623489e-02
-4.346320739984720072e-02
-2.646275570475730560e-02
-2.147904724471280669e-02
-4.220720579194069816e-02
-5.726544960669097822e-02
-3.736896437590045417e-02
-3.487099953176377165e-02
-1.933909944343052689e-02
-3.131439781427033942e-02
-3.074745282828070247e-03
-4.101145968609607589e-02
-5.669541339259850238e-02
-3.467847906539800462e-02
-2.831787853409799272e-02
-1.325048407017125063e-02
2.869449631343297391e-02
5.777716850804190396e-02
2.665292835210181233e-02
-6.948015283051199587e-02
2.701489906294800292e-02
-5.237087065536723957e-02
7.744579177786506397e-02
-2.697441778835393822e-02
-8.271207992319346003e-02
-2.631960850830325493e-03
6.060979049249592965e-02
2.803571817833694357e-02
-2.212505530791436525e-02
4.098130738933822292e-02
7.443752156525398900e-02
8.171444408129641124e-03
-6.356946829630712170e-02
1.097265817164522206e-02
-7.321854217512895058e-02
-7.980357707312292492e-02
-8.090816060683751754e-02
-6.316163481323902595e-02
3.289129435550651459e-02
-7.621899499902155817e-02
1.178713917466360506e-02
-1.831347327549621984e-02
4.605858823097525034e-04
7.618544575958022258e-02
-2.488700700417217915e-02
-1.837148148446031415e-02
-3.265847036336212011e-02
5.579934248190229762e-02
2.548439815675804243e-02
-5.754158520119341536e-02
-7.237725155264805588e-02
1.970079594737692008e-02
-5.068065371393243312e-02
8.272508050502400123e-02
6.435607281114896772e-02
3.778114378716425359e-02
-2.796179810624804807e-02
5.809462357269973287e-02
-6.954978770057550219e-02
1.844003565676571865e-02
-7.621975113598583595e-02
-6.954947855619661445e-03
-5.867605764033953508e-02
6.130495153298459732e-02
-8.016223712050483952e-02
5.728464044936379396e-02
-7.297730301984749202e-02
-6.867104639619647788e-02
-7.386835384625360656e-02
7.667173406687380344e-02
6.944323767080354259e-02
-5.531695967009062076e-02
-8.186310733603464895e-02
-5.823072415858433770e-02
-7.422737974303761366e-03
-1.230136725243428930e-02
7.430825868512963561e-02
-2.757880877210920623e-02
-5.259270196805829189e-02
-8.295550222444762756e-02
-8.386208901416125627e-02
-7.757662010985032219e-02
-2.407373414243079573e-02
-4.995875484796043209e-02
-1.633823194594723194e-02
-1.968548250384478948e-02
-6.441512788581529869e-02
-5.327897189732005989e-03
8.319435198412850063e-02
-8.457637987670850455e-02
4.431578575798361674e-02
1.906643535615354379e-02
2.121707148935624010e-02
-9.922208422150080587e-04
-3.888617519817420126e-02
-2.325025030977802276e-02
-7.719479016671094984e-02
-3.492750214290617911e-02
-7.583569468158887772e-02
3.139027449214149001e-02
2.921831371012033329e-02
5.552715933944968318e-02
1.433622549327996654e-02
8.456093278845025485e-02
-1.410366321966444181e-02
-4.837030193930126620e-02
-5.167196836069819221e-02
5.311446636596311999e-02
-4.600880326706341394e-02
5.017623126918172027e-02
5.810955389497890478e-02
3.947167812941017317e-02
-2.565180360020479639e-02
2.097409575476175125e-02
-6.275659678841200018e-02
-6.238548051402866695e-02
2.969338863525410044e-02
1.743400963890300026e-02
5.265028499911392212e-02
2.285221577312582242e-02
-4.765981094577345645e-02
3.734146348458732001e-02
2.092645450529553863e-02
1.840554952868900251e-02
7.510445859689651726e-02
6.279781950210122643e-02
-4.056519854285708937e-02
-1.559213856792739106e-02
4.998299836117550687e-02
2.834687888812913170e-02
4.978879238805777874e-02
7.003473547147190392e-02
5.445178253964083614e-02
-3.959396827798460777e-02
1.336545594535909487e-02
5.066498455355303299e-02
-2.157239940516722521e-02
-6.081046448507385072e-02
6.027231594550153115e-02
6.018293257022377940e-02
-4.132223970918663669e-02
-1.531507548547174358e-02
-4.519169134664730719e-02
-2.573929053806115613e-02
7.617821653508111135e-02
-7.955182268035781989e-02
-1.857955620583622014e-02
-6.851975328637539830e-02
7.435750276019201244e-02
-5.813365738297788382e-02
-8.460554245420863484e-02
-1.612418600100518074e-02
-4.838670244941517540e-02
-2.769518909968638615e-02
6.723691078792584652e-02
5.247187793245741694e-02
1.490920330836491281e-02
-4.200527154978723338e-02
2.009658405255995706e-02
4.301156398289235350e-02
2.016219710131215981e-02
7.911967299329417114e-02
-3.508680259343116559e-03
5.443371350471046255e-02
6.921325549239526476e-02
3.330144849520277894e-02
-7.970700156956950222e-02
4.638347848601506729e-02
-6.974646763505902569e-02
2.238285770718477508e-02
-7.372119981922932441e-02
-6.152130685604831339e-02
-3.376826552541101201e-02
3.425967865870749307e-02
8.622397256467517757e-04
2.046410021638743471e-02
-5.514329256401560853e-02
-1.691351802321447440e-02
6.914256865035592337e-02
-5.199582448171009147e-02
-7.806593249148661984e-02
-8.232512309254690075e-02
-1.974931593334218471e-02
-3.544868850673798394e-02
5.868271403078756387e-02
6.303165443527869449e-02
-6.776896628518769283e-02
-5.017924145610377917e-03
7.991771289862262262e-02
1.675768397407717547e-02
3.319965813426925538e-02
-8.058258760492137407e-02
-3.149440760824661484e-02
3.158144138296584136e-02
2.174217033888675710e-03
-2.941370460273300125e-02
2.570034786820718509e-03
-1.697719783138468275e-02
-8.378358473382227500e-02
-3.278008723831676852e-02
-6.457180573876486473e-02
-5.222631854407704804e-02
-7.335599765084413471e-02
-6.648927561052039859e-02
8.072768838417412884e-02
1.755429170758970869e-02
-4.512599415714912965e-02
-2.960979340040949259e-02
-7.617298510300311853e-02
2.205026871863872973e-02
5.575806386997228525e-02
-3.687654343970277887e-02
2.798545062055432520e-02
-6.307379208107594115e-02
3.846659579298608578e-02
7.684995760124088693e-03
-8.521195329418196351e-03
-6.555967790500911996e-02
-7.979535090424130783e-02
4.785304047603647359e-03
5.543275164634375862e-02
6.996070525248318517e-02
-3.591394332282442370e-02
1.290427445947441021e-02
1.812259106598726466e-03
-1.356385573718511817e-02
7.494290264107822397e-02
4.874145824218609202e-02
5.790797032690336854e-03
7.552746035787549772e-02
-5.200966217773508871e-03
-8.614097897293226946e-03
5.971472544494610402e-02
5.111399577854253140e-03
-6.507471353813951143e-02
-6.427210050288970078e-03
-3.746123135028171791e-02
8.145469250735820621e-02
1.345420089259788399e-02
-6.462879744432961648e-02
-1.097710690699355007e-02
8.103567106650835794e-02
4.744953433221651973e-02
4.854825631903131322e-02
-1.583178410659639990e-02
7.720565065895024226e-02
2.931759521567568749e-02
3.125043818095868398e-02
-5.413689698902766911e-02
5.172093850326678344e-02
8.236797053084329856e-02
8.111957142484457761e-02
-4.032060118443726165e-02
-1.064516026047079844e-02
3.771047460475822344e-02
-8.157388352451644398e-02
5.776888355496764826e-02
3.159305607209877964e-02
1.453909885765236609e-02
-6.504831928187013168e-02
-1.433942303360287440e-02
6.665593230048841300e-02
-2.450031220567167045e-03
-6.106130567162193490e-02
-4.504026649634616103e-02
-6.489992925115845024e-03
4.035485298593666226e-02
-9.863848632028604513e-03
-8.273202667733157989e-02
-7.081998585145179992e-02
4.399843162064684399e-02
5.934793222849424343e-02
-6.550120535346315442e-03
5.386871463609621546e-02
1.095354126204674261e-02
4.263095890858734083e-02
7.368451466689479590e-02
6.875769651165508645e-02
3.076961718730139572e-02
4.990146961891350763e-02
-4.913634323168341450e-02
-2.067891233818411334e-03
-7.813998458338961006e-02
-4.826758616308298583e-02
1.923823364350200904e-02
-6.454835607905545780e-02
3.719033268132426739e-02
4.040636747281481367e-02
-7.142815332083995994e-03
7.668783134990375672e-02
-4.095185467466428558e-02
7.336323328193902760e-02
-6.964135949724362118e-02
4.431243704484291723e-02
-6.565245029745052363e-02
4.194012463382659761e-02
-7.155749697565808032e-02
-5.532130194642002202e-02
2.593666151626095040e-02
-4.928073399819309086e-02
-1.234664229586404649e-02
-7.650224809122688208e-02
-8.262435646976032388e-02
2.662176689442063982e-02
2.866529908394016557e-02
-2.259828075182409440e-02
-4.471547205419930393e-02
-5.819989407481922922e-02
-8.087790737179981204e-03
4.326928266182919480e-02
3.118787861905986114e-02
-8.343943775026003984e-02
-7.142845833151710566e-02
-7.590165427996009573e-02
-3.275081569661899422e-02
8.186444223528893671e-02
-2.825116291694850651e-02
4.019953235010201298e-02
-8.365678116869064429e-02
-5.426732104692154335e-02
4.442668103435182259e-02
5.928387323806666442e-02
4.667970833578344303e-02
5.170606279321429688e-02
2.450283494634376835e-02
1.694453336670731503e-03
7.889233860599009773e-02
1.826431945203262075e-02
-2.216896500277645843e-02
5.118308161056189798e-02
-1.628906082325617954e-02
-3.081323610175568800e-02
-6.983325458676616082e-02
1.713841853440389862e-02
-8.339481183637917350e-02
-2.929400495827794160e-02
1.831143931000317471e-02
3.242368485744705209e-02
7.765760488635797820e-02
-7.234731595552064409e-02
-5.774436792277348740e-03
-3.288171500110528139e-02
-7.352435030994794452e-02
-8.071147823074262262e-03
-7.029275770558179870e-02
1.731004995263937807e-02
-2.893817273906405113e-02
7.000096713286929617e-02
3.060786331989921727e-02
6.666367043396109748e-02
-8.307756563614854262e-02
-1.551631731069559594e-02
-9.569857129461539769e-03
-2.526103181366319561e-02
-8.107946550158706689e-02
1.867192017952455652e-02
-6.618136213213723917e-02
-7.347703555026374733e-02
5.036245024605764953e-02
-8.015074277170967931e-02
-2.096631426082384841e-02
-4.549600069092149535e-02
-3.639156515875015957e-02
2.102177236883426281e-03
7.793111789157261549e-02
-2.224012322885081383e-02
-9.143747791221429333e-03
-8.137229425197547994e-02
3.015462156494640167e-02
-6.575867610721261580e-02
7.379634448009347869e-02
-5.786577837513827427e-02
4.346843862504784495e-02
7.518541887771729160e-02
4.085736524378483225e-02
2.159619291931330620e-02
-2.441634734093663106e-02
2.028113298231874750e-02
-7.871232118340427963e-02
-1.958658753759996707e-02
2.890229365342965318e-02
4.700431306608884863e-02
-3.619504208964224867e-02
-8.097166352114708310e-02
6.755234652406344464e-02
6.447103848274637894e-02
6.632940250487401324e-02
4.392530258525664810e-03
-4.406373761516527154e-02
5.034920972412504359e-02
4.045706998963491396e-02
2.345743693255943063e-02
8.109537667597355171e-02
-6.138628281870108644e-02
-2.107089358396832535e-02
3.612745306772011111e-02
2.910564264764997633e-02
-1.893355221361280039e-02
-2.343808913958298629e-02
-8.126267101860026876e-03
-3.396540556082902618e-02
2.483928771661768342e-02
6.604124386753026932e-02
-3.361572046140792747e-03
5.910431310429706264e-02
-6.673614755875839633e-02
-6.844063150901810721e-02
-3.449174722567921458e-03
7.704735282224831061e-02
4.944233201304251701e-02
6.929279024131110298e-02
7.994466378769621295e-02
2.007851131137912415e-02
7.534410377000416714e-02
-8.472842254217488600e-03
2.694598690449756528e-02
4.976179216155288132e-02
7.387178643234709741e-02
-3.307372929523744176e-02
7.753516419856643083e-02
-4.425437902390247369e-02
-4.213321102604167256e-03
2.110902782984640236e-02
4.461230615829878121e-02
6.112091820955936616e-02
5.528876219625053490e-02
7.090999378585258195e-02
-1.845413544259992544e-02
-7.236844336483599927e-02
-5.644344974596912645e-02
5.795971935360993976e-02
2.456305542696435307e-02
-1.949792531466251755e-03
-6.883777954139951027e-02
-1.401452057083875380e-02
7.272205287506663951e-02
-1.623171176342227962e-02
-2.887934128458782140e-02
3.295047913952220409e-02
1.491599636722114319e-02
7.733400785119032284e-02
2.263942361308882156e-02
-5.423076535030549317e-02
-8.341886697793392258e-02
-6.860539581398947262e-02
-3.176201215478305362e-03
3.231289332621607724e-02
3.145162361709370746e-02
6.182127303207432534e-02
2.904569672385018397e-02
-4.457040874575812772e-02
-3.817463456829008062e-02
-2.880855014560172039e-02
5.067676868989492989e-02
-1.109177377273244669e-02
-5.588599690223179650e-02
7.584361900688019187e-02
6.443083924818596153e-02
6.186876611292177475e-02
4.853437509386288040e-02
1.191983283368976132e-02
-7.638854153504404110e-02
-3.024015904700105145e-02
-5.996307629557756647e-02
6.688574933549051860e-02
-8.486965841247733067e-02
-5.532396188643345231e-02
-7.663524337362678795e-02
-2.060448285494195786e-02
-5.382772190860005135e-02
-5.991264946470984537e-02
6.790181069316628126e-02
-4.955293929895765448e-02
3.807977424609615413e-02
6.561072422328687037e-02
7.352667601306336898e-02
7.497606956884750318e-02
-5.053309726880577529e-02
3.150013948103971839e-02
5.287283906552750490e-02
-6.297514641595648721e-02
-6.320606057237530828e-02
-4.183152383606322799e-03
-5.562208884020483635e-02
-3.639829601292225020e-02
4.058848427774006118e-02
8.171462089748560143e-03
1.509338128048542949e-03
-6.265001599508310259e-02
3.946401457204962160e-02
-8.459562970137600446e-02
-6.680345068545467946e-02
-2.020674414727272050e-02
6.974157172354600309e-02
7.545829024038155919e-02
-2.563294001251756327e-03
4.054411110839867272e-02
-3.274650622590120908e-02
2.525765136276883482e-02
-6.777659456976178887e-02
4.251925376746731877e-02
1.791554647286061619e-02
-8.029724170115284942e-03
-3.531580372908589560e-02
-3.455299183591379469e-02
-1.018112232495585467e-02
6.180433600441537223e-02
-9.773613880283596456e-03
-6.343533043783869396e-02
-5.418572776406564012e-02
2.750849596603446856e-02
8.495959465305774616e-02
-5.258265390693844105e-02
-7.513760071413864983e-02
-7.637615499154731813e-02
-7.378057708121053826e-02
5.594991914279612288e-02
6.594501843135597285e-02
-2.804297036798063247e-02
-2.066478294682622119e-04
-4.725447402724157475e-02
3.958854344493559219e-02
-4.851205990530019913e-02
1.802870512657997470e-03
6.465331320547557103e-02
5.016077824586584466e-02
-5.707381845369449702e-02
7.955354717929041808e-02
-3.299020427277518652e-02
4.534333751363348042e-02
-2.137369758385243568e-03
-6.768333147274913086e-02
4.086293530669471430e-02
-5.362608861551639711e-02
-7.216518622351729417e-02
-6.371709465274767725e-02
1.781054806653237232e-02
7.064841270475072377e-02
5.068112777765615418e-02
4.919784622161210708e-02
8.292062087396484538e-02
-2.621982633145822361e-03
-3.799749217339359886e-03
-5.113890251888623950e-02
-7.565106234683299791e-02
-2.249267728107014197e-02
-2.328878330865046670e-02
-3.784536854544112011e-02
2.747566703170324642e-02
5.277168323761582958e-02
-6.195233000561443937e-02
7.345393549163586888e-02
4.677037993912872005e-02
-6.316047053437935654e-02
-1.253264211649231241e-02
-7.747649822849400625e-02
7.776179276903133486e-02
7.878911946251776488e-02
7.711444256417662735e-02
1.947462956007545154e-02
5.011695179705946690e-02
5.449347232556897569e-02
-7.900941390404676856e-02
7.503012183590762607e-02
4.052710631577546851e-02
-1.849124387329426078e-02
-6.369154625996684138e-02
4.178542971763390956e-02
-8.209927815865909750e-02
-7.522082363613985523e-02
1.643164593152274255e-02
-4.363907438234202602e-02
-8.420014311714453525e-02
-3.114292443056595333e-02
-1.895323638419711687e-02
-7.451961236195506211e-02
1.585578936835234376e-02
1.295316942635275914e-02
-6.827858132465541852e-02
5.112573157593361395e-02
7.378211060947600930e-02
-5.203888279625407814e-02
2.910531062784939282e-02
-1.963976882404161461e-02
5.788451037165270874e-02
7.932101811085454091e-02
6.968570609872601351e-02
-2.914750854521524354e-02
-2.301600411986302192e-02
7.953791091932424506e-02
1.098193155461395232e-02
7.069557799770853634e-02
-1.261677895468385491e-02
-5.812900875795647820e-02
-2.822703878933463528e-03
-1.659160102013954030e-02
6.127471906105713684e-03
-2.565442796031002642e-02
1.193852250393208358e-02
6.022455912153398816e-02
3.492280269394773540e-02
3.420161836488887219e-02
-6.271959069829347033e-02
3.229389762559285726e-02
2.969764164451833832e-02
3.746599076678368279e-02
4.804700384063947949e-02
2.815501801815695204e-04
-9.090903603547834111e-03
-7.124969071670865517e-02
-1.734392457684467981e-02
1.623477012561813648e-02
6.853358144367785454e-02
8.067714624873809082e-02
-8.035028492520082666e-02
7.054733817114874905e-02
-9.926369901827172826e-03
5.626876058684765480e-02
3.323920275254714507e-02
-7.143261290144888032e-02
8.254374708764714019e-02
6.192259602973160248e-02
7.115934522629971393e-03
4.609079726033823987e-02
5.666658995953102740e-03
-7.745293815951342919e-02
-1.348508380155273578e-02
2.347525892396144787e-02
6.179513165230157701e-02
-2.573065139231728998e-02
-6.227045673915167223e-02
-5.969828003917205389e-02
-1.899949719627157252e-02
1.248827666690990879e-02
-2.341168241418886686e-02
-3.151525897072447735e-02
-3.628605738354478277e-02
-4.231668270344274979e-02
-1.431617104562701859e-02
6.686873643343624329e-03
-2.547288743895841090e-02
-4.155195847292270789e-02
3.972416076303626753e-02
-8.353199908189969103e-02
-6.343737848657229894e-02
-5.304812314151030606e-03
1.642652764909879881e-02
-7.475637937904837382e-02
-7.109353692388138690e-02
-3.229696441123811740e-02
7.235997159509016674e-02
-4.761199717339380938e-02
-6.694363969155119054e-02
-8.227259826828751954e-02
1.920041262124518033e-02
-7.360592313956226818e-02
7.224359934961124829e-02
-4.626368451377380758e-02
-6.041353695270006152e-02
7.373550439226150832e-02
4.537343715187894255e-02
-5.238871486659150284e-02
-6.496607620545098716e-02
-6.041612932266988978e-02
6.733917384958548746e-02
5.547767362979996730e-02
3.473983982097571255e-02
4.350069342372395176e-02
3.769560430557213071e-02
7.373107876407408723e-02
6.421243417302835432e-02
-7.676979350837269400e-02
-8.402194805163731850e-02
2.558245961869785867e-02
-3.533959591690360308e-02
-3.739903317482834444e-03
3.033222585172117014e-02
1.014585674843852814e-02
6.953286419568294185e-02
2.462824708620613146e-02
4.194639520370072039e-02
-5.045080752892494580e-02
-7.833935732982123812e-02
-6.443656298175878816e-02
-5.826688376974193534e-02
1.250572737822469582e-02
8.986162466670249982e-04
4.356800584758874217e-02
-4.346356375355979462e-02
6.491501688810508153e-02
5.347413876872070260e-04
5.008073850884217637e-02
1.591773184865655222e-02
8.199607006813613985e-02
-7.429753371428760023e-04
1.946179541569054150e-02
2.312576379369554735e-02
1.206654190805850346e-02
5.722963474858147603e-02
3.172030624116792263e-03
-6.192472299275536551e-02
-2.978982242422036075e-02
6.418651015277018756e-02
3.737543691078930308e-02
4.217316567534976079e-03
-3.981176014540230290e-02
1.017545353984197765e-03
-3.054827718210149923e-02
-2.953306640714221942e-02
6.338822215594316911e-02
2.483409261781871491e-02
-6.182206357910796646e-02
4.297539404025696452e-02
8.369945216210933348e-02
-7.184752459972564009e-02
1.805394120182900186e-02
-6.344842135265615912e-02
5.689046564988212151e-02
3.707471890640776091e-02
-4.935157519799290848e-02
-1.706719637525098976e-02
-5.760115080007204014e-02
5.576611026652303349e-02
4.720564191346532379e-02
8.371302180098019741e-02
8.455793503746886208e-02
5.865597407453321255e-03
5.885963150586712156e-02
5.448257467804573650e-02
7.156432208768215286e-03
5.436531908467676089e-02
-3.672221476591714523e-02
-1.106782898181070396e-02
2.896881831182446243e-02
3.411280110674945465e-02
-6.608066008904883715e-02
-7.051493467357117240e-04
-4.085680513339656761e-03
-8.474915785994918682e-02
1.938058309664529577e-02
1.297605347925182007e-02
6.304772855621754157e-03
7.277303168273535627e-02
1.459139102474360516e-03
-2.617112280311918032e-02
-8.073545501548573533e-02
-1.438467954154420969e-03
-2.220085449164517499e-02
1.232807148698102095e-02
-6.935646280206900216e-02
3.754446449977434652e-02
7.050622806951695187e-02
4.434205889176198734e-02
-3.395591718847090767e-02
-5.726726948293921204e-02
7.855704083440051555e-03
3.721392274906562547e-02
4.180727072752643547e-02
-2.669065834631263040e-02
-1.358322343468340576e-02
-4.903285152764993993e-02
-2.579144746762073587e-02
4.876141314918003289e-02
-4.693066357271999389e-02
-8.014991021716032227e-02
4.809932768009544946e-02
5.237097320066308459e-02
-3.925566918040267889e-02
7.707507235708668802e-02
-4.052550612086495280e-02
6.696313829704775289e-02
6.890450339897050136e-02
-1.130756717925431032e-02
-5.725526744079179053e-02
-6.505632298540689473e-03
-1.195941632599245574e-02
-2.581244030412837426e-02
2.959738804678667401e-02
2.069482155621200914e-02
-7.411549608965867231e-03
-5.339219107223454330e-02
8.035760001904060368e-02
6.954776963987202576e-02
6.946242652297035525e-02
-7.236666529356364230e-02
3.380911806596331726e-03
-6.561012524178738703e-02
-2.666545989422713231e-02
9.110380015779989682e-03
2.045179978664504739e-02
-2.517881143154031970e-02
-4.744210949539282018e-02
1.904103133578903539e-02
-3.946122309402546463e-02
-5.389342305060419724e-02
-4.485671752006203244e-02
-2.900485222780805478e-02
-9.021864189293002378e-03
-8.255257923133886566e-02
-4.991368880913605449e-02
8.812664583271428986e-03
-4.145076770510256609e-02
2.084176097828085994e-02
-1.428396225357415894e-02
4.731824024710501453e-02
-1.942533544989835659e-02
-8.158948263967719106e-02
-4.359481015520293157e-02
-3.502799975823998185e-02
-1.592144829074651491e-02
-3.334160804362436281e-02
2.080602661686206667e-03
2.977701818670965006e-02
-7.024152274028976073e-02
-1.794520018561693298e-02
6.120935775937197398e-03
3.772046658112791773e-02
-3.933978446764198333e-02
3.886782674553210248e-02
-3.620922287638805859e-02
-1.099118080701143307e-02
3.983064790610613137e-03
-1.147643346393728558e-02
-6.056082851604160933e-02
-4.236528034219937816e-02
6.678621441946430703e-02
-6.247355751468425950e-02
7.422528699016317510e-02
8.175475070781362819e-02
6.593931046606710256e-02
2.226960962730201166e-03
-7.566497540268266042e-03
-3.619238102666117590e-02
4.819761088420843054e-02
6.617282258891324376e-02
3.650673904090501187e-02
1.605269508952208990e-02
-3.368979770327631268e-02
8.178974755111378947e-02
2.007166011581519582e-02
6.083980905850855381e-02
9.908539868510951587e-03
-3.999719297255932560e-02
-8.133993462993369117e-02
5.366880036497267970e-02
-4.729513993705070085e-02
-5.242219302897449529e-02
-5.290603183881027738e-02
-4.178834375364925274e-02
-7.313250403968908631e-02
7.074199928961069639e-02
8.410335211805533562e-02
3.718379339109410819e-02
7.154891120263390247e-02
-2.545025039048319504e-02
-5.361634204665229747e-02
5.631760607854999212e-02
-5.402859910334746607e-02
-6.740231876969857150e-03
2.179722749969024986e-02
5.203680008345160091e-02
1.671195490469222500e-02
6.024710669195912360e-02
6.122434829761033703e-02
4.755704617480507879e-02
1.238400318993464200e-02
7.599849363669075597e-02
4.545480520837652527e-02
1.372022108120694861e-02
4.107423673119545149e-03
-7.577270606947526799e-02
-6.537298698020455046e-02
-6.349235408909333078e-02
-5.059920283367753263e-02
2.351211678664193172e-02
-4.562785510204703243e-02
-6.279166753140569268e-02
4.137528261752607128e-02
-4.320353026595755153e-02
-2.591264350063113980e-02
5.536312911231736078e-02
4.187506517971187336e-02
2.747552604155602263e-02
5.564607800295892637e-02
7.711970616703270331e-03
6.936992933793537097e-02
-6.435062692759829783e-02
3.693443412715001484e-02
-1.697247908797444582e-02
1.850744959947150936e-02
-9.359705164902587526e-03
5.575322216992084634e-03
1.308971670277646326e-02
-1.029950110026699173e-02
7.077131270185610390e-04
-6.786749289939383867e-02
5.252961034998682166e-02
-1.723419953431470919e-02
6.160428308700957589e-02
-4.590165664225289571e-02
5.970189138102680038e-02
-8.081837265157265637e-04
-4.135140964960256488e-02
3.169847177083956469e-02
8.091377973307697924e-02
-2.155483543031198879e-02
5.020252547509912455e-02
8.205687659465379924e-02
2.037979099798353788e-02
7.521766165996024434e-02
6.206029148573014020e-02
7.806926164419861203e-02
-3.624690094351774167e-02
-3.486451079583596097e-02
-5.018540217562763445e-02
-7.192171121630092090e-02
5.463141645192570728e-03
8.420994101916240426e-02
1.964597016811642227e-02
-3.733181005089900029e-02
-5.294727187980521887e-02
6.581970166121778321e-02
-3.439573655514947814e-02
8.401516966083938387e-02
5.083489704495386396e-02
6.258981687615602918e-02
8.581625222351757509e-03
7.878952617686665882e-02
-8.130570192420114028e-02
-1.844761268895989126e-05
-3.545278886746776326e-02
2.871870202788011361e-02
7.551465806415824655e-02
1.820528735103194018e-02
8.206181811504220658e-02
-7.791520193626105817e-02
6.122611100488783986e-02
-1.451723291346780631e-02
1.719726043416647254e-02
6.615592283977658750e-02
-5.782860749354933050e-02
-3.343279207830891775e-02
-1.019196490982265946e-02
8.108842770169655267e-03
-5.755057456326505977e-02
5.174736689541617474e-02
3.058555584303103425e-02
8.304009471505155449e-02
-2.946070985331884079e-02
6.553245396822537927e-02
3.985538138625036031e-02
-4.405439621332089828e-02
2.462706066669545502e-02
6.487160048875947882e-02
-6.387715565483748081e-02
4.172084109678780850e-02
4.483468178227548173e-03
5.710704701044599929e-02
6.271822043435179572e-02
-6.144623009615273607e-02
-8.369575447162549975e-02
4.465435725013930379e-02
-7.415545253036141815e-02
-3.330462305189835215e-02
-5.368874596932562970e-02
7.792011686568234285e-02
3.715915188737770047e-02
-6.675161624566562646e-02
4.423107735521611406e-03
5.174372777598701401e-02
-5.334553577427168097e-02
6.875161656264364152e-02
1.953726159324237210e-02
7.100478965989490132e-02
-1.566157028982648192e-03
5.773786860571197832e-02
-6.056349543348089198e-02
-4.299281034520373301e-02
-3.896318987871916911e-02
-1.361501330039684154e-02
-6.915769107533718818e-02
6.247199285748061826e-02
-7.597073030487347389e-02
-1.662592583255684264e-03
-1.618727651140274004e-02
1.358804942814785532e-02
-5.282015998078238433e-02
-2.797212585373838600e-02
-5.139857417213167246e-02
-1.771207061907291436e-02
5.837978641397198465e-02
4.540576746235333583e-02
-3.534565314522251228e-02
-6.648567028309926297e-02
-1.654268284511456466e-02
3.139779157339608884e-03
-3.872062079951525682e-02
8.299868805939444871e-02
-8.392257682483691972e-02
6.614528708515513000e-02
-5.895028548802871970e-02
-4.610779473293080688e-02
-7.936410769103591223e-03
-5.376697512814909014e-02
1.243648819297808739e-02
-3.941749022211826076e-02
-1.961528613982112257e-02
7.827024958753003858e-02
2.125322967600096202e-02
3.531484089612887955e-02
-8.069099041709729137e-03
-9.797619628826303995e-03
1.401439244555768848e-03
4.439472443114989009e-02
-7.783184099907460018e-02
-1.038980585887824826e-02
-6.986565212737623487e-02
2.693908681764235757e-02
-5.047043091194298309e-02
5.955166418367019432e-02
-7.656224236441221132e-02
7.647633224530764329e-02
-4.211376714335624688e-02
-1.155251347162711273e-03
-3.940054064703028824e-02
3.982509388095238634e-02
-6.334524323729442963e-02
-4.343101395160825495e-02
6.899766131426943172e-02
-5.734200716291591032e-02
4.712318836102158404e-02
3.845925657314532009e-02
-3.433941847274912806e-03
-5.879951857028247603e-02
4.395127384705801998e-02
8.140283190852248829e-05
-3.426471408058964774e-02
6.595557903459639548e-02
7.806639383111438346e-02
6.257055076562431650e-02
-6.078576462879008158e-02
-7.019161020388453576e-02
-4.759091648494337412e-02
7.050070864144589167e-02
1.979822876158088274e-02
-1.224406857967322293e-02
7.123619512164677814e-02
-7.776517713551983624e-02
-3.182719380581757601e-02
-2.275133790916432364e-02
-1.646198848459481945e-02
3.098688542437760818e-02
2.846952698168969675e-02
6.704899976892655933e-02
5.191937494546289278e-02
1.742562464769378816e-02
-3.742740835666217430e-02
1.036381144917755681e-02
6.782484315968076438e-03
5.628104075767334513e-02
-8.018713632137934588e-02
-8.144027133362001514e-02
7.902370930013605244e-02
-5.481295263493640713e-03
-5.600021520817902165e-02
5.300359490039349697e-02
-1.773986801152679926e-02
4.568534362479750865e-02
7.332256833698755361e-02
-8.240357846941397113e-02
3.112069933843246428e-02
7.373309630598132158e-02
3.847090037110199867e-02
2.564739979527788649e-03
2.922165853417336978e-02
3.192167426892209003e-02
3.033062186386983883e-02
7.434877986827423402e-02
5.627087362366631207e-02
4.061771164995334193e-02
5.595035226584452182e-02
-5.585862246607559145e-02
-4.209373113376432135e-02
-4.742285752674194749e-02
2.494139130988239084e-02
8.111942393107118843e-02
-1.646161969993575891e-02
4.252390864646374280e-02
-1.714268838692843688e-02
-1.156481096510664219e-02
5.702463295257989562e-02
3.362195170077772466e-02
-6.843743140712178763e-02
7.009587466030409164e-02
-7.654997286863363115e-03
-3.057866463772829918e-02
-6.476764266167675532e-02
4.627260109586486814e-02
-3.199929426628492224e-02
-3.105739237831080246e-02
1.801569274016374955e-02
7.039665455169108466e-02
8.422559584313352166e-02
9.838579558877999509e-03
-1.589049541197125326e-02
-7.296946759921829617e-02
-3.828395850365053088e-02
-5.777586125475494411e-02
5.114478714137485338e-02
-3.735619800881170155e-02
5.406774726910665296e-02
4.969476452993834559e-02
7.088425648236337806e-02
5.748436125257119778e-02
3.471810509229204811e-02
-6.655370168318128221e-02
-7.362282098116863793e-02
6.102131757425532932e-02
2.097940329642125623e-02
-3.081716512957818205e-02
-5.221798848771104506e-02
5.042685905027308180e-02
5.036885798812903992e-02
-8.481150017611513436e-02
-8.051002703567246288e-02
-2.625111781098452002e-02
-8.497796521075193232e-02
-3.779735204630735312e-03
2.918537856372596662e-03
-7.569417321094942808e-02
6.049260924824031993e-02
5.474301831963188092e-02
-5.493985916111956969e-03
-8.362725844735659220e-02
-3.330336235169575193e-02
3.827959850765277894e-02
-2.510215954096530616e-02
-5.394625726552183809e-02
-4.212502100196155452e-02
2.914952215839995697e-02
1.063565432409824263e-02
6.843270269098639114e-02
4.148839230123294031e-02
2.638686601700908352e-02
-6.425240876726870387e-03
-2.494273327418355252e-02
1.567521970321071600e-02
-3.523306213808651693e-02
6.574171245564405797e-02
8.366592087045160442e-02
1.808792060912192690e-02
6.061061845468229681e-03
1.369163930392566786e-02
2.882181129704189382e-02
-4.992423513300223159e-02
-4.533055741610679534e-02
1.085214885666503648e-02
-2.003147868896290595e-02
3.160133104740915633e-02
8.415626125452616013e-03
7.393411234462046733e-02
-5.042358477920723392e-02
6.331184458982530572e-02
3.739776065188558929e-02
4.727489394772779741e-02
2.639123251753611177e-02
1.225510987965568177e-02
-3.727894804182061567e-02
4.070541194645097005e-02
-1.455802512012886740e-02
8.789762452638447132e-03
2.593888839013874792e-02
2.392971291387691046e-02
-1.413729232881774656e-02
8.666884141628111715e-03
5.825012001228638270e-02
-2.554629388510851196e-02
-3.990959279792191672e-02
6.731648702457707079e-02
6.750888787588762985e-02
-1.931950365348619747e-02
-5.458916745130169140e-02
7.485172939399073466e-02
4.403143107264284595e-02
1.004160607263343552e-02
8.533712968875076244e-03
-5.557162856436921594e-02
6.600339417411174581e-02
8.252104108079999500e-02
9.156394167969594822e-03
-2.145728902325526322e-02
-1.499515268805956536e-02
2.164878761217095549e-02
-3.929173409444054743e-02
-5.789610380167671544e-02
6.137699749060945842e-02
5.568247249143365440e-02
-3.814474797949433255e-02
2.725624531002185380e-02
7.500196913025172774e-02
3.549628408110204469e-02
8.369107655515431454e-02
4.627075535848965138e-02
-8.269166013313376806e-02
1.152116252241427996e-02
-8.502424933357115300e-02
8.361927453852599501e-03
5.278116585196387933e-02
5.382585858952973479e-02
-4.490555418069804017e-02
-1.012069636060074218e-02
-8.346711707658729940e-02
5.317869683634640632e-02
-8.348217446592105795e-02
3.306112043114881049e-02
4.341893305175276163e-02
7.629626663968883116e-02
-5.396814890370110751e-03
1.089241694647263836e-02
-2.064904077361950918e-02
5.015926324065739239e-02
-2.165127613318429400e-02
-8.400130980825649962e-02
1.279477848208063206e-02
2.194809077808709818e-03
-8.312385331636050478e-02
7.336257308896176887e-02
-8.004703811771904376e-02
6.088732564372248413e-02
5.402396730361627708e-02
-6.011894994227950928e-02
-8.506065485698723061e-02
-4.182339485930332973e-02
4.873900249034357479e-02
-6.738682076128721388e-02
9.843240210704637394e-03
3.551878279729582533e-02
5.496958552065389636e-02
7.131500843728194594e-02
6.392813467124766613e-02
-1.446708654316555820e-02
4.472973675300509488e-02
-4.140014308176410973e-02
6.785659537334057245e-02
2.622328475674376436e-02
7.658429678776224048e-03
-8.165191257356044230e-02
9.588947911437772920e-04
-3.604764241249771434e-02
5.071807301360761744e-02
-6.064167422845920946e-02
-2.283102480736737966e-02
-2.079580175580461598e-02
4.841232664118427786e-02
1.816349581526817414e-02
-7.386220335420209948e-02
-2.007597462837604207e-02
-7.618620007379313386e-02
-5.148997884626035221e-02
-5.241752393815515831e-02
8.138560878141337662e-02
-2.761779754719451141e-02
8.086031148654956868e-02
6.944805147310470494e-02
-7.072822583737438384e-02
4.347097217457746021e-02
-8.144230011554144666e-02
-3.544728690311182984e-02
-3.915774067386328106e-02
4.114680938094578133e-02
5.073793310226146214e-02
1.500965273695013813e-02
1.164372856499702735e-02
-4.361926417100018410e-02
6.190545311664957806e-02
-8.135797026467563031e-02
-6.585296459644102152e-02
1.534618485864613913e-02
3.977772104894528038e-02
-8.867313663968728887e-04
7.898774028336996711e-03
-1.494560681044143635e-02
6.671589844744654774e-03
5.335180494681485142e-03
2.867059196936477816e-02
5.073014049230864519e-02
3.288759688131369374e-02
-1.379945790668633820e-02
8.184413843723017945e-02
7.714702194194844598e-02
-2.253742780782946875e-02
-3.486932741751808118e-02
-5.243582718903358475e-02
7.406414539596897773e-02
1.906672802418746260e-02
5.584756386840794562e-02
-8.142502584088819051e-02
-4.923460005315737076e-02
5.823952579096844384e-02
-6.124043005696258590e-03
1.436701756968118693e-02
-1.638485475245282652e-02
-2.214323771490472881e-02
3.945977185051552372e-02
8.422671775151768792e-03
-7.125521718327570975e-02
-7.360841654918826027e-02
5.773384566549263908e-02
1.224954770645485247e-02
-4.019695485687826975e-02
-4.460342253025634252e-02
-2.458577464966371640e-02
-6.944914441258562277e-02
-3.907165273733335942e-02
1.358255963696158863e-02
3.253397058613627379e-02
-6.281374711076445627e-02
2.175173071237132549e-02
7.767619996005437066e-02
7.367004629115034287e-02
9.242448725037821777e-04
-8.441930915545026171e-02
-2.522944471108611725e-02
-6.531578678747583522e-02
6.428472457574518906e-02
9.647230532961598160e-04
-6.922666675556952975e-02
-5.854204780376033590e-02
-2.516270805804606686e-02
-3.232857201912633233e-02
-3.805765188368787771e-02
-1.413448065018993449e-02
-1.680901377718226064e-02
2.685195894720615595e-02
-1.936011662879577599e-02
3.548341237211802279e-02
3.446191544071250390e-02
7.031672446908401874e-02
-1.888718292916123642e-02
-3.225172321378826090e-02
-4.903353136950797109e-02
1.985168577819292068e-02
4.685704239576410357e-02
1.927528518486376630e-03
-3.868224554018410283e-02
7.980807615796511878e-02
-2.929170278712792119e-02
7.304496869444049301e-02
-8.229061081873091654e-02
-8.266719338084867197e-02
8.097999018229024015e-02
-3.806906898611017720e-04
2.752167158091657628e-02
1.002754477636878805e-02
-7.638637579847576409e-02
-1.947762363552579812e-02
-2.960832761520778428e-02
-6.106140276191018845e-02
3.443805972614473465e-02
1.241497367274431440e-02
-2.569369450086511630e-03
-6.709499831398049730e-02
-6.229401944701286331e-02
7.522010940775794574e-02
6.449928813076727385e-02
3.727247027719128580e-02
1.745767763201122591e-03
2.127866802007095937e-02
3.552138513848217272e-02
2.041996653242224291e-02
1.344489464538813073e-02
-6.628847849069120779e-02
7.605547510063334626e-02
6.729321014590228245e-03
-3.107428746541386622e-02
-7.904497974282631567e-02
6.183345898530534512e-05
-6.462992928249175484e-02
-8.180680529459662120e-02
-5.400461136625070435e-02
5.465959357800778684e-02
3.357674320606983398e-02
3.490844680485855056e-02
6.565343076584648219e-02
2.597989330819151788e-02
2.332233736877223351e-02
-1.555632766224891717e-02
-1.910545472211068463e-02
5.964673675016957111e-02
8.209117547411370897e-02
4.665029449723206989e-02
4.648544293744380496e-03
3.764894693363954326e-02
-1.767603478891316415e-02
-7.817364006308225033e-03
-5.671301282532287269e-02
7.888818704714786745e-02
6.373908058435648338e-02
6.990673869802696561e-02
-2.476531110619631382e-02
-7.656106588531216839e-02
-5.134747043407434514e-02
-7.031244070633171916e-02
1.681468871598786052e-02
-8.116430297753829404e-02
-3.085599624233872906e-02
6.581365561962448929e-02
7.076802381257135677e-02
2.812343519834917260e-02
4.723743550792267043e-02
-3.791327275657450924e-02
7.587115285687098809e-02
6.483045638062262528e-02
-1.907122311465114795e-03
5.331699134298087395e-02
-5.512556845124361171e-03
-5.590092239387070561e-03
1.937161966111608513e-02
2.182041792576845662e-02
8.443415186689354202e-02
-2.324229691863730074e-02
-1.787476446815070008e-02
2.110293051448475232e-02
-1.340178517909844380e-02
5.010956368045810239e-02
-6.278533239409411770e-05
3.187211975032364086e-02
-5.175055032963857965e-02
7.572283049344397110e-02
4.905523851276680225e-02
-6.442075667766104796e-02
5.622279043687133937e-02
4.982437262840158643e-02
-3.384461996513730975e-02
-1.656263049296156920e-02
-8.706508451106070856e-04
-4.715646913029195031e-02
-8.420120837319396145e-02
-2.510738471693729074e-02
4.776652197284103618e-02
-4.019133419479526542e-02
-8.207187822812075928e-02
2.314089527892124187e-02
-6.356167845838708863e-02
-8.362251669649531371e-03
-7.237485882239391710e-02
-4.335416843685038768e-02
5.815714959468282208e-04
2.189126394113191654e-02
7.999015928113414886e-02
4.065788967414074584e-02
3.627903751203508109e-02
-1.483701976916823595e-02
6.704036160897672292e-02
6.975508628089710506e-02
-6.138875043655185604e-02
-5.484612017903266190e-02
-3.127357746957953877e-02
2.891687871858437953e-02
-7.253836592316337262e-02
1.587196314911810957e-02
5.439083356048679541e-02
3.750231950748057763e-02
3.950030074923217838e-02
6.552185281809380646e-02
1.334563212923763065e-02
-1.717797495110701123e-02
-2.237318952615414969e-02
1.545064074446091118e-02
3.357353780011590461e-03
-4.135731381380294835e-02
3.885269616955927541e-03
-6.276455866452806953e-02
2.916875129493991248e-02
7.274762386284577831e-03
3.408732610324882728e-02
6.714759033134717892e-03
-1.223696634164563035e-02
4.019137321453755685e-02
7.776075377023061730e-02
1.383946455297144218e-02
1.042048503593319408e-02
4.175379226003173017e-02
-6.555915333010686741e-02
-2.098544618840664233e-02
-1.366440363594612073e-02
6.382695235769847431e-02
-3.910565191435703969e-02
-6.561127914587300269e-02
-3.927405126441702726e-02
4.487241224733343192e-02
7.499753642874529280e-03
-8.130689484064468342e-02
6.107442328027651302e-02
-5.582387162941965242e-02
1.717607220461310480e-02
-6.724853376842560015e-04
4.903154145001628605e-02
5.555214117031262444e-03
-3.679936204004452538e-02
-1.731850762904858787e-02
1.124910759062604237e-02
-4.684571602843786570e-02
2.670867641248941826e-02
-9.542724391238002757e-03
-1.367727100972281062e-02
-7.045689992471057539e-02
-9.722385229217436753e-03
-3.617073541808426412e-02
-6.901364943311300015e-02
-1.521720052292756253e-02
2.008394541461540339e-02
-4.475554446723151170e-04
6.789732512768176242e-02
5.668739188594029699e-02
-5.456884254028991632e-02
-8.397107316237160946e-02
6.072619310082033595e-02
-6.217910514451242820e-02
7.509571657641139764e-02
-5.602958299022273853e-02
-6.043945276985419196e-02
1.543543370640017287e-02
1.847148311251058106e-02
2.113359836854643292e-02
5.467045479989701695e-02
3.914544115921901601e-02
7.859789678444778493e-02
-7.021855696714385253e-02
5.804631699894349794e-02
-2.508459391136108607e-02
1.706932699474822401e-02
-2.977295847242631549e-02
2.155895288424553025e-02
6.311371873879439987e-02
3.301364716752822059e-02
-4.780285517644631416e-02
4.478305602655460738e-02
-8.392815902838823838e-02
-3.186964902612322154e-02
1.553835754412649650e-02
1.192148339099709242e-02
1.160317827905953114e-02
-2.930853295318459201e-02
1.397744079777722692e-02
4.156954983477420540e-02
2.993467590143730761e-02
-5.707665512372649130e-02
-4.400473606171989571e-02
-2.656966044425020795e-02
6.265401958700905771e-02
-5.805258868682489082e-02
1.667436292851473545e-03
-3.800236972344874647e-02
-8.369734001556036751e-02
-1.013351929497585679e-03
4.939945702305273412e-02
3.641805870107599208e-02
-6.203686383476681582e-02
-2.416154417006278338e-02
-1.463197293287379908e-02
2.382809681785448552e-02
1.218231308395682777e-02
3.639413303542944622e-02
7.380182168314144975e-02
-3.103978981097992723e-02
5.785253943976542690e-02
-1.374627271552199270e-02
6.774049249808425377e-02
3.193151302090332933e-02
-4.782047928224159722e-02
-7.980157251656352924e-02
-8.300326732008167507e-02
1.969026575573923354e-02
-1.065012643837523476e-02
7.119062696902078713e-02
7.663354087698079353e-02
-4.529613512361391897e-02
-1.166077117384083095e-02
8.493863128961950948e-02
8.307438262360175574e-02
-2.075046521709758562e-02
4.305969584578428488e-02
1.996990991130143112e-02
-3.092661472011704049e-03
7.733152942885360148e-03
2.889410763606657662e-02
-7.017245008754437186e-02
-5.635870202078926278e-02
1.807001205057695570e-03
-8.457569503107148501e-02
-4.875070511957153158e-02
3.146916474482641668e-02
-4.426959704222419717e-02
1.209179176813222900e-02
-4.150089769598061529e-03
-6.811636986471203414e-02
2.318963512732821752e-02
-4.727756455319059858e-03
-4.435203816913673575e-02
-7.006451711140607164e-02
2.660643858209198187e-02
-1.779180347991157762e-02
5.472111474211174831e-02
-6.653093835991995275e-02
2.371222015733727428e-02
-7.708442588538308438e-02
-7.108732508157257490e-02
2.923605815518365292e-02
-1.315339573105631099e-03
-6.064440181241026462e-03
-1.849726010043092894e-02
4.262513215309143844e-02
-5.556058650119891085e-03
-3.408164899337487452e-02
6.532767926795438052e-02
4.359793430528591252e-02
5.843372682874295454e-02
-7.607105523384688484e-02
-2.833166238631210088e-02
-1.988467329622661817e-02
6.521677478892240476e-02
-4.041994919206935710e-02
7.351964181266149034e-02
-5.873772409775691872e-02
6.589618077288661446e-02
-5.141807181069005250e-03
6.232564430726636462e-02
-2.599527242466873056e-02
6.056395559328453526e-02
-2.186989450286057346e-02
-7.427243364265195824e-02
-8.129762530480030835e-02
4.897242192751369294e-02
1.803529433534112325e-02
1.669043863922461957e-02
-1.476928877191727163e-02
2.216168187720743421e-02
-2.670691153780455768e-02
4.778050435613714897e-02
1.322172122278904294e-02
1.230121504906808716e-02
4.935955134259470412e-02
2.199760633891559292e-02
-2.854006618343020441e-02
7.973726886578330619e-02
7.613473665237846522e-03
7.664224290363935710e-02
-8.224455426743075559e-02
3.680947789432501005e-02
2.175618176793500669e-02
7.377982862221438287e-03
-5.213954542647623175e-02
-5.075470933209570712e-02
-4.210838690377555205e-03
2.432402096138153169e-02
-5.182017620922971246e-02
3.250521064236533419e-02
-2.987247925130720461e-03
5.132503287165274264e-02
-7.913191623633367144e-03
-7.886742284652126234e-02
-9.381913329691127235e-03
5.117340926959945691e-02
3.074940839510428847e-02
8.144167026714418944e-02
8.155019040568725619e-02
3.692598467817077845e-02
-3.041705100709646975e-02
5.369528466109421694e-02
-8.467088242826509292e-02
-4.992804967411779149e-02
-5.699173245604344934e-02
8.464953659103227612e-03
-2.658332689287645767e-02
7.540507860656658901e-02
-8.652594287952550256e-03
-1.201355350092331298e-02
3.093107674665662721e-02
5.910550876073822346e-02
4.718901715408882480e-02
-3.137909083665348098e-02
-6.657845069367047952e-02
8.131777117872157623e-02
-3.694968975263262373e-02
1.993557408364145245e-02
-2.024358687324448458e-02
2.793958212822528209e-02
8.584223535400545280e-03
6.582668411416264798e-02
-7.734232039864542829e-02
-7.863395432152935072e-02
5.548248088537305334e-02
2.525014243600445796e-02
7.436489847727595359e-02
-2.386534946549107028e-02
6.096167272154789929e-02
-5.312168628736942122e-02
4.713683033755172724e-02
-3.473385537691329322e-02
-1.420943198262938911e-02
-5.938804519488195821e-02
5.638050076428810509e-02
3.770178845474576879e-02
8.386894980430684154e-02
-5.183829821520853642e-02
-2.644191182204815027e-02
7.578008029887783881e-02
4.272745497173441320e-02
6.685133746082161377e-02
-6.949510785167738181e-02
1.905178150546710247e-02
3.536618233132352018e-03
6.871757232892017342e-02
-1.275305136691178010e-02
-1.997599328002605534e-02
4.500953588119746551e-02
-5.813940772818314978e-02
-6.753240012077348087e-02
-2.081548532318185096e-02
3.800562914119152980e-02
4.046282363103867463e-02
1.207604185397120888e-02
-5.861974586794094222e-02
5.873273331037950906e-02
-7.697849988519217534e-02
-7.236498982083015841e-02
2.027739254750166031e-03
3.950630188582614222e-02
3.496656743494712394e-02
-4.974799159289692435e-02
-7.102559754240499179e-02
-8.318337402208790532e-02
4.137556732020306050e-02
-1.433837164637616346e-02
-8.445073643381496853e-02
6.978979670593202234e-02
7.866005033767362042e-02
-4.184675216346383370e-02
-1.984779193091099070e-02
-2.651256081305994328e-02
-4.135856311631010140e-02
-4.450040325173346134e-02
-5.117910654898445710e-02
1.297016300757641849e-02
8.325723197010193033e-02
8.326666316832506687e-02
3.152980077853140273e-02
-1.762621610524894855e-02
5.112590345025988525e-02
2.178109409057983614e-02
3.971101114417951994e-03
-5.049090045749171640e-02
-2.795058113933306110e-02
4.932677613399011340e-02
2.319172914062087032e-02
7.238224321713643272e-02
-5.154289579770901519e-02
-5.869981001270815207e-02
-5.580192086942999119e-02
-1.839756780288612226e-02
6.189105425336130506e-02
-9.485658442315150762e-03
4.250283115798386691e-02
5.999921345495506930e-02
-3.567077359101746004e-02
3.534518969306343905e-03
-4.267650622334192428e-02
-6.203605508839721283e-03
-6.586926765821092544e-02
3.834775531739786913e-02
-6.568889421741712364e-02
2.026873595925869631e-02
8.841320569975136268e-04
-6.622637156433019978e-03
-2.197228047132321338e-04
-6.807022356598524393e-03
2.351772220360745513e-02
3.895511696890532893e-02
-3.510814263614187025e-03
-2.544355127167326203e-02
7.685729040522851219e-03
7.343541144092335937e-02
-8.004514458524034093e-02
-3.880844208324989164e-02
-5.297042570626861457e-02
-7.679174519003491295e-02
5.064825902759514942e-02
-3.290598940964769431e-02
-1.811827181427486111e-03
2.180309969652241553e-02
4.218717366135005253e-02
-5.261228541388542068e-02
-7.541288005470811462e-03
4.452796205350009751e-02
6.808547448559207349e-02
6.314540760919717943e-02
2.742610374291064301e-02
-3.559168394344081054e-02
4.943429194665968640e-02
4.080494056093955657e-02
-3.983085469216476188e-02
-5.876106307110658122e-02
-1.664805129684517049e-02
-6.858691326157231871e-02
2.396965942351987622e-02
1.831041981452356804e-02
6.941634411506419911e-02
4.662589280078005549e-02
5.448172458215380654e-02
-6.022967041577467762e-02
-1.468801398609846653e-02
-5.858903714055889445e-02
-8.863306710656257414e-03
-4.660301113232025866e-02
1.460394142760254588e-02
-5.070650462931701463e-02
3.263824010285756860e-02
-5.807531721238323730e-03
2.643562205316266067e-02
6.192515577721025011e-02
-4.464261298256458343e-02
-5.437253259289072382e-02
-4.911513354041857626e-03
7.808097466160887623e-02
3.479889900431187844e-02
5.416051187618656226e-02
8.477660989770513522e-02
-1.964501592072270819e-02
1.536134140795236691e-02
-2.119414129421097470e-02
-3.203887066917497639e-02
-1.167673282298246906e-02
1.422074000911877079e-05
-4.380016314315273579e-02
-1.029203632786374056e-02
-4.248892259543140398e-02
-5.506373321852427172e-02
8.083257358967760320e-02
-7.206400790374209442e-02
6.673264813023993547e-03
-3.893282099664515522e-02
-7.916593472624666727e-02
6.239778774897850044e-02
-4.563041215537465278e-02
-4.034287482002171799e-03
2.959642068222369249e-02
-7.850182278384554291e-02
-2.953441312458270768e-02
-6.808856925818629335e-02
-4.520302724334614858e-02
-1.835628503542664769e-02
2.979447162511864033e-02
-7.192003839494173767e-02
-5.037459081907671304e-02
-4.123311999219021057e-02
-2.362966245130616871e-02
-9.439120775245529726e-03
3.672321101976679103e-02
6.554850766501141290e-04
-7.411835979339943814e-02
7.920922972447433374e-02
-6.091259810517402062e-02
-3.763088366536338630e-02
-1.204023658768736682e-02
-4.375806810610678721e-02
1.630196999298708094e-02
-4.300716044159376417e-02
-3.468191980960971116e-02
8.485043943873496475e-02
7.139915958521095285e-02
-8.039375069008608543e-02
-2.236071039786124981e-03
1.913646967957886857e-02
-5.347118576172500692e-02
4.006045912197889192e-02
-7.368526648695546133e-02
4.795908809896431979e-02
3.535054998787882929e-02
-5.284826357511904910e-02
7.185901580117226572e-02
3.634127499163880559e-02
8.602928861047950959e-03
-6.480142021044939249e-02
-8.072054797509709001e-02
-5.192496200100973208e-02
1.687116518397900611e-02
5.852584232445212642e-02
8.204443168114447515e-02
-5.084443982926658417e-02
3.161881736382497754e-02
5.657458873663162580e-02
-8.031287279964738346e-02
7.446185890868028956e-02
8.223922049775375664e-02
9.262264947490869704e-03
5.286119265392377753e-02
5.496487939410008017e-02
3.200846376638011304e-02
-3.116995430847380871e-02
5.611454452568934159e-02
-3.583650157633645056e-02
6.032786455678715298e-03
-7.362920117077767501e-02
-6.893431893274654110e-04
1.720891954710875027e-02
6.644587213515140700e-02
6.515656842663575254e-02
3.365187441550926417e-02
5.909266383820904744e-02
3.989859655569603925e-02
1.464365286582107462e-02
5.242559290097481561e-02
-3.951291877284895254e-02
3.686659698992965362e-02
-6.557413989703636537e-03
-2.097241981510773734e-02
-7.422732901919554260e-02
2.739194119175066000e-02
7.985852649880054166e-02
3.359058034051810859e-02
8.419770653229233237e-02
7.347028127142732346e-02
5.033820981597902922e-02
5.516752828072388204e-02
1.588496004468331613e-02
-4.601881976521833562e-02
2.559211261110350133e-02
8.045849222569373405e-03
2.214251483963100564e-02
-2.344821277775235163e-02
6.374980199815546977e-02
-2.729408149243838649e-02
-4.557038992219643314e-02
4.612356861976413258e-02
-1.150236532583880089e-02
7.978429628964886500e-02
7.314548224904932061e-03
3.697457365565119669e-02
6.383852226673206176e-02
3.272105392156358927e-02
7.745316229625970328e-02
-7.275347457466713186e-02
-6.134569334612736263e-02
5.037224319525432370e-02
3.635994117565663486e-02
5.809957313739583240e-02
-1.616953296922984951e-02
-3.159566734829584445e-02
-4.774029873845050953e-03
1.243954444364289702e-02
7.017186129079633350e-02
1.913763747341745702e-02
2.367160616699093278e-02
-1.962889791522361149e-02
6.937897018440969399e-02
-8.046958907213860868e-02
-8.386223206731770186e-02
8.483609998205701719e-02
-8.346876610984395317e-02
4.209502572787818253e-02
4.405655811211348083e-02
1.904913642993898149e-02
-8.047256120254150935e-02
-5.444354729044198482e-04
5.022442016402711706e-02
-2.517755140930157121e-02
7.176062460516860475e-02
-6.584167647438554649e-02
-8.434096900983380218e-02
1.172584343256238837e-02
-5.720627626094390572e-03
-4.049591713368173862e-02
-7.352073104349560184e-02
5.766525543530576225e-03
8.449322360043934332e-03
4.231336183141842788e-02
-6.216031468477531408e-03
-1.339213372776773547e-02
8.156335048536184074e-02
-6.011951910286390810e-02
1.787706965348323518e-02
-2.979887149672690028e-02
-4.636194623477201543e-02
8.021000910460671096e-02
-4.732473360112219446e-02
-2.653089798913355751e-02
-8.123881449399636412e-02
-4.342719647016273637e-02
7.239551062451196617e-02
7.222726515645203071e-02
-5.328350488096692678e-02
-1.051568708649656958e-02
-7.651207802943632563e-02
3.372099382114990274e-02
-5.404741541136087735e-02
1.359790554545947661e-02
7.331966956727234419e-02
7.016565263743904102e-03
6.027615518932960548e-02
2.976668686972402944e-02
2.082437465894247663e-02
6.163756626193431232e-02
-6.279733771569900869e-02
8.067284170565164336e-02
4.926716002906836311e-02
6.592686543206155436e-02
-2.358830086694214262e-02
7.389302915299766905e-02
8.002597104930864180e-02
7.619216086179780856e-02
-4.179722015833599313e-02
-8.067809152994419308e-02
2.502808992032164170e-02
7.044748957596910777e-02
-2.029831917231365856e-02
-7.629554951224450099e-02
2.565651428023545122e-02
-3.185116045956624259e-02
-5.760629711459971936e-02
5.240617916596623793e-02
-3.506627423089367368e-03
-3.229477742345492064e-02
1.640570474155973735e-02
-5.953761719020042587e-02
-4.404399981539670189e-02
3.158205116201799612e-02
1.126002820794863579e-02
-2.615439313468968796e-02
-9.532362302526881104e-04
5.320245892198194326e-02
7.425118490587498399e-02
-5.512262091524444685e-03
-8.923178760499819728e-03
-6.075023470820196947e-02
-2.142211710051430962e-02
3.072340523335850837e-02
3.715848650971270706e-02
1.290713061006236451e-02
-4.547693803611721486e-02
6.105068440679126129e-02
6.633109704105250026e-02
-1.013185903898880524e-02
-4.299782166011151957e-02
5.057062691897684648e-02
-6.362246037129710985e-02
6.677887777227309307e-02
-7.815103746112303518e-02
1.729973257819150678e-03
5.229103235740037436e-02
2.200943104539522521e-02
-5.952949938188260848e-02
-2.216886414734497990e-02
-2.540424226388517809e-02
1.056446698643409565e-02
-4.283646834725342301e-02
-8.677215218683934084e-03
1.382869344368535536e-02
-5.913656075809978208e-02
1.314066348349429703e-02
-2.135419592314660719e-02
-2.361149625994538731e-02
4.529089111908590759e-02
3.204064285294148939e-02
3.719672634227097485e-02
3.693233722749095227e-02
7.125089475818896512e-02
-7.618540625447924042e-02
-1.950366542593215402e-03
-8.032913897514842860e-03
-1.500435467435441705e-02
-1.033788141195558785e-02
-7.224897078902753345e-02
-3.893013673546644182e-02
8.304925899433790448e-02
-7.425735078422422697e-02
-4.170360027652444262e-02
-2.506663777714464303e-02
7.396663149502957779e-02
3.713398025550011805e-02
7.300946439691302636e-02
5.825113457777586490e-02
-2.961551183460875425e-02
-3.734764663038174504e-02
-4.028970638977053681e-02
-9.486224027161899164e-03
2.260614328186111299e-02
-5.552762337116212699e-02
-4.395469624186314206e-02
4.445971270727278046e-02
-2.192534459657613510e-03
-5.812531337638230516e-02
-3.312210056284094900e-02
-7.930111921121900387e-02
-4.935825600998017260e-02
9.654068229731069262e-03
8.022969338093849379e-03
5.890544988636081669e-02
-3.654797566398577946e-02
1.320859858062944925e-02
-7.094204870610872071e-02
1.305063439537089420e-02
-6.548811696996716114e-02
2.138669192142511610e-02
8.809035063586864722e-03
-7.346574302222425024e-02
2.022793783574616810e-02
-5.170163616952167668e-02
6.266521218452522635e-02
-8.458836046117815255e-02
-8.243054021086855532e-02
4.858745680793932764e-02
5.922730539551990248e-02
5.874432618151342878e-02
-4.726206323686199529e-03
2.032776123717708328e-02
4.848355868118880974e-02
-1.889509250733166501e-02
2.242767859322084001e-02
4.715391921275227660e-02
-6.213468747271314041e-03
-1.389254279269579173e-02
1.595302954542310303e-02
-6.737823791915797944e-02
1.006742121277615087e-02
5.032200365008066001e-03
8.413549963111208174e-02
-6.677720602076631096e-02
2.563276738648359587e-02
-3.242648616881116386e-03
7.553093271294306077e-02
-5.017098070443252317e-02
1.169951596206275646e-02
1.827594251949474224e-02
-7.677592576220265697e-02
-3.025251223606598844e-02
5.368451024220335932e-02
1.814828897325089507e-02
1.561633608497796366e-02
6.085600767050056148e-02
8.437093521276947672e-02
-7.376648961535546556e-02
3.227749997453127628e-02
-6.706513853058021501e-02
3.227463983169144568e-02
6.897423797503726695e-02
-5.901594582179468113e-02
8.025190070269347387e-02
-7.129919819704684525e-02
2.409788185418532125e-02
6.446952017010137981e-02
-8.205802397722117281e-02
-6.614760640709613226e-02
7.482964531279714948e-02
2.454610393814096736e-02
6.831561910650627012e-02
7.424958574699216940e-02
-6.977729935477208767e-02
6.880878605301130047e-02
-7.229343902393098320e-02
7.089562563769746806e-02
-1.117599207478142675e-03
-8.097017355292135399e-02
-8.475462628387692154e-02
-2.175406270763854955e-02
6.314036323574534482e-02
-5.401375038096958847e-02
-1.153676406439914370e-02
-3.279079495587090831e-02
-1.742956736901557502e-03
-5.462299306179016489e-02
1.330500759215917650e-02
-1.055181267369291465e-02
3.516246201843507835e-02
-7.661306538477144490e-03
3.933370290306555106e-02
-4.253123540621039922e-02
1.704967493733469674e-02
3.254851626216133387e-02
5.062689043191143101e-02
3.335615286226714660e-02
5.903742660942404297e-02
1.435478756335892281e-02
-2.819703375993532629e-02
-3.830196821314107991e-03
-7.481532628433396059e-02
6.404647956447589996e-02
-1.076722258073845029e-02
-3.729068348103305869e-02
7.716520768302920219e-02
-4.048504032996829566e-02
7.354632964028703923e-03
8.308445646484252656e-03
3.330627630212756873e-02
-3.851578098607049555e-02
-1.888989345356140159e-03
-2.141017626217622816e-02
1.979925503076757076e-02
-6.173511789965682034e-02
-5.097163451234868609e-02
-6.067645856017560985e-02
-6.658355552632873320e-02
-7.881018397838877865e-02
-1.625904947871115169e-02
3.010497986152529948e-02
1.012606794775949837e-02
6.088061805461866816e-02
5.960567236344019304e-02
6.595882890034751589e-02
3.701369873542081912e-02
5.014943934366114520e-02
5.409360247672306832e-02
-1.961760792653528818e-02
8.373442333538680393e-02
-5.057148794651425416e-03
6.473054899675992346e-03
-4.780940918984993848e-02
-5.260922335797451471e-02
1.483198391265763694e-02
-3.163803471681081447e-02
3.265352864975246128e-02
-2.697976758875459541e-02
4.974519436901572722e-02
-2.589426620288305669e-02
2.104038965145965667e-02
-9.357887065689754480e-03
-4.614045786554889922e-02
-3.447106040407164895e-02
-5.549690484938060026e-02
-2.987621189751524936e-02
6.056450674543287227e-03
1.019751950124006545e-02
3.795341123293563546e-02
8.123626503271033639e-02
4.739651552058835038e-02
-1.326225509920646306e-02
6.873010922600078509e-02
2.755303093294572681e-02
-6.888358675277009291e-02
3.455250306523535708e-03
2.804343825486513286e-02
-7.463604187945310775e-02
4.635215425003710865e-02
-2.900200576538146391e-02
3.744286102204480438e-02
2.003946457377585311e-02
-1.781508747423203587e-02
6.256269440743456034e-02
7.534525010241638343e-02
-1.850616124299911402e-02
3.724541199704436978e-02
-7.545666896183596262e-02
5.653394605269143613e-02
2.173392596644466157e-02
-1.680276105680023058e-02
-7.287746833995129014e-02
-2.587049593687724275e-02
3.343159228924805215e-02
-6.993224523618547794e-02
-2.864929489644479910e-03
-5.641314927002188950e-02
-7.422602509030731821e-02
4.259522947193861153e-02
-7.266037591273571961e-02
6.531953944754717578e-02
-8.358036836690244109e-03
7.509336778377562194e-02
7.902500877248438971e-02
7.865017138521115947e-02
-3.640510599262686275e-02
-2.321688820049058743e-02
-1.989806472089539202e-02
-8.377238377186022045e-02
-5.799482685081733258e-02
2.842427671122586819e-02
7.989541307008415916e-02
-1.852514848649056134e-02
6.080733825555298400e-02
-7.255261916817166978e-02
-1.313000216220316929e-02
7.570805694472271252e-02
6.178530235687926253e-02
8.077735821129775062e-02
-5.066780482992852552e-02
-7.935432429333208471e-02
-3.747779202790152420e-02
3.533562429985230569e-02
-1.301914545843017856e-02
-4.204195030601444449e-02
-8.062340090198669151e-03
-6.127617333573837088e-03
-3.236509997223440543e-02
-2.423044438873780959e-02
-2.692111543802361284e-04
-3.866125157843236515e-03
1.038719274869454035e-03
6.689167569958584525e-02
3.710772659872732526e-02
-4.678247430327622802e-02
5.537373862123415313e-02
6.333971836441362746e-02
-8.318326047741604612e-02
-4.382324332425756308e-02
-4.371141082611088025e-02
3.338413019690866790e-02
1.931459156089009033e-02
-7.160436785581242303e-02
9.687293244442188311e-03
-3.614102189828726636e-02
-6.397672201089189825e-02
-2.306640558320496165e-02
3.968804190386937547e-02
5.873342652435059597e-02
-6.122891310874892246e-02
-6.475975383720286582e-02
4.503923733089329473e-02
-6.518323403094924973e-03
-4.336405604230553212e-02
-2.974709135599826887e-02
5.129532573374576132e-03
-5.743148525068923760e-02
-6.938935006898880320e-02
-4.650424450641164192e-02
3.481033461241368754e-02
4.957427276654133297e-02
-4.239085691030002045e-02
-2.609631333190538111e-02
-5.341877096883285853e-02
5.340754574185058168e-02
3.257352485460048019e-02
-7.287184715803154966e-02
-6.567694641100171871e-02
-1.280929105049929961e-02
6.357351314013257038e-02
-3.825568673794327301e-02
8.442059673153418098e-02
-5.692927260100762166e-02
6.974877141885801879e-02
-2.936061284714188563e-02
1.122894631397593213e-02
-7.224367938379067100e-02
-4.308899869621780204e-02
-8.026372140096164898e-02
-8.036399898987038604e-02
5.516952641963501769e-02
2.868536388054394870e-02
3.458199058287728112e-02
-2.637335674536198105e-02
-4.655159308610112845e-02
-7.507036734507467612e-02
-7.298750479547408410e-03
-6.732330182728264723e-02
1.158630918134159749e-02
-2.063066760509893460e-02
-7.321712748844341756e-03
-3.871781971756110829e-04
-7.132061931089014872e-02
-2.557615484824223018e-02
6.197609258286673750e-02
8.306982867612175414e-02
-3.503659987995925984e-02
-2.625942825037762968e-02
-6.321011883559152222e-02
1.051818836597660789e-02
-6.546046927104298696e-02
-6.517012907359481799e-02
8.463709447500503136e-02
-2.643620747373377766e-02
3.255135800804889734e-02
-8.542320675712936073e-03
-4.896157784887815445e-02
1.014124952572315053e-02
-6.031211169842522202e-02
-7.912217047186492769e-02
-4.595952507360202832e-02
7.828249533659870085e-02
-4.060246607223942650e-02
4.238965551978735036e-02
-5.412883759705320458e-02
7.280921180711674712e-02
-1.340541517384699621e-02
7.675609260350244045e-02
-6.787598621623597284e-02
5.220319827184269346e-02
-2.682708438857660249e-02
-2.421928760895256799e-02
-5.652323587136079408e-02
7.740019732881020520e-02
4.981849738234678249e-02
-7.652779750474150711e-02
6.580248104484209826e-02
1.686384324423237380e-03
4.645220579337011602e-02
-9.249614252827026428e-03
-6.349929916278186648e-02
4.022425899295112295e-02
-8.067229326634305087e-02
-1.031561726508237187e-02
1.411239236221673021e-02
3.649618763007807243e-02
-1.756093349060575126e-02
6.797444448231229619e-02
1.107521602542664574e-02
2.195556433830414544e-02
7.447975117633731656e-04
-5.183220873799729289e-02
7.832196174348182716e-02
5.783910952469645261e-02
-4.802275235047864799e-03
-6.396372842208064569e-02
-4.775756071545742693e-02
-7.157698026777506439e-02
5.214099668350857808e-02
8.172774625335613163e-02
-8.097332386950545358e-02
-8.652523225976732624e-03
-5.344637771864908793e-02
-4.776851029433182988e-02
-4.501074736143642618e-02
-7.985055217316072707e-04
1.213864212213679183e-02
-7.349760033139159099e-02
-7.139508398389762811e-02
5.616807694958259045e-02
5.681610797090921872e-02
-6.293902234990561562e-02
5.440016624896987230e-02
5.838455946719389722e-02
1.290734915900995650e-03
-3.775584983832505626e-02
5.496253910950246735e-02
3.380701484858257555e-02
-2.612108410912015316e-02
-5.867833784324701096e-02
4.329907467552296385e-02
-6.614153697331606740e-03
2.041852258026792544e-02
8.726462090069900257e-03
-8.116564922390796799e-02
7.398715262575780716e-02
-6.284815660014823890e-02
-3.316489002230019884e-02
2.216995328152412958e-02
1.523752555297119837e-02
3.112238600640511443e-02
6.400584471541770348e-02
-4.030019769851397177e-02
8.102916500105167286e-02
1.518508090916080577e-02
4.563054997147636405e-02
-6.086778064847135628e-02
-6.498211567757083973e-02
4.973256251490087987e-02
-4.382752156227522761e-02
8.261391597339254322e-02
3.392586775365084850e-02
5.734158265965919044e-02
-3.327617441891086297e-02
5.144386714561577367e-03
5.685759030666073799e-02
3.069207329094063297e-02
-3.076216132625355509e-02
1.375735146767090300e-02
1.589477511606585125e-02
-5.742181287891619940e-02
9.529503103669678676e-03
-4.591791215774842366e-02
-5.366150225091239484e-02
-7.507817995943782963e-02
1.132640633622612747e-02
-3.808597684232235131e-02
4.233918886325779840e-02
2.481897145478120792e-02
7.210886765135204879e-02
-6.363574113703307500e-02
4.730024753755865397e-02
1.130216270227885067e-02
8.056531339533146152e-02
-9.862859902762796671e-03
-6.679880534635962430e-02
5.584796136878084072e-02
-1.619826066964528966e-02
-4.566165814937933609e-03
-6.647327209941635007e-02
7.873272350108079243e-02
-6.911613789807967423e-02
-2.990593666450979543e-02
-3.058338541018079670e-02
-4.076502401421520927e-02
6.923596551012631273e-02
5.850592975174151444e-03
-7.324311775534485258e-02
-6.316421153052101389e-02
2.083006270433485074e-02
-7.091682001363741605e-02
1.784244899440340371e-02
4.420912465093934651e-03
4.852374336034942504e-02
-5.439056572140007345e-02
5.286417094793119387e-02
5.305603604623448932e-02
-4.250166136130457961e-02
-4.416830643105156690e-02
-4.652409620229683296e-02
-1.403473008058343796e-02
-1.221921049897309319e-03
-3.104959309495086001e-02
-7.426757489648695698e-02
1.260696255440141300e-02
1.728381863916647609e-02
-3.242584443202009559e-03
-5.606813966830132695e-02
2.371171513004188824e-02
-6.356328891412146853e-02
-3.983299252419952169e-02
1.478541223127877169e-02
-6.130580579042408523e-02
-7.651553799843179016e-02
-7.063670035378943890e-03
-1.836831581713341266e-02
-6.831232079109469946e-02
6.804793008381659902e-03
-2.322492280167288980e-02
-1.652516641379241091e-02
6.551457109569475135e-02
6.053379386070176227e-02
5.697764677970990066e-02
-4.688802134047454634e-02
7.665908452520131533e-03
8.311710582733297659e-02
-1.000615591523539016e-02
8.190615411454038597e-02
-1.370572742132630806e-02
-6.323503574903086011e-02
-6.329359735112508045e-02
-5.504014578326441032e-02
-1.414678734988408793e-02
-1.017363455782821502e-03
-3.229693930849637795e-02
-1.228957226066761110e-02
1.189038134491826604e-02
-6.568298207740735917e-02
2.134497036678620341e-02
-3.276213370679119385e-02
6.129353572991855237e-02
-4.729190150024407957e-02
-7.931850979672183666e-02
-7.539454198428745257e-02
3.281331371564617794e-02
-5.460385456788019454e-02
3.092978868057399966e-03
-5.386584360076247802e-02
-5.904166499012568348e-02
-3.432707129836586046e-02
-4.699048778192534831e-02
7.956214471676134603e-02
-3.230527402464035414e-02
-1.085679761200063209e-02
-5.708217112713590002e-02
2.095496291254002330e-02
8.243674247875262817e-02
-8.139639166608254872e-02
6.966616489801133461e-02
-7.180606429582576944e-02
-7.622852649415909343e-02
7.975763926819545713e-02
2.892564431221822385e-03
6.699769821268142245e-02
6.430609286823224524e-02
7.155107589068607221e-02
-5.914890196320824606e-02
5.157616758700797610e-02
-3.779239134767721497e-02
-9.852073173529374284e-03
-2.349674053800186041e-02
-6.391786265481771978e-02
8.506305341871578385e-02
7.161913115284032627e-02
-1.185504658233475783e-02
-1.412431535594813048e-02
5.729670398009478749e-04
-4.866843228139058203e-02
-7.896837888332028377e-02
4.791057355314295996e-02
-2.174737576831901886e-02
4.298568952876291593e-02
5.253287106829429565e-03
6.003212623847378748e-02
3.348899582201388114e-02
2.470293122052992507e-02
7.396483017840560503e-02
2.481905531965505896e-03
6.045871463946786428e-02
3.886930937188588786e-02
-6.766769317161927533e-03
7.459133902773312785e-02
2.286179296953365359e-02
2.966864237919462910e-02
2.200086991321532903e-02
-3.204498923695620061e-02
-6.334564136513155808e-02
-5.110771293367441515e-02
4.970773087233018583e-02
-6.567862773677414501e-02
-2.151264522412252300e-03
6.962268821316291989e-02
1.857975566754335728e-03
4.954071767063716880e-02
3.114460807930757857e-02
5.313770302890638564e-03
-6.417491493861782192e-03
-5.019675744564926906e-02
3.501658922914957506e-03
1.819781961474213616e-02
2.081660787345035457e-03
-3.817215390390557572e-02
6.523367906038185504e-02
8.978093105015308439e-03
6.435918921173430784e-02
-6.952572293468069209e-02
-8.299957815809111406e-03
-6.902834186562485652e-02
3.212494661673728769e-02
-4.186331219410689003e-02
2.826856970516920808e-02
4.008189530023351099e-02
-1.218735134281322130e-02
8.005989375922459295e-02
2.099264866710361110e-02
2.808548892652122653e-02
-2.948897498571096537e-02
-3.821579150450073875e-02
-9.405087920434526683e-03
6.321382840888936649e-02
-4.545319492893853258e-02
3.370446587590693321e-02
6.691500719681822695e-02
8.305484538893670443e-02
-2.994208337009089671e-02
5.040066249393726494e-02
-2.984461454251088885e-03
-4.855813868592309679e-03
-6.044618591714329137e-02
3.282504580680151163e-02
-1.166147759889663016e-02
-2.342818242525480932e-02
7.748339497899450756e-03
-7.080616627006745822e-02
2.315794154397510241e-02
4.158255604569019437e-03
3.506107649664039205e-02
-5.340734346867562904e-02
1.981099282070460099e-02
-6.413525376270678979e-02
-1.523152326901897058e-02
-1.348191484758681780e-02
-8.187943998556462821e-03
-4.422088630877448606e-02
3.253768087324460101e-02
-8.137000132828488275e-02
3.581090567180206241e-02
-6.881294114315557320e-02
-4.350145285343687274e-02
-7.543745668298107443e-02
-5.359538186793838532e-02
-8.126165587724024086e-02
-4.377730637791341778e-02
-2.623499338756027366e-02
-6.737673863355667092e-02
-5.758631400369570996e-02
4.538625370588411645e-02
-8.172033964979817655e-02
3.640337107981700404e-04
-4.161735405565312323e-02
-2.384633942415975011e-02
7.606030844395816892e-02
4.314652730973903005e-02
2.410038765864649934e-02
-1.342717340185932418e-02
-5.480021692908988717e-02
-8.366783463047827718e-02
4.255819615048497817e-02
2.987960123435265403e-02
5.639523934913334702e-03
1.427456486652178835e-02
-5.537837109937535779e-02
-3.849051217187378360e-02
3.716328028787135862e-02
6.862484342671337778e-02
1.699528881262757363e-02
-6.203969957366754079e-02
8.484499902680639472e-02
-6.315007464387595304e-03
2.906859263928998627e-02
-9.460384036540536723e-03
-8.360269786048420138e-02
1.562379386445086893e-02
-2.428546509935518294e-02
6.399928963222589751e-02
3.247169330714934354e-02
-3.877456462730428238e-02
7.534452583462944442e-02
8.392737945761263862e-02
-7.287281283503899143e-02
-6.766801929676174998e-02
2.593293961502456113e-02
6.079897782820653518e-02
4.414861095351080289e-04
-4.351879803562433424e-02
5.305848836597942819e-02
-1.477785173524646944e-02
-6.039544396090362754e-02
4.775005634758253126e-02
8.158050801440372424e-03
5.386517930625556172e-02
-4.296611748698241778e-02
-5.018936140278203867e-02
5.727636481789274980e-02
7.406720971895278116e-02
1.846964427399630515e-02
-4.538187256039372119e-02
-2.956845541997028121e-02
-8.123821295087646499e-02
-4.243142527195865876e-02
-4.228558335939228141e-03
1.695150550877810858e-02
3.542308125557430687e-02
6.110797106936499690e-02
-4.808473641264469217e-02
5.127375708786593989e-02
3.241626681657122644e-02
8.367519830260908287e-02
-2.167344633794264508e-02
7.863133898804458566e-02
-1.506704495338785643e-02
-4.155936820275423632e-02
-3.380028344247181654e-02
-1.541488447311552268e-02
-6.404407731495841138e-02
-7.225417472066565650e-02
-7.844750789540869129e-02
-4.506643510719049450e-02
3.321447489864406966e-02
9.158163857528864304e-03
-7.604761537504999003e-02
1.323567409677844919e-03
-1.275500588797595647e-02
-8.281736623100056927e-02
4.033923911556133723e-02
3.098538854394469744e-02
-3.198352881650642909e-03
-5.728148996119730718e-02
7.122917932233013838e-02
-2.854350936125570060e-02
4.785617672568578951e-02
5.839369926859552806e-02
-2.860736853283365327e-02
4.240239786867419647e-02
6.096096899944819514e-02
3.855574886104456978e-02
-4.567520238190252851e-02
-7.537431117238345413e-02
7.910271331041934806e-02
-7.632284580415411857e-02
5.200655964289888078e-02
-4.525985738949092618e-03
2.547629118988989361e-02
-2.811105044158879185e-03
3.778827309604335105e-02
3.885375375096065953e-02
-3.244442494373501323e-02
7.382534388649708568e-02
-5.076753269506496802e-02
5.784660684344530845e-02
-3.967807327343931406e-02
2.560005462676220866e-03
-4.258371719096792213e-02
-3.177777843863502372e-02
2.506151304450335293e-02
1.831530417225595009e-02
-1.507139437106573554e-02
-6.079238877992894363e-02
6.683894585266283994e-02
-8.340166166044239715e-02
5.075841293490188089e-03
-4.037181890432193360e-02
3.176133691044506768e-02
3.236264614598745315e-02
7.527082428166967376e-02
-6.917471985131221079e-03
-7.019242845305774525e-02
7.806840629971700807e-02
-8.371717840584730341e-02
5.542266699359957305e-02
1.957085229041512220e-02
7.832408198933937804e-03
-5.766825148510257987e-02
-4.469603182732123647e-02
-3.447388215239964582e-02
-3.746306857392606160e-03
-7.151516929628307095e-02
-1.417878692646132310e-03
1.165008414078792798e-02
-3.954843678555000630e-02
4.090517258881065654e-02
-5.383128296747457381e-02
-5.650386909356588938e-02
1.900534792972706499e-02
2.881933293424898679e-05
-3.036981219820571870e-02
1.467699489920787359e-03
7.253763232715843001e-02
4.113764542305370364e-02
-3.209272253964421534e-02
-4.868479792745347007e-02
3.070271446032918350e-02
5.926864155837746617e-02
-1.576601098755915642e-02
2.625777437720080987e-02
1.188858005731636969e-02
3.540737838215685107e-02
6.608040785366775527e-02
-6.288616755916018319e-02
-5.004717276052161878e-02
2.291453394243433972e-02
8.376306190845878019e-02
3.323304321211176249e-02
-5.353201228618497537e-02
-1.303455430900024581e-02
6.987421595174161948e-02
-3.060400480400884970e-02
-3.607772826197824106e-02
4.388976302729719059e-02
-6.630822750626445827e-02
-6.684147005589742563e-02
5.565741907543331202e-02
-4.745905013631177699e-02
6.371125934975285787e-02
-2.668808830667291493e-02
5.321944230277536603e-02
-6.773334409329483108e-02
5.817560898699397631e-02
3.388805918389180272e-02
-5.412960941278261578e-02
-4.391211030645193747e-02
2.810116179436747408e-02
-1.339265259611829850e-02
4.109203373859721120e-02
-4.728751342937340119e-02
2.293243591930982372e-02
4.605398244863553869e-02
5.535087583936826316e-02
-7.774806290338463766e-02
2.582837946958732589e-02
1.523931272268813641e-02
7.908193913130329156e-02
-2.504429310802894215e-02
-2.243822400195170930e-02
-6.777904399368975263e-02
-2.485444457743715696e-02
-9.321088144738406966e-03
-3.218622843529847510e-02
4.275414399195645587e-02
1.604569335945243980e-04
-5.686827716422936108e-02
3.981394933243774525e-02
2.318809896706824913e-02
-1.173092739974199161e-02
-7.786668587201006630e-03
-3.571811961321197382e-03
7.743662194039882540e-02
-5.254653588474714893e-02
-5.317242414408265144e-02
2.197223848216574293e-02
8.086842553043982473e-02
3.253301384341375502e-02
5.787066082306502324e-02
4.207868534512962388e-02
-3.881325473636941525e-02
-2.616021174162692225e-02
-1.668122261710748566e-02
-4.789842288839829543e-02
-6.662698677514375389e-02
2.990951824037235696e-02
-3.746433235204651990e-02
-3.420132447128774317e-02
4.267645954596710478e-02
-8.308309976019820353e-02
-7.931016800942386480e-02
-4.672246974478354992e-02
6.076991666054909480e-03
-7.499150404222940103e-02
-6.529680380445251897e-02
5.176886322647386574e-02
7.505471056502210914e-02
6.323032224329658280e-03
-8.220146416315768367e-02
8.209565064573509652e-02
3.024356470863365232e-02
7.088467151029312352e-02
6.379662981047076742e-02
5.807209065768245693e-03
3.284761557355878048e-02
-5.924969124749890348e-02
-5.641430015936178821e-02
7.630744517674539762e-02
-7.177001199122264030e-02
1.283613263616611988e-02
-3.269946322113817527e-03
1.242876076028105736e-02
3.976758284807410671e-03
2.566594757384568770e-02
4.817476212822366377e-02
-3.834407217047371141e-02
-2.268679302995887936e-03
7.167544784584617412e-02
8.486477600629732665e-02
-1.375421424724422581e-02
6.545811787039620966e-02
7.785379922845622747e-02
4.303541507129296506e-02
-3.505194148235499935e-02
-7.468250608927709533e-02
-3.005597295599481134e-02
-9.109084422428373462e-03
4.904328423941525794e-02
-3.674347441668274206e-02
1.491783785778637295e-02
2.899562918020992530e-02
-4.311389919509167612e-02
-5.286211903990831185e-02
8.497117200031170658e-02
8.288179144239829488e-02
5.969846118527583068e-02
7.197157569174106317e-02
7.448251128643568197e-02
-1.847507698385177088e-02
6.734472939818800241e-02
-4.958876365698641764e-02
4.084134345414375256e-02
-5.816429431213351875e-02
-5.224828565944624609e-02
-4.907138701159106942e-02
6.363501189464593200e-02
8.448046826539995502e-02
-3.051591599312351855e-02
