6.317613615365673396e-02
-4.159181202659523874e-02
-7.816449003091276160e-02
5.123753251963387989e-02
-7.088640799430288852e-02
-3.114252007307998643e-02
-6.833351443552472537e-02
-4.242285393149650141e-02
8.004687355962135376e-02
-4.680448580977922962e-02
-4.786829136581308153e-02
-3.879385898613490341e-02
-4.471264943671297842e-02
-5.635322588650456405e-02
-5.034912782874000764e-02
2.902271910578732572e-02
6.027188295680326047e-02
-7.258650465171614941e-02
-2.451117103110249384e-02
2.850648773997394025e-02
-3.308759255942505390e-02
-3.309195913382368542e-02
-3.360352266730851772e-02
-2.608848636748619526e-02
3.644837224205516035e-02
-6.807508783739103786e-02
-6.587531537463231501e-02
-6.695827505034186722e-02
-1.601073512902634333e-02
-4.693388001817855315e-02
3.419572965113633345e-02
-3.420107670502158664e-02
-6.798060712676651240e-02
-2.340408523818852948e-02
-5.872621350715979960e-02
5.853536556697531978e-02
-4.628490451694040886e-02
1.852348409066409407e-03
5.515723977543944556e-02
4.750454870586572065e-02
-3.831370756057964760e-02
-7.467040349839032531e-02
-2.973628295043136832e-02
-5.413712432171304684e-02
-5.523270636664148053e-02
-8.494551994675617057e-02
3.129100433303536044e-02
5.447903359980434124e-02
7.843925026565286285e-02
7.915221342828133999e-02
-7.007659460293408360e-02
-2.766878377264627570e-02
5.468941475237983074e-02
7.695982462052051998e-02
4.008778704516145763e-02
6.511243210755211785e-02
5.750681550648494011e-02
-1.488336614165387817e-02
8.208724458546724778e-02
-3.255050510763767002e-02
-7.534842677440645176e-02
-3.976341347547319993e-02
3.163227608137034186e-02
8.237490344873114878e-02
1.711536199193304519e-02
5.175630769900131656e-02
5.265023317995616570e-02
-1.755869398151653493e-02
2.195704079598954916e-02
-1.750486156759803458e-02
3.315425689116503760e-02
3.376828534162554241e-02
-6.438531416428761034e-02
8.713864789025947688e-02
8.187910430990529009e-02
-5.534565887039825244e-02
6.319247143217542051e-02
5.010392469226039591e-02
-5.524247660106884616e-02
-5.260073197614257429e-02
-3.937890068015426071e-03
8.745248328640563285e-02
-1.835151978410370921e-02
-1.964488783561683938e-02
6.039141913862343392e-02
1.534849018221064176e-02
6.223697235413679085e-02
3.229504368124341829e-02
4.745184506392981227e-02
7.919777739314794174e-02
3.261977254248481228e-02
2.540305643051185558e-02
-3.437104193767096666e-02
-2.759776786414384203e-02
-1.437434930721154247e-03
-2.208557564285618113e-02
-6.382482074052414633e-02
-4.582276893897749975e-02
-1.595321509599637033e-02
4.989543821544692448e-03
2.340115187339425473e-02
-2.546485996568897958e-04
-4.476808484461243520e-02
5.761615306313193352e-02
-4.809266011677480746e-02
6.485513073517773508e-03
-1.294592161585667034e-02
-7.706789381573407594e-02
2.989225811671435140e-02
7.492465696519613749e-02
-3.280716388688827145e-02
-7.144416386556404208e-02
-6.079586622809261820e-02
7.272044472071721721e-02
4.890064908891693374e-02
3.903860111928263155e-02
1.260454339134257917e-02
2.284937674038321764e-02
1.478807873195411848e-02
-8.274504491578445198e-02
-2.433353334467340534e-02
-7.793943444573343815e-02
1.832571037530855707e-02
2.577835055426590249e-02
-4.818659518400734282e-02
-1.214224442064561205e-02
-7.701586788041467346e-02
6.612084877630651503e-02
-6.952961320054242000e-02
-3.237600108067764659e-02
-3.833300556123855202e-02
-6.678015704390444229e-02
-7.938460037186532980e-02
-5.293799560393955272e-02
3.480720425823748132e-02
-6.990778934326183358e-02
-8.273126403635328030e-02
4.135265206262626891e-02
1.384729769151259171e-02
-7.794034410625373666e-02
2.035335373689914351e-02
1.481304997420872238e-02
2.019131701187082406e-02
6.069339399235114396e-02
-7.518894768574761744e-02
-7.196646094221935408e-02
2.958451223401291352e-02
-4.379178052626341022e-02
7.621626766207788284e-02
-2.039774905269152450e-02
-3.367871651864695615e-03
-1.823165051193936792e-02
2.009362957542257244e-02
-9.486979983960003304e-03
-4.980099414393993063e-03
-5.679677408873007316e-02
7.343880119042993371e-02
-2.894655595131501169e-02
-1.669578606481568472e-02
-8.210164668326479231e-02
2.860585173169255535e-02
4.486861418760272613e-02
-3.215330934004764774e-03
-7.143442029066619792e-02
-8.151561009068866714e-02
-6.582322258618827915e-02
-6.837641203264618883e-03
-2.862025788594074749e-02
4.159399594706257586e-02
4.006014831447622659e-02
5.505170113607761595e-02
-1.363630596295961617e-02
1.611523093266276074e-02
7.675082742642784506e-02
1.949121356542474204e-02
-6.103850224840356303e-02
-7.499455089219785042e-02
-2.962570898185244023e-02
4.335002171790496017e-02
-4.733588087804366240e-02
6.572467822399429005e-02
7.654313110786699348e-02
-2.831436943461121403e-02
3.606073030595877138e-02
1.392453397902601586e-02
-6.606351752268758981e-02
-6.574847380468494540e-02
5.066632996927472599e-03
-7.403711388785975955e-02
-8.014646042011275284e-02
-3.771890735471369188e-02
-3.397489925309349346e-02
-4.029723419708231003e-02
2.448797409389007196e-02
-3.600295109071109667e-02
5.176046952572775639e-02
6.661255735107897424e-02
8.076641121574769377e-02
7.991138504085147642e-02
7.503516678970360843e-02
-6.485356887678760118e-02
1.278553260307371819e-02
1.590341127614129657e-02
-2.388302390990224011e-02
-8.131227039291527570e-02
1.527314816903306560e-02
7.976635911291272973e-02
4.810442611375524702e-02
1.857036129074725317e-02
-8.741868112827705373e-03
5.397306147022787326e-03
-3.132633936686137627e-02
5.763193812286988849e-02
8.718819852033395101e-02
7.956375047227372266e-02
-5.372202075603024762e-02
-6.718055876613530930e-02
-1.981235587949410626e-02
-3.340201858573160071e-02
6.382233292542476011e-02
2.407368532454638721e-02
-5.608628866955418096e-02
-8.734325422766707481e-02
-2.011276607839801445e-02
-5.809659152024575224e-02
-2.094440088286422808e-03
-8.508816475691820258e-02
2.372136881729025593e-02
-8.169312347065293967e-02
-6.318051301365923411e-02
4.519355240769644400e-02
-2.551342357922625759e-02
7.158435329023955795e-02
-1.825252790762291188e-02
-4.194429534971480522e-02
-2.972170647245248737e-02
-3.574609917519191993e-02
-1.122830030399765699e-02
8.561843004742418495e-02
-6.164249822896827186e-02
-7.713271778620291175e-02
-1.165297166262849182e-02
-3.033369063744902755e-02
2.390533961259279361e-02
-8.967978971552367784e-03
-1.303686680417777410e-02
5.849600429852876149e-02
7.701346099174465054e-02
6.877660493916464002e-02
1.996021634164700520e-02
-3.543775484495298445e-02
-6.027623127248595003e-02
7.327392430900885045e-02
8.092450218210756052e-03
-6.086897230465267150e-02
4.471814011903373076e-02
4.562929450050630387e-02
6.000514040720565656e-02
3.860658962358549939e-02
1.045531801993902776e-02
-7.088800170542546020e-02
-7.691443070375098001e-02
9.632195111490646222e-03
-3.005926529891524146e-02
-7.226041261838588026e-02
8.670983607016059802e-02
-7.038415406707387856e-02
5.985994661604486511e-02
-3.956839981965335623e-02
7.393641687529371731e-02
-5.588745688990624100e-02
5.367475524926342001e-02
6.084617095394571906e-02
-3.036120144146792904e-02
-2.364100727759356479e-02
-8.109358998121797557e-02
-5.167135454775498293e-03
3.142590365166589295e-02
-7.788960289877937260e-02
-7.091014804429957019e-02
5.529697749647066729e-03
-6.872798853233630378e-02
6.220617844024022014e-02
-8.358410041186702111e-02
7.971584900801152729e-02
7.792005677680115261e-02
3.069925176034275782e-02
-7.348616337480805283e-02
-3.674580663429720395e-02
-3.818155821154925467e-03
4.193585473927892437e-02
-4.823522767638019348e-03
-1.717549270278918849e-02
-3.074939826360634926e-02
8.224364742637678416e-02
2.411049684204158439e-02
6.296172983032154169e-02
-6.047320597259493030e-02
1.366803241525021972e-02
-7.853012334872494504e-02
-4.644606397242137530e-02
5.879332211062469893e-02
-7.865714124149873754e-02
-6.788035648777146491e-02
-7.728070883340686092e-02
4.360975766063021619e-03
-1.848647782751483559e-03
-5.726430024519307826e-03
2.036542371698119025e-03
5.858895690121805611e-02
-3.411880355088123262e-02
-4.664512264487206961e-02
-4.583863845294966488e-03
-1.723243761698656229e-02
-4.845157115625069871e-02
2.751330570466851977e-02
-8.694175432736407638e-02
-6.980490244923123755e-02
-2.932756187285293081e-03
-6.300219703919304748e-02
-5.088829033039029420e-02
-8.855963482313031210e-03
1.606554512843857974e-02
-3.423278626108948453e-02
-2.578894132393205751e-03
5.503110636572942915e-02
8.098203729524609817e-02
6.093069725755830002e-02
-7.281285344249209535e-02
-4.284132646882093248e-02
3.944843016294917459e-02
-3.870150954321022879e-02
1.950471350024605977e-02
1.658547461521528432e-02
-3.135055231369826556e-02
2.383031628540792368e-02
-1.437857579596266144e-02
-5.984919145244894240e-02
-6.720264764084316056e-02
-1.791660401918843126e-02
9.146063868795406560e-03
-4.838804568797456379e-02
8.116095591876597293e-02
5.739647189781187098e-02
8.018188496576929281e-02
-1.988367024439571806e-02
-8.071358090471399127e-02
3.780363111311739466e-02
-7.036815293478158873e-02
1.883199946341673758e-02
5.468088110568354587e-02
-3.163155017920860068e-02
4.086928108309269281e-02
-4.152091215002276514e-02
1.365267689730137457e-03
2.698512840394365342e-02
-3.475760175161021065e-02
3.081397013115992622e-02
8.543977114079147339e-02
1.670909084647875797e-02
-7.236606489453849267e-02
-4.186906679604344983e-02
1.531446841616719567e-02
-8.333198672171447663e-02
-3.302693927786796990e-02
5.376638889131578336e-02
-1.968325353687928880e-02
7.614594361436480274e-03
3.016980755261992886e-02
1.120735370616775251e-02
-1.396463384925179796e-02
-7.480807289263577409e-03
-3.933506155444854019e-02
7.284779451374052972e-02
2.968690086601291633e-02
7.497357861503138599e-02
-6.923800785623282494e-02
3.044775874559317586e-02
2.433453802895878260e-02
7.544906069977395935e-02
-5.086502945689548583e-02
-4.409792995061406068e-02
5.821965381147718721e-02
2.655875272049508518e-02
2.656636156378237856e-02
3.025537308032849593e-02
-8.695016017883534787e-02
4.686710520863779372e-03
-4.466372927286632599e-03
-6.075366765041308181e-02
3.192075692309200019e-02
-1.059392508625618678e-02
-1.367831053486656678e-02
6.983264310931548702e-02
-6.195800627958600315e-02
1.925161519800655530e-03
-1.198561082722010562e-03
-1.338375051490653389e-02
-8.675585802292060111e-02
-3.377195049717719721e-02
-5.228644667065788371e-02
7.264999440482843018e-02
8.548754302788753867e-02
-5.644975705217288031e-02
-2.330724412481710583e-02
1.847017482668884825e-02
2.373537159389066398e-02
-6.650914732798071660e-02
8.190898107142270679e-02
5.578009315130301460e-02
-8.152032388143319597e-02
7.976908322346519531e-02
-3.817824396510009072e-02
6.058690660054728838e-02
-5.076016866618987544e-03
-8.121172487508690474e-02
7.057183937203208302e-02
-2.534707035380426993e-02
-5.510537692583093727e-02
-2.270727466091754243e-02
7.112696058090824114e-02
1.205116840950669344e-02
2.766477237274971024e-02
1.682019032784473622e-02
3.395850849147745432e-02
-2.439017803932314044e-02
8.604493838257200322e-02
-6.629179833668295829e-02
-8.728579287325445579e-02
6.915470533454361191e-02
3.229930981543824298e-02
8.113289950902995151e-02
4.045010554827090099e-02
8.068027487486732763e-02
-7.023943823057640645e-02
1.070106275424378972e-02
-2.050474767014032196e-03
-6.861112092210512603e-02
3.719713166507450375e-02
6.138411253027038772e-02
-4.577398217024262334e-02
-6.722010515299835232e-02
-6.747814294983286998e-02
-2.104502137130954964e-02
-3.407795954123803150e-02
-3.460767389486511802e-02
5.327402118683467747e-02
-7.901660779700961368e-02
-7.765572520031320536e-02
-7.764479679042932125e-02
-7.058562104130602921e-02
1.032414290828205516e-02
-8.598755737757997342e-02
-6.181974700462933292e-02
-6.298796083160149162e-02
-4.448965743872845130e-02
-3.460888592207030101e-02
-5.179788990205693583e-02
-6.617716649751977098e-02
2.421793865471645602e-02
2.479832391339460707e-02
-1.783777132105787699e-02
-6.160938992437130224e-02
7.374090393560413237e-02
7.784418964149746045e-02
-2.792746581443026482e-02
-6.601719244518565455e-02
-6.637182756065337919e-02
-3.039232888883152545e-02
8.638208521646457971e-02
-7.591251464420314954e-03
5.428371893013178573e-03
-5.026495710144545520e-02
2.668628751205097405e-02
5.945683392174160031e-02
8.083341706014478267e-02
-5.889017752962434626e-02
6.487084354362195049e-02
-1.297211918947589748e-02
8.183760322547069255e-02
7.997794355630137575e-02
7.781445740264754385e-02
6.851778553152594597e-02
4.997371503208096477e-02
-6.595027954404145132e-02
-4.944299530026171480e-02
8.103186868785840213e-02
4.936349449321318639e-02
5.887677609524404054e-02
-3.453789620209901656e-02
-2.240047053867973148e-02
5.814672343242556496e-02
4.090454271209061077e-02
-3.523516542555761577e-02
-6.768529625835682795e-02
-3.241631707498803666e-02
2.551133864041420229e-02
1.276812073107526369e-02
-8.122085928798117305e-02
-4.251544665963704478e-02
-2.579440844985167458e-03
-3.105367653425747387e-02
-4.223041039410532077e-02
-6.813941829199346434e-02
1.905661297194854997e-02
6.900531914845557668e-02
3.272119435495453310e-02
4.016062318061343339e-02
-4.156451612012116575e-02
-5.621860566253551739e-02
-2.595215236366529843e-02
1.734014243827743107e-02
1.973212942438037909e-02
-8.310663610317794991e-02
4.499837897774829065e-02
8.734758265192173188e-02
1.927145221433261557e-02
2.228781640496166339e-02
-4.101205831345701436e-02
6.504739997405466212e-02
5.704796731490803519e-02
6.188106839464001252e-02
6.159860295453171986e-02
8.433098871205600700e-02
6.311088565154458763e-02
-2.917986264171678473e-02
-3.331046215745619293e-02
-6.080083324943170997e-02
-7.675935098478116336e-02
3.390852702234159466e-03
-1.270967017976092073e-02
-6.566877421309361140e-02
-4.379138847946199148e-02
-7.243117936300766391e-03
5.190934389174438335e-02
-1.858467441354644256e-02
-6.489280047837225895e-02
-3.724775495071434156e-02
6.916924654430896269e-02
1.106174626862420352e-02
3.293646315680730241e-02
-2.362992288242612982e-02
4.125270181931843527e-02
-6.917369399604764157e-02
9.391675595501899898e-03
-7.229275732391128584e-02
6.009323451950303319e-02
5.891336258132727488e-02
-1.084704805319228194e-02
-8.047040659214119152e-02
7.549464856297788407e-04
-1.212887999825465468e-02
6.720399767284364334e-02
-5.063106873166947630e-02
3.298444920787500789e-02
6.887118831570847310e-02
9.872972315457556602e-03
3.473417514641673198e-02
8.216485808440850136e-02
-2.015451508980035944e-02
-8.766593992084648068e-02
-5.116546356658002725e-02
-4.823950774093963001e-03
3.427308558212925627e-02
8.687104373179958816e-02
-8.278236512480088849e-02
-6.612758402716097106e-02
-4.138116860665089214e-02
2.177279237886681207e-02
-8.346461910671780504e-02
-7.493906924254851998e-02
5.883844498681060908e-02
8.742008007917291545e-02
-4.733659444906918035e-03
1.000649019786178928e-02
4.768333222848315789e-02
7.701958598524917543e-02
3.522362194433255322e-02
5.386115403514467326e-02
-4.086815199731112791e-02
1.162853228256115201e-02
1.129324142115407936e-02
-4.356556644677723328e-02
-7.003423214646584127e-02
-4.389786294808997735e-02
7.638565685450515730e-03
-4.127597365978454003e-02
4.413470409750948342e-02
-2.480215967545983113e-02
-6.535215292342219651e-02
8.403136130012256455e-03
-4.398562460109310679e-02
3.149486941314370847e-02
2.026390682337927962e-02
-1.800814402580153128e-02
2.723753124302785711e-02
5.550043899511088175e-02
2.879383548631343770e-02
3.536310766430918184e-02
-5.424075459527251397e-02
1.745475380622026063e-02
-3.425977279573533957e-02
5.323072900744242608e-02
-4.393211053283738177e-02
3.638228416296977741e-02
-2.033071956912987921e-02
2.658820988896234971e-03
-3.785222548796125797e-02
-7.440384274744706039e-02
7.239532758102269761e-02
7.468712299652947861e-02
7.075511569314547888e-02
6.617244919925537039e-02
-4.632533603346084689e-02
-7.644934032441211280e-02
3.897239210706442136e-02
-6.419852399025460787e-02
7.235710031968821399e-02
-1.304081583358898677e-02
7.381822031244447690e-03
-4.399716031883071227e-02
8.008802347660541610e-02
-1.916314379470300533e-02
3.949816004513549694e-02
-1.407922129014002599e-02
1.130692010428699379e-02
2.149308493706729439e-02
2.992823064688751589e-02
1.606037746889513174e-02
2.720333866257182431e-02
6.542960835378967832e-02
5.624687598792375842e-02
-1.135569967611527176e-02
-4.880385309580238806e-02
-1.172995394458876961e-02
1.290252423260471182e-02
-2.643271400308482011e-02
-3.028913614255249187e-02
6.185650635368004913e-02
-3.406573213650396226e-02
8.731278253750675289e-02
-1.439581815110237140e-02
-8.292985972734392974e-02
1.792450461447080146e-02
8.081356016712239188e-02
1.811790320739417592e-02
5.144062545339042614e-03
4.734259278933421189e-02
-4.091635186043454664e-03
3.404233717617088928e-02
4.400419395568340442e-02
7.088779630492732242e-02
-6.241307391331878118e-02
-8.940479495189779247e-03
6.783139625110311266e-02
-7.571602931904440614e-02
-3.597823149882543869e-02
-6.658199564535553783e-02
-7.975891561677313224e-02
-4.439194609859816593e-02
-5.651075061923820780e-02
-2.510889584327581636e-02
-5.577385108773715711e-02
7.444591626717046717e-02
1.068082622869420684e-04
-4.886078957471783751e-02
1.126784984052847660e-02
1.758356332005914235e-02
4.310373359016038408e-02
-1.577869245204646664e-02
3.072224502987437600e-02
6.198611000779559455e-02
-6.424851396988148777e-02
3.641473028095447428e-02
-3.110556784954432441e-02
-1.765622576815346900e-02
7.588331463416239653e-03
-7.629239461226094976e-03
-6.362404960954881616e-02
-1.133617612675597019e-02
-5.219818512524497522e-02
7.319980457187331979e-02
1.518096942580347830e-02
3.987463953040980280e-02
-3.427814059315456574e-03
-1.331451608576844636e-02
-9.894548954835213905e-03
7.161374247579217756e-02
-3.080949729935902881e-03
6.253313160754724043e-02
-8.447648455136853862e-02
-2.087281443775479417e-02
5.989020351297712208e-02
-5.066652862750802011e-02
6.698995625441918345e-02
1.740869069290046367e-02
2.931614959748515825e-02
4.368743600068085431e-02
2.303402574823067150e-02
-4.722325110052341679e-03
7.205014940298602732e-02
2.882530722456713712e-03
-8.964007105112414830e-03
1.006501996307032631e-02
4.565649771191450379e-02
3.212999958577489323e-02
-3.597251203955584287e-02
2.124079665469874589e-03
6.417399190082899441e-02
-1.198090167120086091e-02
1.402252830888739421e-03
6.126714001589762815e-02
-2.155931548997358504e-02
6.341348175314288904e-02
-9.050003954228336145e-03
5.499516111504355875e-02
5.135347812553241187e-02
-7.627794544043670077e-02
-9.517637373477383367e-03
-2.775518972396800316e-02
-1.367535685863663364e-02
-5.116447123062003305e-02
6.600408049376989272e-02
-8.120483246635745722e-02
-7.783773927607010035e-02
2.532362811023956828e-02
-4.872318874867786337e-02
-1.598944405724495033e-02
8.563481655795261716e-02
6.492087769111561102e-02
4.156741460472580807e-02
-3.520784061056328462e-02
-8.857944203594786403e-04
5.823176897098465699e-02
2.010554091706848179e-02
2.367352922749907385e-02
1.989554974183678493e-02
1.940425200212167467e-02
-2.441287810360180666e-02
8.721304303584272166e-02
-4.584263836676372161e-04
2.953294927541275094e-03
3.091568234681534022e-02
5.669972429322960028e-02
-7.670088065503131991e-02
7.975060756213760149e-02
-7.986683576533103179e-02
4.536099735831607138e-02
-3.479984046998944869e-02
-7.713303584780192845e-02
-4.630002852931727059e-02
6.463086861832802177e-02
-6.096969888997250814e-02
4.759647248337030290e-02
6.469899892679667475e-03
-7.828601564606499363e-02
4.406292375104732539e-02
1.598215655075926889e-02
-5.267111676052011610e-02
3.731256743255602359e-02
7.734124365131740675e-02
-2.552336579738073014e-02
-7.792705418755860314e-03
3.626088657859154185e-02
-8.115658359733225746e-02
-2.669199085701168261e-02
4.346993749556359032e-02
-6.363921135928073125e-02
-8.347915611685671755e-03
3.653709173321126324e-03
4.477910559601651352e-02
-8.499931160083851189e-02
3.204355758841093138e-03
5.621449512371130830e-02
-2.062531944179449295e-03
-7.516684706117657266e-02
-4.536060151136694918e-04
4.927857756216953711e-02
-6.146759157103532517e-02
3.538191881969690589e-02
1.816443531747753692e-02
-2.319968672800809539e-02
-6.286080092773246863e-02
4.651692997954016973e-02
1.223226474971973732e-02
4.650536815265272905e-02
-7.678909566149458299e-02
-8.038261295266602158e-02
-6.653051356690867224e-02
-3.213966665427202968e-02
-6.888249079696077970e-02
-5.426809767359583314e-03
5.030651254295949448e-02
8.538876434681043348e-02
6.051917725058836295e-03
2.897692938033530341e-02
7.969203205064274986e-02
-6.924877157600747846e-03
-4.685622022359495209e-02
1.229458984316020298e-03
1.968892574983334420e-02
-3.224539844117647880e-02
-1.580384522716235529e-03
-6.198474231910566096e-02
3.847670381257246863e-02
-6.420371270073471637e-03
5.214489562641096143e-02
3.474197131713781250e-02
4.003407069564353382e-02
1.609581548454008804e-02
-2.829943416119262006e-02
-2.058324407004738510e-02
2.805273498365498663e-03
-5.894547256342518027e-02
5.195341235529236934e-02
-7.126132289079326054e-02
-8.735034937380951880e-02
2.687116344643733501e-02
7.290188589835132349e-02
-8.081416005419694848e-02
1.080191285683582136e-03
-7.356204700646314099e-02
5.244804936084358771e-02
-6.396742724565046556e-02
-3.933581975662077401e-02
7.435156996422152831e-02
1.853229506916696800e-02
-2.149550599165289677e-02
4.120553744925829764e-02
-1.303091292092661835e-02
7.808377020511271527e-02
3.468266245810396053e-02
7.302655166894515826e-02
2.221930860216701775e-02
8.316401738104189922e-03
-3.506433615966850909e-02
8.641219270295873167e-02
3.333334531531920164e-02
7.343633260119818151e-02
3.305918215730636878e-02
8.699347563567690067e-02
-2.877139323581043295e-02
-6.918230777364818562e-02
-6.177833402990996758e-02
-1.698558452983096878e-02
3.380404043729814956e-03
6.111830329304522580e-02
-6.975587201803869208e-02
6.133470582621224076e-02
8.452114340035600526e-02
8.719384312206604482e-03
7.132907928520394736e-02
1.824443261596524202e-02
-6.665570452152569381e-02
-7.575210817615929404e-02
-4.374778461898762988e-02
-7.501215125214939772e-02
-6.225098468160233933e-02
-1.360868800353287611e-02
6.417293963366084431e-02
-7.287449529472607435e-02
2.525167855240012527e-03
6.171427800634284033e-02
2.984576310615508210e-03
3.651421475715316278e-03
-7.187151091688570581e-02
-2.219672396818254956e-02
-8.545467824105801302e-02
-4.942339205149951648e-02
-3.102441988609388329e-02
2.673521840700512908e-02
6.483000469470633076e-02
5.111316032047603930e-02
1.745719616628661763e-02
-6.275577140500487872e-02
-6.753169177240669896e-02
-6.007555226350996813e-02
-6.980824810454627771e-02
-1.654804808060571231e-02
7.509034377352270806e-02
2.739668601373074219e-02
-4.212003547472784049e-02
-3.784973836977820194e-02
4.497636663136665713e-02
5.654817010130104571e-02
-3.971245757432528140e-02
-2.599014590313848683e-02
8.431952675996751134e-03
-5.390398947292562165e-02
5.084985714173391458e-02
8.420652576534677636e-02
8.000350813755892354e-02
-6.026420881874967189e-02
-5.797426148830359116e-03
3.346667303927525206e-02
1.591064080686506454e-02
7.370990492278146899e-02
3.165293982890339530e-02
1.433110079586816243e-02
-3.777801580431901229e-02
3.095929343292799785e-02
-7.299921543609469432e-02
3.024863830778032336e-02
-7.382683102471854220e-02
-3.136381913438247848e-02
6.923842345441776069e-02
-5.184460964740428279e-04
4.101988785889361389e-02
7.870548803358147494e-02
8.058186521205157327e-03
4.991475988662445740e-02
4.654670219746991078e-02
6.407543156765437009e-02
3.907738650020974036e-02
8.020531583696906275e-02
1.484157961591885122e-02
6.732004435982390234e-02
-7.703561459411083223e-02
-4.603733298950005853e-02
4.314284164742816785e-02
-7.526397724602895689e-04
-5.126758772884675713e-02
6.332575547828499241e-02
7.044699414527109960e-02
-3.528075387554268499e-02
7.004576144868697452e-02
3.660896570081909052e-02
-4.768543867888504206e-02
-4.501424867327088325e-02
-5.880558540212087876e-02
1.412699320611146558e-02
8.105705811741308053e-02
-6.622734905422311691e-03
7.818315475724176011e-02
7.184150090536904620e-02
-2.261356931374029766e-02
-1.065400362143101298e-03
-4.810954455679748720e-02
-3.288401815238267689e-02
-6.225243689123596824e-03
8.437087462029556340e-02
-6.696211544516889047e-02
1.394115534303862203e-02
5.889676715207374513e-02
-5.823327410489846645e-02
-7.927384158532779779e-02
1.681676112987037786e-02
4.047798374038076574e-02
7.480598377514512121e-02
-2.363957498668228796e-02
-4.983071225201950866e-02
2.897627101983152320e-02
6.176189392509620624e-03
-7.794721388178185717e-02
1.912376683129830834e-02
-1.370490867777714172e-02
-6.568605598253428324e-02
7.215025931827807881e-02
-2.406467233962418517e-02
-7.919119087611736774e-02
-5.603696326699589975e-02
2.025743607978021388e-02
-6.235377733354181828e-02
1.685955660348958940e-03
1.880443054386227164e-03
-2.847486606524854413e-02
-7.893841567261240810e-02
-4.903593824371639542e-02
-2.207093198510647059e-02
4.246611807480128731e-02
6.174129032550525198e-02
3.844847130640467736e-02
-2.424809028185916093e-02
7.769286496815984433e-02
-6.316567108445976519e-02
6.210083551596924656e-02
-5.250754153635231458e-02
-7.659148158642122006e-02
-5.984223258458406386e-02
-4.790259204547443750e-02
1.158349235013389489e-02
7.177866595857508580e-02
-5.910699662403112037e-02
-4.840292090199970615e-02
3.230854802746398191e-02
7.534717889140603309e-02
3.365551985731268791e-02
4.233224982330870134e-02
1.375287044011290483e-02
7.920476026581545204e-02
-2.229087245099319048e-02
1.044292520317582906e-02
-1.445854395828020944e-02
4.206438544781911093e-02
8.288430953390389655e-02
-8.533459306658665311e-02
-7.481652963428669922e-02
1.978722469458432665e-03
1.212123573370235685e-03
5.452579466427738553e-02
4.070890403984907258e-02
8.098460554664661804e-02
6.617544263058920684e-02
2.274403854052246821e-02
2.303463027439713040e-02
1.431881618235732179e-02
-5.983024088292829973e-02
-4.375416021373447484e-02
-4.644533268405521415e-02
5.699489240270690094e-02
6.785201613545603638e-02
6.533882620402471642e-02
2.271292006760833315e-02
-3.867537739634384353e-02
5.200267143554236637e-02
-2.773678454730282850e-03
4.779625870094066087e-02
2.727416995945572409e-03
-5.584892963751662137e-02
4.403929340082567145e-02
-6.407137599956663765e-02
6.587424283411096038e-02
-4.511146031354727748e-02
-7.915656633130818687e-03
7.688337050585623833e-02
-8.481271880248815453e-02
-4.051842942586755814e-02
4.455823689503134177e-02
-4.052176578636855486e-02
-4.335532407073348915e-02
3.580390749362648284e-02
5.800629375251180331e-02
-8.001639368439347755e-02
-3.385733789951568540e-02
8.692661101991221162e-02
-6.116674117497214458e-02
2.103190075909852630e-03
6.248956122948710890e-02
-8.351419562645798211e-02
6.377922868130607437e-02
-4.798497383835122199e-02
7.446634315051724184e-02
6.357778504577597800e-02
-2.706498585138489982e-02
-9.794713872945809419e-03
7.941711366111424419e-02
-5.391113602513257497e-02
4.220751741507040855e-02
-2.535340320042617224e-02
-2.674034332515772688e-02
5.834162585301165549e-02
-7.073352423373940878e-02
-5.903361129878327562e-02
6.541107539592584674e-02
-6.975779870968756846e-03
-5.197429498107960372e-02
2.320684380550935844e-02
5.488886308811939674e-02
2.335964499965148544e-02
4.869420943225789833e-02
7.824123523564656402e-02
-3.530953242079368226e-02
-2.726975852650858484e-02
-4.929437958478374848e-03
6.689998278871207849e-02
-6.347129750072373622e-02
-6.190976738904060972e-02
-1.424550221880421796e-02
-6.684470920391849535e-02
-1.707053396877594720e-02
1.488622683503530719e-02
1.947056035587385603e-02
1.184211455043518435e-02
1.097274639572158594e-02
-7.407320308086623450e-02
-2.326005389355559339e-02
6.030212882145584430e-02
2.380213492220308036e-02
-5.017751937365644288e-04
-1.730991632323188034e-02
-3.074921310912592104e-02
5.734665786531346898e-02
2.117745005914113687e-02
-4.106689324309425321e-02
-8.331296736712789919e-03
5.501693343617081178e-04
-4.625976058662895074e-02
-2.760938396565160158e-02
-2.588127201241111064e-02
3.529385669333234832e-02
2.712278580375475368e-02
2.811796147111014776e-02
-8.273431417050351733e-02
-6.418763494450789586e-02
-2.122296275599756810e-02
-5.384377590481388698e-02
-4.033085861286982154e-02
3.998360916162919942e-02
-2.929241392747629347e-02
4.449835990478480385e-02
-7.356484407625253630e-02
7.324031592535913682e-02
3.423287786058928917e-02
-4.620980268475510105e-02
-5.986942133808975663e-02
4.118189605288123667e-02
8.292283398316668830e-03
2.678007893767814229e-02
-3.127573156528145465e-02
-4.117263725691638898e-02
2.555263207972521822e-02
-3.573444204445858779e-02
-3.736979616817605321e-02
8.197931678550653134e-02
1.281422292859446532e-02
-7.517249909090974180e-02
5.750215947134139360e-02
2.215064563237627293e-02
3.910062257954231846e-02
-7.811533900548948972e-02
6.059855668387835459e-02
6.153804691622911938e-02
-6.891439089521199379e-02
2.312350456954505307e-02
-7.020870017560174037e-03
7.372823122249870520e-02
6.556469590024580074e-03
-8.291780681594003444e-02
-3.980244843218973261e-02
8.734272998079230244e-02
1.657018377375535367e-02
1.447426940533538819e-02
4.436554794262333179e-02
-1.517240451931349543e-02
2.469543931296021289e-02
2.354008671441187861e-02
5.735869353929461123e-02
-5.314707930553670689e-02
1.471158584503186317e-02
4.409242023526722953e-02
-4.963844058988758912e-02
-3.735076735671628151e-02
6.906751096676748414e-02
2.438945957489091487e-02
-2.020501175786486303e-02
-6.452510555895371591e-02
-1.963793525060543443e-02
-7.902088595599626730e-02
-1.107762955465038668e-02
-2.829576375013796719e-02
-8.515902246547177312e-02
-4.752895166413555195e-02
-6.546308346454335347e-02
4.120493753208602505e-02
5.009299866609863428e-02
-1.250108320031610709e-02
-7.654489645138300158e-02
2.778937346622771531e-02
-7.617211951684760285e-02
8.208065330086798672e-02
4.108590132820041929e-03
-2.786044015403701252e-02
4.287807040731299313e-02
6.089886951740038079e-02
-2.007760277703705964e-02
-4.165372031074825176e-02
9.715229909919714801e-04
-6.449568374992810382e-02
-2.728249669776710434e-02
4.070649036467875737e-02
-4.853391296969265800e-02
7.297055995055391764e-02
-5.022161555701017827e-02
-8.220061988510352080e-02
-8.422321836662463590e-02
-4.081410804972637058e-02
1.403370968338951696e-02
1.300183250812797509e-02
3.134718133361363845e-02
4.801741097739554986e-02
7.395495892152938178e-02
-2.037073183436294288e-02
-7.170226054537963412e-02
-8.614294544301202838e-02
6.916033948248097307e-02
-7.984585224580917351e-02
6.061661316448431480e-02
-3.434196345599444672e-02
7.570334590573173095e-02
-2.957289308511880377e-02
-3.112239292201277735e-02
-1.174889139645876601e-03
3.816287412538553470e-02
2.215602246668817166e-02
3.044197104339171900e-02
6.980988307261432047e-03
4.251427145595620960e-03
1.344822590497149473e-02
2.528644009540209625e-02
6.563939127890716652e-04
1.404098746763184080e-02
2.428914355523492663e-02
-5.012199888784987095e-02
-1.644352485430668198e-02
1.858894078233591651e-02
-5.467658245431081948e-02
-1.508588116541613455e-02
-3.959307979853175785e-02
6.416495963327194241e-02
-4.024262955092790944e-02
-3.268817952092602230e-02
-5.676071922832524874e-02
-8.126472252476667213e-02
3.707659438134690288e-02
3.676820632388423660e-02
4.610278658395876306e-02
1.936053048304617330e-02
-7.187531575221459135e-02
6.562300151888879329e-02
-2.453138068871235644e-03
3.795357611248494079e-02
6.530692636415465213e-02
3.234340937525639892e-02
-5.844603042886059585e-02
-2.443061757108937193e-02
-5.479711478619895410e-02
-6.451962657590015748e-02
1.552328153258657195e-02
4.882252325402695881e-02
2.608289448154717249e-02
-2.740101826659939455e-02
-1.369660590837622205e-02
7.395116162238841995e-02
-5.141038017954541184e-03
7.173006325871934818e-02
-2.283632001290356039e-02
-6.590927607432624236e-02
-5.006375995018593622e-02
7.048346763536238180e-02
-4.281510310942121533e-03
5.442092417212593403e-03
4.270442840498046844e-02
-5.341219084438852266e-02
-5.423760345960459972e-02
1.085558479751742855e-02
-3.839404683899966947e-02
-3.215826296957532276e-02
-2.864922529180718991e-03
8.579001043322916076e-02
-8.224340052173348403e-02
6.406055533312614292e-02
6.774264341786924437e-02
-8.287703292328205129e-02
9.424602695294381771e-03
-3.150099380952231520e-02
3.718618683679238146e-02
6.963648973496534833e-02
4.417782676064251068e-02
3.285844562639524125e-02
-4.404961280010558089e-02
-2.287765604655114804e-02
-7.209579666075374704e-02
8.091367948186489745e-03
3.366334411809669691e-02
-2.402564286584830955e-02
-2.498948605225412289e-02
-1.157973461908319568e-02
7.135168270790144540e-02
-2.792401163745873716e-02
5.100215337851370101e-02
-5.058495910976873455e-04
4.653873202586474023e-02
3.311129869655635161e-03
8.160458147181411104e-02
2.714296269204766188e-02
-4.370671555348208670e-02
5.683999692511566837e-02
-3.552343760271002571e-02
8.764905150893996522e-02
-4.031163317478850955e-02
-3.226134988365344375e-02
-6.239333355812629045e-02
1.281232079492086728e-03
2.630709904043876390e-02
5.208010292677091313e-02
1.441303380801300937e-02
3.074698764150031460e-02
2.756982125950879770e-03
2.932482900054696195e-02
4.498617675328371590e-02
6.509726911842254882e-02
3.222299630108568791e-02
-3.904588135705078233e-02
2.162161587577483834e-02
-5.509510182031553821e-02
4.035298010797512547e-02
5.480903111195219168e-02
-6.074971029357639773e-02
2.808446098511566125e-02
5.853860088813898910e-02
6.885913165437508587e-02
-7.730393256595737006e-02
6.337218230249630491e-03
-7.737882861744665997e-02
-7.596049134848199824e-02
6.831766646686025790e-02
-7.994866414928657183e-02
5.767555830630209657e-02
1.220055762529896615e-02
-1.677133928385678152e-02
-5.172989363738877272e-02
-5.204992640459698422e-02
-3.325331579958724221e-02
-1.320419875287520695e-02
1.762722078785720903e-02
-4.272869171055541926e-02
-4.311207895857115807e-02
-2.086144151245986067e-03
-8.388547125107942426e-02
6.288030983170443677e-02
7.855817599939078633e-02
-2.743314529946250246e-02
6.443455192019133249e-02
3.442201106415579415e-02
5.978878990637249979e-02
6.597249724279109773e-02
-6.324931798945769568e-02
2.596715763577829572e-02
8.157254768083095631e-02
7.237514633015364185e-02
1.555271872049496240e-02
-4.828506485433598644e-02
2.584146322678440577e-02
-1.388465796885127168e-02
-2.660909874619193927e-02
8.183478436471401662e-02
2.018966111371678362e-02
-6.256204928845929270e-02
6.914079380731046054e-02
-5.351151914973201196e-02
8.011480913906833534e-02
5.153287025476656347e-02
-2.228025370168081054e-02
-6.968976158214974792e-02
-5.394118999303222639e-02
4.708292020605671369e-02
3.573292055817635371e-02
6.929220699950319751e-03
-5.944313395190554267e-02
-5.999536284546896220e-02
7.338381807759607189e-02
-5.056930699862421247e-02
-4.134862938697639323e-02
5.685917213992368324e-02
-3.732215421589126642e-02
8.059658133398518720e-02
-5.913433318972224906e-02
2.594658110232164749e-02
-3.267853952658189565e-03
1.877839307285164572e-02
-5.964449970928721589e-02
-1.262349605151488752e-02
4.470443399480536484e-03
1.639553917245197001e-02
-8.675224954592891669e-02
5.585514781029825293e-02
-6.959562952361242338e-02
2.733231360682497613e-02
7.640895150270558822e-02
-4.608918681288667885e-02
-3.913077677848098013e-03
1.097131577052927465e-02
6.475617470051110713e-02
-7.848660134226119467e-02
2.186436072073137671e-02
-5.448627553616108149e-02
5.195940327309245266e-03
-4.689767277577486237e-03
6.978986925989295875e-02
6.280377014284645176e-02
-8.543179515925956868e-02
-7.117040760603382532e-02
1.798593431586631430e-02
7.477421018049469625e-02
-5.233997160109653962e-02
8.638409889557026322e-02
-7.643516913682599223e-02
7.332301948505913491e-02
-2.670210155106631650e-02
1.488369882276777134e-02
-4.066365300550614514e-03
6.972457087849877333e-02
-8.275766300082532112e-02
2.868931420242432084e-02
-1.461537565152483398e-02
1.707196532700128166e-03
-7.831347657859713540e-03
6.423023275558305267e-02
4.383083786403184356e-02
-8.607140131488633106e-02
2.446310759984399175e-02
5.350123605532437765e-02
-6.860451774378925616e-03
8.517568464236029147e-02
-6.570098257514760121e-02
-1.612591075775243743e-03
3.398165792612889424e-02
-3.142430304072435510e-03
-2.433333954987908221e-02
-5.897598001761839709e-02
-2.985113408163431875e-02
-5.733874345479095941e-02
5.826009024439883499e-02
1.838558218274256861e-02
9.295073575381798681e-03
-7.049145047874127989e-02
-8.313580340077315889e-02
-2.360768225523428299e-02
3.022820920307778270e-02
8.288889362983876963e-02
-8.059726527794622286e-02
5.594225347919055957e-02
1.649404804482347553e-02
2.678836823407125534e-02
-3.374980651917175445e-02
-3.527373014370151216e-02
-5.542121905353842443e-02
2.745903080036568578e-03
8.709614152328028214e-02
-1.196846086177526247e-02
-2.756430621626414224e-02
6.044594160053333443e-02
-5.829013674586994154e-02
1.098649584515550004e-02
2.452809148964021912e-02
7.240120223356309725e-02
-4.408558676755672950e-02
7.975825140037574867e-02
4.868677667820245358e-03
-6.995665639565971927e-02
1.889463321450698952e-02
7.478828204852920603e-02
-4.229227519745264174e-02
-8.210220745118287922e-02
3.848526073035653250e-02
-8.047931278057542104e-02
2.754911206838205062e-02
-4.089822573055233029e-02
-6.810882403840412547e-02
8.296305774682587175e-02
8.703567973809929470e-02
-6.400340236432906782e-02
-2.269111966371509248e-02
4.179399682769698032e-02
-2.761018290010460591e-02
6.825586570343820936e-02
4.142398310507638959e-03
1.936708020009952902e-02
5.320360584989926311e-02
3.512561717570909792e-02
-1.927516415249473647e-02
-3.868224143364053930e-02
2.892199861773379899e-02
-3.263051146818488762e-02
3.184475735904254701e-02
1.453550231282813021e-02
8.622331287573888059e-02
-7.567400844090188539e-02
2.632006570067266238e-02
-2.296315088736933241e-02
3.916564453285888148e-02
1.131564631584688896e-03
-8.347296014062123570e-02
-4.510369781647052129e-02
5.382115723253459716e-02
4.281623518622072744e-02
-3.631460496552588874e-02
-5.325842768136038186e-03
7.801199211300095804e-02
3.650930889545692115e-02
5.093365958902072721e-02
6.040703762086367667e-02
-2.331297974953679131e-02
-6.524627748739751654e-02
8.176428023554331570e-02
6.904094098572562122e-02
8.036226318405323421e-03
-4.210298036467043092e-02
-4.841666853436869117e-02
5.600139792877230349e-02
7.709216200966372001e-02
3.769876190907055225e-02
4.070472877341245466e-02
8.125629066573113179e-02
6.017989255258369974e-02
-8.022849848724498967e-02
-3.644429721934458466e-02
-8.342280509386595932e-02
6.163650903851787544e-02
-3.770175327039483604e-02
6.074527293949276430e-02
4.894742154983315607e-02
6.657435615063100887e-03
-5.507856868720202581e-02
1.740320897312898352e-02
-4.804558093092330118e-02
5.948340188538180084e-02
7.941224538886583473e-02
4.529924908597467159e-02
-5.005350519987994407e-02
5.478708404786754305e-02
5.102336087536517295e-02
4.720713132078264984e-02
2.795572350141839468e-02
-2.274974050774088152e-02
6.106821532146879117e-02
5.147699176308399849e-02
5.135814835637393660e-02
-4.590308743784426992e-02
2.516220910230207441e-02
-3.036764663725899371e-02
6.543176243192895536e-02
-2.830290288892368250e-02
-5.242578298659871655e-02
-7.114837661153863846e-02
-8.322773954806406138e-03
1.596584446648487143e-02
-4.691948352927312327e-02
-2.726547636116058437e-02
1.681457524670833259e-02
7.765942337648719385e-02
4.087409567338204375e-03
8.491669133342215348e-02
5.417815694882406607e-02
-5.792445302657490275e-02
7.276790659300678976e-02
-1.464301742603897616e-02
-4.880396871797635511e-02
1.469586117176180373e-03
-2.276374577779002872e-03
3.307422628428359490e-02
3.646407649228575187e-02
-7.023000133810629320e-02
1.638332668033359862e-02
2.473032963901250492e-02
9.703131347220866898e-03
7.770633127613911506e-02
8.131938926409544577e-02
6.242490938990115368e-02
2.806696154001366017e-02
6.499298812390484625e-02
-2.653085832141339334e-02
3.647685261943031665e-02
-8.654347186846357565e-02
-6.219776667990370433e-02
-7.634773236852128442e-02
6.094553015043142896e-02
-5.714100115360920551e-02
-8.635266469869867789e-02
1.883645581036358374e-02
-7.791119384976613604e-02
6.151327337380015081e-02
3.553042423650952519e-02
4.494644739721294358e-02
-1.845622505375688061e-02
6.127348880012817300e-03
1.892388262128696930e-02
4.164380545616395979e-02
6.021835747769650748e-02
-5.436005122221767433e-02
1.629147757653866269e-02
-5.004864879053631810e-02
4.632055094401378581e-02
7.523146702226220228e-02
-6.535242117916945093e-02
-8.306935518398200768e-03
-5.298381422279142827e-02
-7.986105732518290756e-02
-3.185767497881959731e-02
8.040592668624609030e-02
-2.772993565956108353e-02
5.331686782348572795e-02
-2.730089499139878861e-02
-1.716336890896504042e-02
-7.791612008433851377e-02
-4.053211917849707663e-02
-1.827135370084002897e-02
-8.071807442630810070e-02
5.256530660637821761e-02
8.139205417486934657e-02
-9.806804188838419423e-03
4.119169005424162811e-02
-3.240326157148197550e-02
-6.084378273001572746e-02
2.602519768607253203e-02
-4.105804155580913828e-03
-5.305455994245824453e-02
-6.967065085824711290e-02
-4.387415297358671085e-03
-4.787857425917726312e-02
-2.571858668397319914e-04
5.664916517993730249e-02
-1.692792340381132909e-02
4.267243046880193902e-02
2.390760983103694393e-02
5.241209225665642568e-02
-6.488810745778531008e-02
-4.790947459507558653e-02
3.444757666715868305e-02
-4.402293977916955925e-02
2.682787272952057156e-02
-5.450160943978880901e-02
-4.530366568856011855e-03
5.728416611212956699e-02
-4.275981629769487480e-02
-1.795773569355925414e-02
2.919077773512321339e-02
-4.062121657385790729e-02
-3.184989209988875469e-02
7.096362525000086963e-02
-7.779096756393481804e-02
3.049617415811310683e-02
2.479614317464809425e-02
-2.753832269310885206e-02
7.717036453498714310e-02
-6.583542772856490477e-02
3.792577833457623504e-02
-6.276399603952134698e-02
-4.022958264786339472e-02
-7.040714300442671436e-02
4.130909727952104815e-02
1.560235276288210460e-02
4.606621505640991210e-02
2.073363937620018027e-03
-4.351031685778706387e-02
-2.672047118547753869e-02
6.979219697562592806e-02
-7.880199998655107452e-04
-5.649979992547317365e-02
-1.414546979297523488e-02
-5.919752064578247958e-02
2.813274740053049727e-02
-6.940030381677941840e-02
6.789520043193790488e-02
1.659982388407411913e-02
-4.501942783186309305e-02
-5.803066390265769481e-02
-8.670235652498364809e-02
5.705179967064756552e-02
-2.684650867102400529e-03
-4.511647462650088258e-02
-7.087398564225370901e-02
-1.532617651047496476e-02
-4.735374860858333063e-02
-5.376224177197681808e-02
4.848673939212043427e-02
5.236994879890659316e-02
-4.494003933460075095e-02
-4.043190114155781334e-02
1.332270788048456334e-03
7.589627100245896485e-03
-4.765119895266552164e-02
-7.733320183502871703e-02
8.346807755390657502e-02
-4.215406895937894721e-02
8.748966338960607880e-02
8.301960979567753196e-02
-6.916712046803331904e-02
8.578207480512921312e-02
-6.065277373390516591e-02
-7.058698191327454630e-02
3.664859896061237188e-02
2.532987315007731444e-02
1.092358196819234739e-02
-2.833355933888082046e-02
4.130636210865630542e-02
4.891634153645464667e-02
7.644781099743201691e-02
-4.626748468903438272e-02
8.296862661296354469e-02
-2.340077586259299569e-02
4.967325491964581785e-02
8.265507303961446006e-02
8.063991291531218131e-02
8.048891226521871778e-02
-1.332715477714947749e-02
6.781278825201152161e-02
-7.832602079810918605e-02
-7.031459828155346703e-02
-5.564126471865922519e-02
-6.818918086657355104e-04
-1.151103864855823611e-02
7.009642142945689269e-02
1.961298239292030843e-02
1.969312039349915833e-02
2.166299237500074470e-02
-2.012158856190385259e-02
-3.604423344648158278e-02
-4.534217932399528528e-02
-2.646698961121068949e-02
-4.490277364343264743e-02
-2.798610055778544964e-02
-3.939547143297986165e-03
-2.162058028620250649e-02
-5.671814671532618424e-02
3.579914424371949400e-02
5.911522958122496230e-02
8.378258873871959056e-02
-4.619618184809964889e-03
1.792389571686633931e-03
4.893234357932628453e-02
-3.791347709261012888e-02
1.258152581640772927e-02
-3.985862414156125105e-02
8.169076576897692232e-02
-1.404172850890381130e-03
-2.246035556880825179e-02
-7.367641251956882908e-02
-3.136848331787558952e-02
-6.962491017929905990e-02
6.650706225617840361e-02
-7.091324861894895970e-02
-3.430411750180591135e-02
5.603425499929162723e-03
-5.344749289516706470e-02
6.237819109003701901e-02
6.783308032138797572e-02
4.114239475388456468e-03
-8.711818034019942758e-02
-8.606927483306257842e-02
-8.081165114767835389e-02
7.366897324912972944e-02
-5.057276273864702576e-02
5.406439923884921728e-02
-8.761337532779490955e-02
-6.314172582229719832e-02
6.716908371566625291e-02
-8.640634381950541842e-02
4.568105128044865071e-02
-8.665872129704413340e-02
3.327498067589343411e-02
4.230804812038786722e-02
-8.008928792224861981e-02
-3.379140584219710031e-02
-5.189694752942953376e-02
-5.922942737547650521e-02
1.037592859629107855e-03
-1.384737269342198318e-02
-5.032973665281548215e-04
-2.222863966059705765e-02
-1.214990154744510775e-02
8.258889673980987500e-03
-4.083773220637361423e-02
-5.980119977088529937e-02
-1.351069100989910066e-02
-7.374100500528378566e-02
2.530816640465317902e-02
4.332289870292881095e-02
-6.162585319376454041e-02
-3.311345635350367717e-02
-7.393180532211124367e-02
-4.482604293388757488e-02
-7.103432575559071038e-02
-2.384512604898039734e-02
3.943456419307735106e-02
7.616474540178884423e-02
5.520152524294381913e-02
3.849480963023797775e-02
4.963568466607488905e-02
5.377526230440195232e-02
-5.481721919771002927e-02
4.315447534350806691e-02
-7.750519379788148311e-02
3.784355013266765821e-03
-2.437181732108595344e-02
1.315586665489076879e-02
4.077168144850580600e-02
-1.871598280397401837e-04
-7.500026783156178711e-02
4.130372701717603678e-02
6.852546871096935888e-02
-1.437456652293496451e-02
-5.093422109655822844e-02
3.912767152567360462e-02
2.156564773641701793e-02
-9.896834275551311122e-03
1.066587779897477939e-02
7.762434866205343564e-02
-3.027478459866318750e-02
-4.248313117102464620e-02
4.866123699422610083e-02
6.610202297845245434e-02
7.082961233783742483e-02
4.521853928138415413e-02
-5.145237369255550863e-02
9.787401536101483779e-03
5.416641431498211978e-03
-7.768702051763887173e-03
5.285431061536309538e-02
2.670317005237247965e-02
-5.857205928793776661e-02
-1.818289853074375739e-03
-5.447206653444544577e-02
-4.390257528014248484e-02
5.483241836356289589e-03
-6.430424994245342862e-02
-5.405023592383116637e-02
6.415216237022498824e-02
1.884947192671816707e-02
1.306679598055669744e-02
-2.626043328034467078e-02
-3.091672902705427939e-03
1.384551502457784244e-02
-1.870775025793121327e-02
6.399504262302647961e-02
-5.845649217206630444e-02
-3.195744326457702900e-02
-5.434844860389800164e-02
-3.830209214712430865e-02
2.257351951844452365e-02
2.720481097536391057e-02
4.525026291587093408e-02
4.979814121586316478e-02
-8.539778492225152950e-02
6.867126218751351541e-03
5.641225559604111373e-02
-2.670697073205812594e-02
5.177693998058825742e-02
-5.863366122446721229e-02
1.742915066850604655e-02
4.845621646564733653e-02
-6.078450229193083781e-02
-3.453346951743593157e-02
-1.772446303400401768e-02
4.242718734141791292e-02
6.717873578539028390e-02
-6.820649121817375093e-02
-3.254454592894182041e-03
-5.218842408729517518e-02
-1.118538983325022274e-02
-4.935418581913308261e-02
-2.574569979820870436e-02
2.577775245631590273e-02
2.142375199278377662e-02
7.573827792954183902e-02
-5.405377338200339360e-02
4.876054409372305998e-02
3.106881566394197047e-02
-8.399761384347290138e-02
2.640649749372807331e-02
-5.706751594955275508e-03
5.056277460121456901e-02
3.945151351430943587e-02
5.055210035424435866e-02
2.199021855815505577e-02
-7.948237750451490891e-02
5.280270530171936316e-02
-6.488682608205148528e-02
-7.022368778357532260e-03
-7.721886762063108478e-02
-5.388743060471539587e-02
-5.171236974222646887e-02
4.187451597988282870e-02
-8.548890127115792159e-02
2.207037283737314781e-02
8.089174750305620776e-02
3.364103871384650779e-02
-3.270980930192886327e-02
5.572969958669744817e-02
-7.601815231862647793e-02
7.413259622810798588e-02
7.884407909939800119e-03
-2.265973645854442442e-02
-3.774181351278515367e-02
-2.841906515911515191e-02
-4.585574396098786309e-02
-3.005423941840376645e-03
-6.027347478760615440e-02
1.477710861633332873e-02
1.916442274308688409e-02
3.610890937859484451e-02
-7.162164226018745417e-02
7.666941156708699523e-02
-2.099698753079148883e-02
-3.102667170018382631e-02
-3.398990532634019179e-02
-7.007341922938573053e-02
3.589323114117452806e-02
8.467648120229061270e-02
-2.295913900553117615e-02
-8.429211937330211013e-02
-7.214291907876257959e-02
1.989545607923776105e-02
-7.258977984436787434e-02
2.654810337995670844e-02
-6.446932072516309287e-02
-3.789905783658847199e-02
1.713895202747554858e-02
5.414928738929243590e-02
8.084058345788837363e-02
-6.052466779558829391e-02
-4.587497792344960579e-02
-7.071094144583972563e-02
6.595978197562614442e-02
-2.421312306955028526e-02
-7.023352381606681738e-02
-3.239339154334557741e-02
2.236066055786399553e-02
9.580016108324582169e-03
3.601320628601896445e-02
1.455260510341153946e-02
4.119484058859686215e-02
7.725047439806329019e-03
-5.702335521614496083e-02
7.445740010803124365e-02
1.591519199237259596e-02
-8.410872286904187700e-02
-2.912547818110622355e-03
8.582320115498788538e-02
-6.736320474970029781e-02
5.924303013772617976e-02
-8.711360648596350176e-02
4.765543674003459851e-02
-4.416157987354305675e-02
2.872727391182175460e-03
7.424294110280678372e-02
6.139153880691618215e-02
2.281210983884360277e-02
-6.788488531947567406e-02
-8.360202741238732804e-02
-4.632259008832292912e-02
1.131877905042406873e-02
2.433301247350361241e-03
2.302219885690481860e-02
5.386777010559910817e-02
6.599856001293337437e-02
1.216718979254595434e-02
7.355501094232887171e-02
-4.434600656520257950e-02
-5.753659060698149141e-03
5.604754789945921856e-02
-2.412178142755852517e-02
5.238092822006269744e-02
3.077167340091344072e-02
1.999745206657915775e-02
1.808116991065299162e-02
-3.525452527491285126e-03
-8.138002686891283866e-02
2.665283687565661586e-02
2.856757692782400937e-02
5.878803659220151190e-02
4.911923169799807531e-02
-1.304191190958166324e-02
7.884963963091835837e-02
-2.370349175997914226e-02
-8.299609728985912760e-03
2.741597828166521256e-02
-1.258562377745867100e-03
-3.896223657932052636e-02
4.346591536189310656e-02
-6.490873503531732758e-02
3.733508441835893532e-02
-4.102178608587121050e-02
1.082017966413578725e-02
7.459536373273377430e-02
6.949352330380327569e-02
6.023047363521329134e-02
7.308050172841996928e-02
4.957740046315860238e-02
-7.623821018535573146e-02
-3.725062063387286210e-02
3.613523798357100303e-02
7.344741646006776314e-02
3.229197733866252806e-02
-8.351359668683111526e-03
-5.506078329507026192e-02
-1.385559281103533602e-02
4.571974042012151573e-02
-6.606788261148938135e-02
-7.607479641922919311e-02
-6.003148679633483337e-02
3.418993690991281587e-02
5.561554775276413010e-02
-1.740750012105918287e-02
-8.056208731671143930e-02
-2.091567289883786152e-03
1.326839777172814094e-02
3.840232502414749061e-02
-5.095341947283495848e-02
-7.414729245597154184e-02
-3.430807176268567404e-02
2.917665352376080934e-02
5.451722644403093898e-02
-1.037030108805704620e-02
2.267710179404057447e-02
-2.018385056852711745e-02
-8.580830480410824024e-02
6.073188698798678842e-03
-7.590562419465596289e-02
-3.819838314908544086e-02
1.300158282684527045e-02
-4.041646633097645269e-02
1.224377378978117048e-02
-3.874327037932995266e-02
-6.097293094428082177e-02
8.097133453485970411e-02
-6.248847905242300993e-02
2.705455719263402670e-02
-7.202378751701640769e-02
3.037924590193390173e-02
-4.838934838612522077e-02
-6.940960549824287673e-02
-5.645129574474119782e-02
1.825580416650936233e-02
9.351990934185192006e-03
6.450314666841862332e-02
-5.826913781696368977e-02
-2.714325296063141435e-02
6.238074900005353973e-02
6.888231869692050535e-02
8.607894992107036070e-02
1.121069208666504446e-02
4.874726484429325879e-03
2.248934912179534340e-02
-3.269843736174950222e-02
-6.274265254334113195e-02
-2.087072639831953624e-02
6.380288638848431726e-02
2.896644351257664229e-02
6.668433735906702242e-02
-6.164443104697707454e-02
-4.302979347159417711e-02
-2.957483702901097383e-02
-5.845720836666984388e-02
-5.188646651947279032e-02
-2.217357301542610681e-02
2.377044132351220640e-02
3.353439322055104532e-02
-5.586259672103018048e-02
-1.454464490343221339e-02
7.583529561863623647e-02
7.161812247155452393e-03
-3.099880200345030840e-02
-5.625242680536323564e-02
-2.069909110289613885e-02
-1.812435102724177516e-02
-7.083685007627188446e-02
-2.611248983273278118e-02
-3.468872373101616891e-04
7.876006140957209078e-03
-8.750681428360954084e-03
-6.172097480593757846e-02
6.533937841343058495e-02
6.091505225992673023e-02
7.494352922280118900e-02
-1.651139644236383763e-02
-7.374544226358770160e-02
-2.383248514384078698e-02
-1.074380277931644145e-02
6.772705151045453620e-02
-7.358929295606490839e-02
-5.421910882125860476e-02
4.816247685738821172e-02
-3.289774177518550724e-03
8.287929384467286609e-02
8.360076354077304595e-02
3.239917757312699154e-02
-2.288502716786414148e-02
7.299554193023659321e-02
-5.800670163965798709e-02
-1.351696853487674432e-02
7.038761378865378282e-02
-2.201660243913122761e-02
5.505890663822159137e-02
5.098549882445428671e-02
-6.422372291632467978e-02
3.527293023783871495e-02
4.941295773281904891e-02
7.227445172279266250e-02
8.647242428757963284e-02
-7.462758500192150091e-02
3.282744046721443321e-02
4.329693430938645615e-02
-3.183890640110770970e-02
-2.470191336874817678e-02
2.249680726369029937e-02
6.585438506390996205e-02
-3.156519805266159301e-02
-5.386469354549517502e-02
7.731764334835895813e-02
-6.771644541330101852e-02
-2.089724631339687222e-02
-7.855904458147197622e-03
-8.055205068860521456e-02
-1.160348887494887238e-02
-1.090502969682247136e-02
-5.487740490655216435e-02
-1.304146173965523015e-02
4.600420456223310028e-02
-5.805445533843923978e-02
3.944930450205384742e-02
-4.369090637675263761e-02
-8.292701208523287071e-02
-7.622558282398414486e-02
5.031755089011206994e-02
-6.468933074889018919e-02
-9.291764664989529687e-03
2.316414857636001079e-02
-5.559075573148095084e-03
-3.196463476903471657e-02
-7.722241251221863279e-02
-5.982364320664618207e-02
7.153499314165991108e-02
-4.493287554088933045e-02
-3.576124221677227932e-02
2.438436339104468886e-02
-2.040357568498268881e-03
7.580902069144106192e-02
-1.609081096980632952e-02
6.739555097569420450e-02
-3.421308610829412039e-02
3.188447099034309729e-02
3.334362650595190658e-02
7.620730549976666157e-02
5.557511219085940757e-02
1.011154332694523539e-02
3.444587954608589742e-02
-4.637831826783443689e-02
4.218381773464383033e-03
-3.246732787684774441e-02
-7.427252350315566298e-02
-6.193519868571135262e-02
5.258963071510082410e-02
-6.495317215976234571e-02
-2.028715633770208915e-02
4.651789462953746790e-02
-1.807440897331745455e-02
5.847241190723682924e-02
-7.077524365381571148e-02
-4.818885815546223444e-02
-1.564314786058357276e-02
-2.868532309618054138e-02
-5.575938945695379373e-02
6.791938088438896626e-02
-7.158406868573982673e-02
6.136790275792806948e-02
-8.400360517474211863e-03
-7.597878219029326197e-02
-1.943886077590166461e-02
2.708596521950674962e-02
2.616032598571102485e-02
1.340917200848497359e-02
-2.934528985720165351e-02
-6.789548526159909503e-02
2.866537338814989511e-02
6.292304496975274775e-02
-2.109839200081006783e-02
-6.387269981346727077e-03
-1.496356987315207443e-02
-8.167097191139828516e-02
5.543574310024003415e-02
-8.546001734493928470e-02
4.219505127361637686e-02
-5.397484777980326304e-02
-6.978907189006634815e-02
6.371271503792172441e-03
6.170735979487952660e-02
-1.241227602580949330e-02
-8.022008873734892687e-02
8.509190642300186458e-02
-8.649072494003265388e-02
-1.981433912247498874e-02
-7.647236783544664185e-02
7.781303529793369422e-02
-1.390217164824056328e-03
3.663164763546930547e-02
3.744980696559029043e-02
-5.505030297913535153e-02
5.920739535368819972e-02
8.555669949901074933e-02
-2.416467383755421805e-02
8.422252839871414987e-02
2.547527939282172305e-02
-1.971595012591639828e-02
5.031583520068654003e-02
-7.282527102027513966e-02
7.223471863460247111e-02
-3.638559945104873072e-02
2.251818537100572226e-02
-8.432553675699393236e-02
7.846828023968509258e-02
4.055837126718088437e-02
-7.514665947452245365e-02
-2.111986260603625210e-02
-1.338493064515494657e-02
7.858097249512478732e-02
-6.776148367797454886e-02
-6.932774306663812280e-02
-2.028787471427649647e-02
3.661065152117795596e-03
-2.888450278025671975e-02
-1.848376564176985870e-02
7.661499969824193956e-02
2.896478769283623855e-02
-1.171334612967592226e-02
5.645495727554698806e-02
-1.035574073532219419e-03
6.796788235927801736e-02
-6.725588112899487381e-02
1.283957520346139247e-02
-4.377086604978863010e-02
-7.927623684468623755e-02
1.591202164068407365e-02
-2.597378183677045982e-02
7.041981396857012465e-02
-3.726913532789519895e-02
5.774638079467861451e-03
-1.391180526108165560e-02
7.332999416623368905e-02
-3.379721032775843265e-02
1.894375350703943195e-02
-1.966480332699196976e-02
-8.498386981825031827e-02
7.512098494317247244e-02
-1.391812943991307949e-03
-1.985780326524420880e-02
-1.974466083599239752e-02
8.714544600109966344e-03
5.446533015893005591e-02
7.536572991732930216e-02
6.471174126701841056e-02
2.125601068672010319e-02
3.681193594953864612e-02
3.524764692630565077e-02
-3.728948600307120664e-02
7.054240273720137344e-02
-7.253654970100438526e-02
-6.092636944027075840e-02
-5.160221062228517036e-02
2.821944801483060317e-02
-8.022288058931874299e-02
-7.554621502395655885e-02
5.237605565472706892e-02
2.873921873404298999e-02
6.873283646464108110e-02
-1.430487117583915946e-02
-6.580631862911319463e-02
-4.720558850025965286e-02
-8.361944998170056653e-04
-2.641205760708252581e-02
5.480808147184811074e-02
7.354466299582664013e-02
-3.429903260084676136e-02
1.766045717006133053e-02
2.909128505475562509e-02
8.671427281751194205e-02
7.335113858455415137e-02
-5.921647314316282745e-02
7.707718365973677266e-02
-8.665935119581659463e-02
4.500759304690364615e-02
6.286743655553632404e-02
7.374283443103195335e-02
-4.340091707440783125e-02
3.012780743027178298e-02
8.715168993634843375e-02
-5.042224889898935802e-02
-4.545995069270572508e-02
-7.937274597855406566e-02
2.466020248542570570e-02
2.741332631388880559e-02
-4.908727005997097492e-02
-7.792850559004541044e-02
1.716115640309469337e-02
4.215753955500851913e-02
-6.226949703377089584e-02
5.977531511251700513e-02
5.611828336041874143e-03
4.824961829261294188e-02
-3.444902196515111509e-02
-2.121456786237158054e-02
6.351915073481347040e-02
1.321259912160199779e-03
-9.169856426864825272e-04
6.544801183464123151e-02
-3.543527404419215959e-02
5.426709161718819285e-02
8.385371866525402618e-02
-1.527894670344771832e-02
6.660451268112620171e-02
6.534852467242706353e-02
2.136515032994133756e-02
-1.356579492645548779e-02
-3.280496691654746083e-02
-1.189051496311946399e-02
2.088314717725769931e-02
3.626686479797412710e-02
6.694445109229359148e-02
3.142835850349470772e-02
3.029011536262599114e-02
3.022540903186363148e-03
1.535718346400583023e-02
4.502718127181559726e-03
3.663999599282441455e-02
5.998978158603797406e-02
3.000399960504269992e-02
2.159568915303804182e-02
6.094588509610822380e-02
-4.264866913432021484e-02
-3.874239061357134806e-02
-1.270966960050741446e-02
-8.069140396118879011e-02
6.379923035500016659e-02
1.467714799487673805e-02
-5.390869220116485672e-02
-3.874189594259818542e-02
-8.099064328737776153e-02
-4.758483861703050044e-03
-3.997664095566798997e-02
-3.739925518902199875e-02
-9.837390256993580606e-03
6.545911096378344285e-02
-1.205243892216543988e-02
5.654141360511598380e-02
2.026138289465594100e-02
-1.173153378995518692e-02
5.816832091952163497e-02
3.941853561561876884e-02
-1.751985571624889437e-02
-9.510038486099145483e-03
8.317857947516811568e-02
3.683570088151458255e-02
2.005661159935270832e-02
-6.956180486790738970e-03
-7.408405845166161907e-02
-4.271087263734207884e-02
-2.753562275983201246e-02
5.575941643375993684e-02
-1.747896895137222850e-02
-2.710326809909277546e-03
2.719544421542409440e-02
1.224331999798376758e-02
1.810973903396430329e-02
8.174093241431300283e-02
-3.898170345768943446e-02
-1.799143418552173745e-02
-4.131147691899403340e-02
7.608386947010777057e-02
7.003886537112381794e-02
2.828278666216012260e-02
3.582126663829825197e-02
3.485737697456468831e-02
-6.478782736143344489e-02
1.491667372513946765e-02
3.748867642909174680e-02
-8.221015358685500318e-02
5.013787307592436349e-02
-3.967039060502708381e-02
-7.286624658314022618e-02
-3.366977907151148114e-02
4.243852763900672620e-02
8.441838827982849069e-02
1.390714299314649294e-02
7.465924783553980204e-02
1.892254032709449196e-02
3.739584500720150029e-04
4.613591855457167823e-02
-3.463884412263547319e-02
-1.549520695481138022e-02
1.458008755823901603e-02
-3.435473467941563275e-02
1.575928302813647819e-02
8.582585720674912322e-03
2.087085731962601276e-02
-6.029063098448897429e-02
5.886906632636744463e-02
4.259976470728961406e-02
-8.720011065369269454e-02
-4.960654974854261656e-03
-5.046341954320242990e-02
2.690274605284330434e-02
2.551864138398494963e-02
3.821747542375804330e-02
7.469445715521758067e-03
3.275397438085757285e-02
9.139273884347098864e-04
-2.795186550558798055e-03
6.110792031505528354e-02
-2.912964661134801597e-02
2.054100489855446854e-02
2.547286838359222316e-02
2.022534191638543366e-02
7.565599441893833266e-04
5.981741894574205132e-03
3.668832448160833093e-02
-1.392943971909064993e-02
-7.249168872106097339e-02
-6.852359556407799923e-02
1.912595946325618135e-02
2.731502928595259949e-02
2.972174830911800125e-02
4.890632888836869696e-02
3.026017445603712552e-06
3.562263070807715482e-02
-5.828406039937165245e-02
-6.475190789743648367e-02
8.448900859485579395e-02
6.052695538585713131e-02
-1.155196797368682193e-03
2.092645691239194972e-03
5.390176514546846098e-04
-1.532536457418616493e-02
-6.617648085932420488e-02
6.799447842738351455e-03
7.859612547265026894e-03
3.160273082634376673e-02
-3.288588563748665039e-02
4.492373545430793091e-02
7.551840834323790552e-02
6.264724148377949497e-02
-5.361859826617543928e-02
1.033781959877387580e-02
-6.547676391741000246e-02
-1.842135481426439292e-02
1.238458912466836037e-02
-3.100639938639561388e-02
-2.435427771717325884e-02
2.535152050808435475e-02
2.702868337668461185e-02
-7.981884155187607410e-02
1.791771228657153270e-02
6.401108019779945535e-02
7.612959565931891326e-02
4.688507145139127197e-02
6.480534367597269585e-02
4.738938539570917985e-02
1.725953539383494328e-02
-7.301641469867309331e-02
-7.519748656923726238e-02
4.873125352678767119e-03
-8.236285647497676443e-05
-2.407726701401903535e-02
2.729103499051824255e-02
8.214043944511044415e-02
8.119950866254550814e-02
1.065225182945667148e-02
-7.766363850518048784e-02
-9.712892286597371583e-03
-8.729858374969506896e-03
-1.609755352328573474e-03
3.424205624491014066e-03
-6.358554153405657217e-02
-2.004172577630697338e-02
6.385342184142729638e-02
3.086692681984208597e-02
5.255266568607665223e-02
8.275137829817268142e-02
8.642807759576000282e-02
-4.152613641064038102e-02
2.225749166754281694e-02
5.620560756696206528e-02
-1.773551354457986173e-02
7.345640625147469016e-02
-3.023825313307878376e-02
-5.823228937762620072e-02
1.823371466482111292e-02
7.539542454996066290e-02
-5.074808695113163654e-02
-6.566211805966315485e-02
-4.552021927196497897e-02
7.211942195513589005e-02
8.172743306859213408e-02
-2.975501221121312073e-02
5.338124832953340670e-02
3.020222371656350324e-02
7.398604496227721705e-02
-6.480137953630138448e-02
-1.844906466044607396e-02
2.417474063683684726e-02
-8.128452919906636875e-02
-3.532038371025924411e-02
-9.170232549987306081e-03
1.990654215933769511e-02
3.692552494720428846e-02
-7.660148757108617423e-03
-6.630243887225417687e-02
2.163763228322297671e-02
3.698777825462259972e-02
3.779264437508168817e-02
-7.401566941549955758e-02
5.619518858695489449e-02
-8.520154123328523010e-02
2.580890659643428342e-02
6.773286484784553363e-02
-6.469070484289216050e-02
1.609343201765171816e-02
-7.420408076113740869e-02
4.146243835135780820e-02
-7.623368310122363711e-02
-2.365558179949717177e-02
4.092388983303528460e-02
1.410010742111583726e-02
7.899143586560769537e-03
4.221465198140415820e-02
-2.782930469639470494e-02
2.821260072768740079e-02
-8.642379499079488880e-02
8.573346177591133210e-02
2.461757841532100088e-02
-8.140605096637554272e-02
-8.606001471787885770e-02
3.580909408533196336e-02
-4.450146547596990632e-02
-7.768612476436335956e-02
8.840124002278085258e-03
-4.235936750763620584e-02
-5.789269870450435701e-02
6.728480226256731977e-02
-6.316224712934082053e-03
-5.024688283413621809e-02
7.247706306663222187e-02
1.135478819747000323e-02
-6.056911139803139443e-02
8.668085486293107544e-02
1.934149509782398524e-02
-2.171848610841720095e-02
-3.536774885725554873e-02
6.397354155349144200e-06
-6.574867889842368751e-02
-1.461484507991525628e-02
-5.470490375926563564e-02
7.628213789316763693e-02
1.107480747815799138e-02
5.874256745613813668e-02
-5.201996218590939497e-02
8.069538026066201686e-02
6.325921954988068807e-02
8.756327082998678624e-02
-3.279823651039524834e-02
6.640511009359952033e-02
-1.585861159732707137e-03
-7.703844922802835504e-02
1.152164470918494443e-02
3.077596508166634270e-02
-1.971789560691164511e-02
3.100510032095799007e-02
-6.550284699988800918e-02
-4.296192659070802167e-02
-7.473814493210427512e-02
-3.974389135216583463e-02
3.374270336787389690e-02
6.523580605508587371e-02
2.838522319145952988e-02
-2.964823601452041407e-02
-3.189996780663079123e-02
5.724751240163965249e-02
-4.757073780221284659e-02
1.747849279130904432e-02
-5.039346736941437144e-02
2.128298645908627273e-02
8.043263513017022415e-02
3.322119091536263058e-02
-5.055468681543510978e-02
7.351714715726058447e-02
8.261527319495694244e-02
8.150019954272423595e-02
-5.042769820947844150e-02
6.484415645844231191e-02
-2.499121393774117461e-02
-5.444667124010292569e-02
5.808276370722749438e-02
-5.902474806264322582e-02
6.473694848866910767e-02
4.595950555950675809e-03
-5.984620944525149977e-02
8.173155461926508158e-02
6.406532355958279024e-02
7.735844966060205496e-02
5.169517896104670884e-02
3.159325511715005419e-02
-7.609862194604639918e-02
-5.321004328128657590e-02
2.122068725084190477e-02
-5.078178159896232224e-02
5.739624556084517437e-02
-7.120651620401149962e-02
-2.655226822430354489e-02
-4.246970540300696456e-02
1.793671600709778602e-02
5.526999939005482199e-02
7.764734724656842391e-02
4.381075253037004791e-02
-3.124794018772285992e-02
7.317699171136339553e-02
2.360784957348056878e-02
-6.515523936968994900e-02
-4.132547825832409705e-02
4.362063281307222706e-02
-3.910329226124787533e-02
-5.527157248308989246e-04
3.472723564583311828e-02
-7.741992069618611194e-02
1.287286625919767391e-02
-3.519868768453518482e-03
1.382827095881195012e-02
-7.273544407903571873e-02
-4.038749945698891924e-02
-4.697117562878460467e-02
-2.289395516117435914e-02
-6.846234102459269888e-03
5.482975768072793910e-02
2.478377145726640141e-02
6.851766885675684982e-02
4.573199515724808706e-02
-5.886007078486298061e-02
7.273157270589773737e-02
7.144443627221983006e-03
6.618963850873335608e-03
7.746038967986003387e-02
2.640504534861920494e-03
-6.963659221947106348e-02
-6.046518987478657903e-02
5.879958709951048357e-02
5.404836390771612653e-02
8.658551480414676538e-02
-4.881172381219264084e-02
2.723592357630129357e-02
1.290150135850445801e-03
2.176650954281653116e-02
1.870464858859860469e-03
-1.078781272350909370e-02
1.571849578508810463e-03
-5.083717839555457890e-02
8.623026738370830058e-02
-6.111905787250898614e-02
2.844617406651453462e-02
-3.572784995559298571e-02
-2.239279086550834130e-02
1.851182838347695259e-02
-6.413646133872191735e-02
8.404330974673025756e-02
6.566008619673420477e-02
-3.560208521542027049e-03
1.366755697284430249e-02
-8.625991112934433547e-02
3.694648313355526625e-02
-7.508467513105751556e-02
8.330546944888828076e-05
1.707156163852020792e-02
-2.563924208549249462e-02
-1.782152515111730395e-02
-5.340311922709256587e-02
-3.691850079957954833e-02
2.162373894543309638e-02
-6.546695133872887373e-02
-7.828307499394203395e-02
-2.018312343603355374e-02
5.910324870786860807e-02
-7.206721792585168984e-02
-3.781590479302515684e-02
-2.601062380786987871e-02
-6.367718828601172387e-02
1.706148429361319108e-02
-6.902447155323047923e-02
-6.943739156739076046e-02
1.286729235134065341e-02
-5.161152147728475387e-02
-6.070841223004988518e-02
-2.286629199137737989e-02
3.070516774716219865e-02
5.118186972810627455e-02
-3.676049216375765205e-03
-8.024454446051398904e-02
5.610581016602805837e-03
7.085975091152217631e-02
-6.924132114381864600e-03
-7.650977639519319917e-02
7.805600489125623376e-02
-4.680396798990667240e-02
8.358183388513171219e-03
-2.918138888810678511e-02
1.772221342552895984e-02
-2.352008994720157509e-02
7.308429090712544041e-02
5.784921603289201741e-02
5.479066447548998353e-02
-4.457319453102819018e-02
3.484497563679464505e-02
-1.116371212113902167e-02
-1.367269035657467380e-03
-1.179122558260033149e-02
-2.340528134061647947e-02
2.533008398789922400e-02
4.367374766340469117e-02
-4.328156209627020967e-02
4.445979742220272646e-02
6.674837476237795164e-02
1.486716884774887115e-02
2.040256256772328414e-02
-2.221830029419485930e-02
-2.904795897112734393e-02
-6.245058627742288565e-02
2.802032874423900088e-02
7.961134548394212251e-02
7.078567876231119105e-02
-6.977133043789807143e-02
-7.949906235047377034e-02
-6.991177239268497878e-02
-6.724229188316543926e-02
-3.003938145020339928e-02
-8.338704730149514022e-02
-7.879873352251273722e-02
5.228775235556852585e-02
8.466888766940340594e-02
-7.932001324925529173e-02
-5.872571031194963320e-02
3.466703895593875595e-02
6.346978156920025926e-02
6.009448361729279042e-02
6.030827715688968915e-05
-5.301662923203510208e-02
-2.620469215811330882e-02
8.071311536500004602e-02
4.948550238726638628e-02
1.708684399698190415e-02
-3.045599996796863329e-03
4.823001984190340707e-02
-8.690546156764575314e-02
4.826383783675854133e-02
2.691957612209924799e-02
-6.074992300280403212e-02
8.753562210012875988e-02
-3.773868726774105148e-02
-6.995004854091990687e-02
6.696244914009288896e-03
-6.194240862031509531e-02
4.259196399094165864e-02
-7.986109039740975357e-02
7.609199058031247687e-02
-6.981622074148598200e-02
-8.240169990599190142e-02
-7.754889853130735033e-02
-6.729504476084098574e-02
-3.839794351757644386e-03
-7.646818188067326660e-02
2.258145962488655734e-02
-9.116678465619060256e-03
-1.785239571179957074e-02
3.781758715839005081e-02
8.614919942451305934e-02
6.163955159191129851e-02
2.078731364625195643e-02
7.077917488947348124e-02
-6.220930224557981447e-02
-3.992290480926775215e-02
-8.100092864316371655e-03
-6.645754570314771348e-03
1.625523937902044469e-02
7.414446676139103964e-02
-7.195722345192570590e-02
-1.571813908391889170e-02
-3.145372931112234982e-02
-5.837265039866992855e-02
3.366011696256193675e-02
3.282776828422413751e-02
-2.192454943148319790e-03
-3.264712795563950304e-02
1.690038191320271388e-02
-6.251363344342217299e-02
-6.927795771097602917e-03
-9.363748065193133741e-04
-5.939376664706030873e-02
-3.355369957780390128e-02
-6.468822221734762956e-02
5.887569816316477744e-02
2.826197236272798285e-02
4.846003690083131032e-03
-4.740701313989546806e-02
-4.023086117789993060e-02
-7.710412182069965870e-02
1.460390860146890124e-03
-8.487237996874827384e-02
-6.783569927372259944e-02
-3.876350265550049939e-02
6.467847554361504103e-02
1.883169993942028497e-02
-2.748200033591486485e-02
7.111334072692364339e-02
5.763729768200560877e-02
-7.138246188452004870e-03
7.977268490476581431e-02
-6.063405507012304546e-02
-2.689458234084243782e-03
-8.235968950997085702e-02
-4.314296640944285943e-02
8.301226341051816393e-02
-5.566201931413538445e-02
4.630670257191450701e-02
-4.318679728736975892e-02
-8.473457540310230796e-02
1.467358071581850720e-02
-4.869404692942526369e-02
-2.785819181265336564e-02
5.750940645180747934e-02
2.694877819741597902e-02
5.695687685687085555e-02
3.392876703859293297e-03
4.769988319220279382e-02
6.538389238415386051e-02
1.497452864978428277e-02
-1.201678917780911460e-02
4.059944258766022551e-02
5.301438388197228513e-02
2.301551038209968814e-02
-1.582909150992900527e-02
-5.276565786022997806e-02
2.890636735348926789e-02
-7.295060647495874018e-02
-4.425679330566983927e-02
2.842300384731617779e-02
7.137236552595029038e-02
7.293500858384509289e-02
8.101669569172714747e-03
7.036738752076153458e-02
4.153630343751200937e-02
-4.128739334234953623e-02
2.802630905656716687e-02
-5.448662342903797667e-02
8.327408321484046361e-02
3.434234797872448564e-02
-5.015443820922949048e-04
-6.267768431142282937e-02
-2.328451214185850437e-02
5.151516153080848426e-03
-4.783039700673961253e-02
2.405043851772217800e-03
-4.654655601666739251e-02
-1.716670261963389177e-02
6.957587808943942187e-02
7.948286513473211412e-02
-4.722812399738282596e-02
4.200156481245721773e-02
-2.863737006332975343e-02
1.809211931320968414e-02
4.999435200594455619e-02
4.756141208368623585e-02
-8.174270634489498588e-02
-2.982240064781657707e-02
8.219195518376466725e-02
-8.164095719495859105e-02
-7.297736189028587728e-02
-1.227076672416893555e-02
4.295783106954666197e-02
-7.820744615834110403e-03
3.754859894943331222e-02
3.530914232383045026e-02
4.509132998552785321e-02
6.063277912743268716e-02
-2.353304661992890179e-02
-1.874129989596269585e-02
4.862560285727303422e-02
6.142441728644972010e-02
-5.790827474594525265e-02
-3.981419681723678827e-02
-3.099475928443742867e-03
7.298542243718279809e-02
-5.720063710638592647e-02
-6.735582775204997097e-02
5.254310119183001893e-02
-6.850559764483411807e-02
-1.875013120370627728e-02
5.050723431796262652e-02
6.268691445244532756e-02
8.382203957423518814e-02
-6.999659158164693584e-02
-4.777874272008993811e-02
4.625288206261783663e-02
-5.545437588956453334e-04
2.302086095222022344e-02
-7.136482174343364293e-02
1.926549813031411262e-02
4.636155016165192932e-02
1.135780823777682302e-02
-6.785687052957924126e-02
-1.040917089741442980e-02
5.739409686586351145e-02
2.593718098074362932e-02
-6.647772680541400026e-02
-6.732907381154146220e-03
5.291252206853995499e-02
-4.617354104177381902e-02
-5.407654405314341051e-02
-8.566343281256658115e-02
-8.712113848767340241e-02
9.353832978255122166e-04
-4.907182687583687419e-02
2.116490407258428408e-02
-2.135244442582710789e-02
3.625857840181610781e-02
8.311376620762762901e-02
-2.638836929542327098e-02
4.895188162489377826e-03
-3.117452740173277947e-02
6.576526479357459876e-02
2.181148997749413065e-02
5.375945557104409855e-02
-2.984702071662514999e-02
4.722637994402224815e-02
1.142383754952479291e-02
-1.776805748511975369e-02
8.655492880894223584e-02
6.746642658695327366e-02
5.854968443475043471e-02
7.074800727638273778e-02
2.108492835918066022e-02
-5.829834862392317685e-02
3.998735647849055441e-03
-2.919646400557093791e-02
-6.137929509973749642e-02
8.245583694872209157e-02
-5.683783974757430912e-02
-8.387300707309100489e-03
8.594406944828374140e-02
-1.752375138932275866e-02
6.287717183952447331e-02
5.565384585738859802e-02
-8.430997970291939647e-02
-7.497808809047767920e-02
-8.217784196754432391e-02
-1.723915468396777784e-02
2.068791312082864098e-02
-7.227692550680014927e-02
-4.087173302911847883e-02
-8.231113803061834711e-02
-8.003893367685804838e-02
6.550778976155076372e-02
8.658220803731246640e-02
-7.554992178134214975e-02
5.552088049217364374e-02
-6.108787578887238390e-02
6.748636161559705415e-02
8.296467384193075001e-02
5.687563652769178635e-03
-3.661408686241204857e-02
9.604967021170154884e-03
-2.459179014008057440e-02
3.205365183353700576e-02
-5.076397669755143560e-02
2.355544337444781533e-02
5.638655492335005459e-02
7.291545388782554038e-02
-3.220314061220049678e-02
-7.867072814035230843e-04
-5.735400878822244364e-02
3.017011018137838452e-02
-3.037054038086225982e-03
6.670259240772953568e-02
-7.454834004779711809e-03
-7.661700842527402466e-04
4.915102951450490976e-02
8.212957213637224474e-02
2.238854859648022055e-02
2.213510786748615344e-02
8.112159727066449444e-02
7.960271618946884731e-03
-8.517031947616644783e-02
-1.249723943625200007e-03
8.040396805058115659e-02
5.192500583071850417e-02
3.932138235663136527e-02
3.735599713220329188e-02
4.097796350299155732e-02
6.173379591910767294e-02
-6.522867935390214145e-02
6.223133361327649882e-02
5.773489141001335312e-02
-3.947999038961321622e-02
8.567826421405175252e-03
-4.175898221529560778e-02
-1.882229315041895890e-02
1.770680573186439455e-03
8.666638784589883460e-03
2.155946381691108138e-02
-1.333797714038340021e-03
-8.008651642885812605e-02
1.585042340169909303e-02
-7.820620826497608202e-02
-1.495680961365629391e-02
-1.978972725006243605e-02
4.267650799210083445e-02
-8.590487336176608202e-03
-4.296489271788064834e-03
-2.514476755236180749e-02
3.327653622651964571e-02
-2.907378064177208038e-02
1.327650117146331188e-02
9.411425527539971081e-03
-2.406892391969174538e-02
-4.549169673499006000e-02
-5.877713892513303229e-02
8.013630153338467677e-02
-3.362398366373925418e-02
1.429028221932600318e-02
-5.179033017025017754e-02
-7.215776286592427702e-02
-1.155257139848131498e-02
7.648222172191039558e-02
4.129190118764697326e-04
-3.641507484192282873e-02
1.128344809617090605e-02
-4.617805914758572189e-02
3.190294022723330625e-02
-2.441575207204071951e-02
-7.203845235301647998e-02
1.924665327340709109e-02
-7.505812166578303135e-02
7.047433484355068722e-02
-5.323045574420651876e-02
2.337207695044556111e-02
6.267140163480190707e-02
-5.648046813825371992e-03
1.516725903885131344e-02
-3.315837340209800560e-02
-1.151850755322994524e-03
6.720890183335674617e-02
-1.160601684820301849e-02
-5.426448764499942901e-02
8.029892801962897064e-02
-1.508382179531075895e-02
5.953484737505042312e-02
-5.171350919370722166e-02
-6.474805547723447297e-02
-6.740447093849362414e-02
-6.426789036750567286e-02
-5.690463892985184180e-02
1.021422208012762178e-02
-7.679052974701634782e-02
-8.690850707551238397e-02
5.368772698852351810e-02
3.601126276696509088e-02
-1.869092963580606948e-02
-1.114749202067441547e-02
5.975913524365013274e-02
4.075974472217060163e-02
-4.584645009925360226e-02
-9.736579598627490006e-03
5.280002278348784606e-02
-1.416576947258690877e-03
6.014662732579166560e-02
6.462726670713904442e-02
3.616733638948925467e-02
2.463080403530604201e-02
-3.908796104078486600e-02
-3.330491753662093851e-02
6.806702769687882071e-02
5.170783358017567999e-02
6.659402544058189155e-02
1.513186515966453982e-02
3.477996464008388522e-02
4.175213259980785352e-02
2.655196223660015453e-02
-7.026801445582309125e-02
6.363202100489016855e-02
-6.368013055301476044e-02
-3.593334682849514544e-02
7.106741157499930905e-02
-3.929844819023937952e-02
1.697105539585176681e-02
-5.080060140819277897e-02
-2.133150609329156899e-03
-6.980814699599000028e-02
1.411576620059497300e-02
-4.054769516515687594e-02
-4.514860581856608435e-02
-7.552050806889964996e-02
-8.410029518605438570e-02
-6.698877879427106441e-02
7.365573922937948548e-03
1.734773180680218574e-02
4.475885444264447732e-02
-7.095792042152483659e-02
7.138990056277831620e-02
-2.159346997576690186e-02
-7.984385526615705997e-02
5.321570603198931548e-02
-6.560130809629075022e-02
-8.409529253902797707e-02
-7.475006146358803560e-02
-3.100801647198044020e-02
-6.702254570099763775e-02
6.110840621962689012e-02
9.875624491073028977e-03
8.723544036751869346e-02
-2.791709368455824736e-04
7.488892028116157784e-02
-2.258574442302474505e-02
-2.642414378592871510e-02
2.672010702956109651e-02
4.641029991399404919e-02
1.679116513158876445e-02
1.146358374549365233e-02
-7.657915554874900055e-02
-7.590078720209637864e-02
7.087735768135566827e-03
-4.390397135408136836e-02
7.134895718339188952e-02
-3.845198310681609971e-02
-3.424166939704812590e-02
6.218172506229717456e-02
4.828460925301385209e-02
-4.510336461154114407e-02
-5.286450057155124560e-02
-2.390609307694081809e-02
4.854461064243943691e-02
5.516561561226525356e-02
6.849820349096975847e-02
7.079851806222499377e-02
-4.543849939940732691e-02
-9.695332204991261027e-03
-1.698613861636726063e-02
2.755835165782712093e-02
-8.542518472780173677e-02
5.425320412588309493e-02
7.802815671292843980e-02
-4.452057484124043174e-02
5.144006039594055391e-02
2.622008955911643568e-02
3.729177298449098954e-02
6.592934782486649381e-02
-7.908084411361285260e-02
3.585190566795490308e-02
5.556988869130362330e-02
-5.939185270854444032e-02
-5.176284743340262701e-02
7.809816518063768254e-02
6.005387311441304221e-03
-5.771430566051039684e-02
4.440747957582670546e-02
7.221049349902587677e-02
-5.109591502872857377e-02
4.149716038341481894e-02
2.297256830794772164e-02
4.885222217707786696e-02
2.230716706667046356e-02
8.080405773500608235e-02
-6.305030912090767159e-02
-8.762909080880176838e-02
-2.360022509941410440e-02
6.625709784309995187e-02
-4.931827341102756890e-03
4.499195719468294941e-02
-7.694592406783859473e-02
6.295403623271050852e-03
4.038443837996018304e-02
-2.597403484145200531e-02
-4.244056229677356518e-02
3.960156099441793087e-02
-6.410302478261206693e-02
6.091521435498294113e-02
8.415026448260212732e-03
-2.936742290081952034e-02
-1.712698582071719988e-02
6.102412242613482196e-02
6.765162696667116615e-02
-4.946284482274897198e-02
8.503912890769414756e-02
-4.482044611912556348e-02
-3.860101871388762346e-02
5.608379262550215738e-02
-5.705829926727785939e-02
5.266168887752660510e-02
-3.433017673436153383e-02
6.265921430327482666e-02
-7.242021308863937079e-02
-4.721119741671659514e-02
-6.892446001217628071e-02
3.236421178730074233e-02
4.486136482168555373e-02
-1.624823282385390311e-05
1.369803258799637269e-03
-6.787825927340285226e-02
-4.746396489910541250e-02
-2.765596749461778081e-02
-4.687700149209159811e-02
3.981274212525505451e-02
9.443535380959516834e-04
-1.269652805383596206e-02
-7.736001054492457063e-02
3.339287191009074340e-02
4.276650522485793415e-02
-7.837566395680731213e-02
4.299160471820089036e-02
-1.063795604794998129e-03
3.459379950070085030e-02
-8.478446545669277024e-02
-4.570956267813518908e-02
-2.065214157038952614e-02
-2.711773675544152523e-02
1.556076763455455092e-03
2.666373399484729678e-02
-3.173220551508171283e-02
8.122214703768823596e-03
-5.607830473236917468e-02
8.640390954053069061e-02
-1.840441810561582736e-02
-3.532773976317268860e-02
3.738922267838798441e-03
-2.454447551545982376e-02
8.032825475737649656e-02
2.140402748074639316e-02
-3.580096240722101947e-02
-1.041326829127164899e-03
1.150537285544199484e-02
-3.111389970984304587e-02
5.868262141280215782e-02
5.448012688106028401e-02
-6.514171801819959584e-02
-7.458744818007305433e-02
-2.686131332181420500e-02
-6.093912712061830272e-02
-3.804111636821497222e-03
5.966106290813093238e-02
5.354562867430055773e-02
-4.624000755176926880e-02
-1.107232058085871884e-02
4.201431501605688845e-02
-6.908099155337882324e-02
-5.703274715004255646e-02
4.864326738206276035e-03
-3.863143023528656933e-02
6.136432350307106931e-02
-1.126690508400700341e-02
-8.265213116108030555e-02
2.693265380568804490e-02
3.736680191746501178e-02
-4.931156836953416028e-02
4.364663116112624253e-03
4.418720558077658678e-02
-6.060577798612690192e-02
-7.305573820566765852e-02
-8.168836113613238414e-02
8.006901922216909384e-02
-4.174711223641131702e-02
2.218246157643563587e-02
-8.708708031530087990e-02
4.427986581608221728e-02
-4.627877719127784090e-02
1.859983919319081747e-02
-6.985016490765852404e-02
-4.266612808378177080e-02
-4.584040876570332629e-02
6.236142007735163972e-02
-4.018007363876338611e-02
8.482740917064705843e-02
-6.612097562553249930e-02
-6.572837865219485765e-02
6.270868044320580814e-02
3.833927462384205398e-02
-1.617994318585491698e-02
4.845809090986154255e-02
6.702724913342218704e-02
-3.219245053832143350e-02
-9.756327974289283333e-03
3.488592174421428771e-02
-6.428326858687186118e-02
1.495480612690590350e-02
-7.533548781517929172e-02
3.152381635667847459e-02
-4.942263477386830278e-02
1.013168725188863528e-02
-4.323953249911940272e-02
5.507644800438062094e-02
-4.315452014069490888e-02
6.742517049775130500e-02
2.313877132027852834e-02
-6.308735387954625407e-02
1.451757064177869316e-02
-3.800043594407342962e-02
-6.995270689099608585e-02
1.735377022285666815e-02
5.506318356606527964e-02
3.093332186193506472e-02
-7.033323958300739809e-02
1.713162823530607615e-02
3.882871397493631305e-03
2.376563586199624545e-02
4.802661605519807642e-02
-5.282872742268538563e-02
2.782858337657943826e-02
-5.917612270118734197e-02
-6.853495968274452010e-02
-3.265090653483609939e-02
6.250399254400067217e-02
5.571522698610263669e-02
6.097355166572072938e-02
-4.035346344322342932e-02
3.553648612266160911e-02
1.318245361327152754e-02
-3.610717563960738619e-03
8.754736944825831924e-02
4.121646826070342329e-02
-2.429049919736243901e-02
-3.572698095802646218e-02
-8.475432663978930969e-02
-7.892342412003154617e-02
1.328564628971842798e-02
8.496286345112268046e-02
-4.499605798200066731e-02
7.334312990931471377e-03
-6.368732739919502617e-04
-6.519468040862402836e-02
-7.059051151185503914e-02
-2.275470708484071680e-02
9.705863797157501804e-03
1.856817232580866561e-02
6.915072062650155782e-02
-5.922292218354473919e-02
-7.134987628099206947e-03
4.779238647131626994e-02
7.274401773850185104e-02
-7.440247910461056380e-02
5.439015442638962805e-02
-5.279373759108826891e-02
7.733866419643330159e-02
2.097578377536168937e-02
-4.109567549625577770e-02
5.289791568821712586e-02
1.613143710357456406e-02
8.947403856999422422e-03
-4.248579612775978814e-02
7.015979453701630397e-02
-6.314981970046851245e-02
-2.265541376189611489e-02
8.002500612108538747e-02
-2.677210710068762822e-02
-7.838220562669376279e-03
-5.841915149936677265e-02
-8.748944982704789930e-02
4.184222579428688304e-02
-7.862376587010068418e-02
3.559162718721595176e-02
8.198083767204446259e-02
1.478840088216978876e-02
-4.490986251655857547e-02
8.231950117790894084e-02
1.761919936450370705e-02
-7.123858726010898201e-02
3.368872317179047449e-02
-2.118926988952524182e-04
-4.555513571851628474e-02
-7.390761270232792945e-02
8.437026386413386259e-02
-8.473117366814247875e-02
-2.889734954724848537e-02
-4.632336857135370412e-02
-1.886865986342928236e-02
-2.399128291002040891e-02
5.838214959939448667e-02
-7.175732804352610850e-02
7.257714951276909854e-02
-3.935629216832797761e-03
-3.359907827077922987e-02
-3.256390395391775550e-02
5.520282659809287729e-02
-8.459037701209849713e-02
-5.875063351662512118e-02
-4.792617506866422156e-02
4.012285564540786498e-02
-4.569814043338626952e-02
1.588453722490903997e-03
-9.444083759666238587e-03
-8.859325728912736952e-03
-7.439788505433403420e-02
-3.848856059791487538e-02
4.180735526160632431e-02
3.498288794525092338e-02
4.368016137742160299e-02
-7.671339259363781082e-02
-7.326307399898576711e-02
-4.904349119298834214e-02
3.702209844253355475e-02
-8.944261853796708905e-03
-5.409989062020884726e-02
8.742087119019391339e-02
2.940913561799023135e-02
-7.703615301530331028e-02
-2.272569293708216753e-02
1.645211443250392536e-02
1.335715380504066963e-02
-5.982680226375328147e-02
-9.955553172257630701e-03
-8.596707373799719609e-02
1.988181026219328074e-02
2.481969466468711416e-02
5.245056602395971324e-02
-3.561633054543348470e-02
7.790758067000001785e-02
-3.292706853709482379e-02
-8.716958572239116854e-02
-6.871679093919463854e-02
1.859764703753699622e-02
-2.359311519851334249e-02
-4.043271459329437351e-02
-2.061226003696971232e-02
4.088910885664247263e-02
1.373261245620854831e-02
-3.035433076489902487e-02
4.536883498353437572e-02
2.281586921491299269e-02
6.438629726813964449e-02
8.457015798214591318e-02
-2.970790608326202148e-02
-1.656673250510554141e-02
1.366540412760894330e-02
-1.913658837353524045e-02
1.311393579735452286e-02
4.370171489710579504e-02
6.576908376493463548e-02
-2.956174288600143391e-02
5.712412477595067706e-02
-4.233132658190771197e-02
1.465934017541177525e-02
3.171511366722656877e-02
-4.827172151709219206e-02
4.455175533245740727e-02
-9.491737026856031378e-03
6.377496724165256092e-02
-8.214261170622778885e-02
-6.760455516215198302e-02
6.633785329999679348e-02
5.747154269037944851e-02
-8.614898990794503386e-02
3.444139162158479928e-03
-3.048388438213409102e-02
4.204661681992284683e-02
1.791639857951506098e-02
1.680651621533715834e-02
-2.069764911267756025e-02
-3.817931776857649145e-02
-7.816554151816269835e-02
3.882740483369838402e-02
-6.797156102090168295e-03
1.293716555097933207e-02
-7.082183115227859427e-02
7.870349297908883768e-02
8.073472549669712117e-02
-7.251251643643513711e-03
-4.781058740697355369e-03
-7.643696210760483889e-02
-4.983688492863874026e-02
1.200873260470733395e-02
1.532890487611657249e-02
-3.915740171397547043e-02
-3.939560458683451227e-02
7.648501750418519596e-02
8.573618973648246266e-02
4.924307798550035808e-02
-6.266342420231163501e-02
-2.610597571447856313e-02
-1.642285480753462312e-02
-1.590318227147229091e-02
-8.050500785228438538e-02
4.927974929416863159e-02
-4.611603708994051198e-02
4.152738782158553466e-02
2.808316641958384652e-02
-7.248360911224563385e-03
1.047863517172166470e-02
-5.132442527868491533e-02
5.285269853182690547e-02
5.854747391317614846e-02
-2.702302813697442935e-02
2.131593752590338342e-03
-6.380870350307889238e-02
-6.598184853811148165e-02
6.862128723773038008e-02
-6.975020082736288485e-02
8.346068956883730128e-02
-1.728720800841224148e-02
1.318995753586876818e-02
-3.627508669707471545e-02
-5.028947389535048246e-02
7.219682639987214101e-02
-3.441406498774969569e-02
5.648676929824637816e-02
-6.414882006536268277e-03
2.201141363531228246e-02
-4.908100400646238370e-02
7.318423007568618244e-02
-4.597957227273293673e-02
2.832546064327490232e-02
1.579018218371770754e-02
-3.567799463312761737e-02
3.053270363377538765e-02
2.636609414644082439e-02
3.032626139450866898e-02
6.043753443449183249e-02
8.080433421704451280e-02
-7.651526482066699220e-02
-1.812300683017105396e-02
2.119592606441116078e-02
4.137593189679435179e-02
7.440589639241797226e-02
-3.115213372129681940e-02
-3.303657732061367897e-02
-7.455312697505303565e-02
-2.072325194008953209e-02
-7.242206649041890709e-03
5.115531194602880583e-02
-4.178746095337651512e-03
-1.851060053996131383e-02
7.607438760819133783e-02
7.226071061691129171e-02
2.754443248443154413e-02
3.490511749700452027e-02
-6.949055435746412379e-02
3.748046020325197791e-02
-1.710356389619695217e-02
4.474902460531336723e-02
5.085544109412837299e-03
4.494755356727646312e-02
-1.564267681327950743e-02
-6.310429970236668129e-02
-6.592805409798165039e-02
-4.164833590523168982e-02
-1.610796679878435944e-02
-9.082685207963542284e-03
5.348319317725012956e-02
3.296924864483939677e-02
2.976455124314277001e-02
6.532523126585020046e-02
7.875213554076428146e-02
-5.659356140782161038e-02
6.477282165849816697e-02
4.495097491724810157e-02
-1.553641815639164592e-02
7.258491800765802526e-02
-4.345399234020594359e-02
1.646204285993276006e-02
6.290697082525111006e-02
-2.082507628078410222e-02
-4.268177478257648150e-02
2.432302597824241575e-02
-1.911607404323525938e-02
1.882078772380929577e-02
1.708772216990464554e-02
-7.077781190167210801e-02
2.978828684358361678e-02
7.723773363342990861e-02
-2.161949312743316476e-02
5.615504157374663630e-02
1.614134733801186883e-02
-6.306017786858672536e-02
-7.685178337352789601e-02
-7.260774996545311943e-02
4.146585126488301631e-02
-5.192161465837299983e-02
3.269389086166016312e-02
-2.712082110143800018e-02
5.025347141885309898e-02
8.554096218185612555e-02
2.837265226063273582e-02
4.302402628194886003e-02
2.863928912684349237e-02
1.406686766533037092e-02
-6.123853937245551937e-02
2.083616633622711878e-02
-4.459457154810804458e-02
-5.480575159227859400e-02
-8.545280577650897491e-02
4.294287372530840308e-02
5.215265752888799400e-02
-2.755589492665395240e-02
-1.543291278447297965e-02
3.938715051045783844e-02
-6.450373280707456802e-02
8.206225995637421444e-02
2.652323556999296172e-02
-5.135806434401493648e-02
-3.114351466042493410e-02
-5.708267735559099942e-02
3.649976537510683794e-02
-7.819216030044899568e-02
-6.206605535220358072e-03
5.258765084737597462e-02
-1.591167054222034083e-02
7.933654203242766767e-02
-1.120456560015370417e-02
-3.028546689976630707e-02
6.812099720307926431e-03
6.396497505528286887e-03
4.118884308378116532e-02
2.539272126259899121e-02
2.347059130999054610e-02
4.492106873385665056e-04
2.300789846418879736e-02
7.965083619347917976e-03
2.784298699385331921e-02
-7.824672084009950956e-02
-4.620708728638685953e-02
-4.293618663902120519e-02
-5.728947922983625846e-02
-5.735802110447096869e-02
-7.527953753139027260e-03
-8.206598061449532633e-02
7.198215017514571212e-02
-8.458610252098211491e-02
-2.086723580857183236e-02
-7.980888276602042530e-02
3.506770439022918739e-02
7.081927120297477896e-02
-7.314524764640337184e-02
9.860982260751938178e-03
4.089675027710877597e-02
3.506268672099398243e-02
8.258382735056153667e-02
2.745213610640989677e-02
2.586350493974393094e-02
-5.567773454875919042e-02
-4.639507049787056081e-02
3.907935018609971778e-02
5.309517036158446779e-02
7.551923427647332099e-02
-3.735133520602086643e-02
-2.687279008335347052e-03
7.916455946663970844e-02
5.055150723705324756e-02
-4.123977078473236441e-02
3.382329237202118255e-02
1.298071877380013728e-05
5.377107446992605844e-02
-5.259020961508219932e-02
-1.584823466501449063e-02
5.750764827308581240e-02
-4.895558229471450029e-03
-5.647947156628090742e-02
-2.219055306203890354e-02
-7.297684132632334397e-02
6.338078827047087527e-02
-8.068738427226032628e-02
-4.992890355940543534e-02
7.974694034557154587e-02
6.183243310582468844e-02
2.373496684085406316e-02
1.302378748926065477e-02
2.050731506456950071e-02
-6.658423983048980532e-02
8.383023206337801569e-02
-5.135870391025670889e-03
5.886843179840135776e-02
-9.660518440470403090e-03
-4.740821459632471591e-02
-4.896409232481621632e-03
6.636255661977456810e-02
-5.796664891444548717e-02
-6.015126750383435750e-02
-7.101885446801745050e-02
3.233013564058846712e-02
8.299304983850529227e-02
-8.638896260138168026e-04
5.307375238392582351e-02
6.838875770612896920e-02
7.729626539092875059e-02
4.093078647603347331e-02
7.936867162669951348e-02
7.114368696661667324e-02
-1.658855651033830370e-02
7.596004615037239838e-02
7.227432975485130473e-02
-2.529919559808516127e-02
1.909360319143307838e-03
8.686378677954768868e-02
-8.067947852403430098e-02
7.309930437835944483e-02
5.961526193339193591e-02
-6.169852939372016259e-02
-2.089208827146399328e-02
-1.861532086255858476e-02
2.898160781593624169e-02
-8.157438861511544237e-02
9.994270441680233596e-03
7.170083599095190829e-02
-6.598543614315952044e-02
-8.019000884770048632e-02
7.328954567990049462e-02
2.710398585386145087e-03
-5.661484700992910901e-02
-2.083473552708606236e-02
7.071130924281035512e-03
3.091902150234317193e-02
3.634167165589034798e-02
-4.512559261575046360e-02
-5.174664291236350661e-02
-7.536464701811959599e-02
-4.176266560483019030e-03
-2.008249540572017156e-02
-3.802890459773639042e-03
5.597618832817664869e-02
4.303706226154209447e-02
1.600777234515542158e-02
-3.465612784830471305e-03
-2.236833793851297769e-03
-7.061012441494454728e-02
-2.535522091050173427e-02
6.932884338345303432e-02
5.675321881280788461e-02
-6.186123720022751460e-02
-1.713901238793809345e-02
5.179269769883278196e-02
-5.696687364553913030e-02
2.507571596479631071e-02
-3.135862436441826107e-02
-3.617471536405970217e-02
-7.022861379737875553e-02
7.490766526209204079e-02
8.599213993635761166e-02
-1.493053200332318531e-02
1.791660053673992115e-02
-3.665923441172707492e-02
-5.236749505820621764e-02
3.885263147755266266e-03
-7.939024471465556954e-02
-6.868751849386975361e-02
-3.523502158615305496e-02
5.963475674415648353e-02
-1.177871574842286051e-02
-8.020534829650181885e-02
-3.625469666605318081e-02
-6.731334620673531943e-03
-5.386360046904847820e-02
7.765690580635725704e-04
2.913658026907681164e-02
4.276450311694825202e-02
-8.456422412509538578e-02
2.455315491460072219e-02
4.335604063637173156e-02
2.670579058284240637e-02
-4.578654066792928884e-02
-7.708832863783451894e-02
-5.932620571001506748e-02
7.280766317636001850e-02
7.551218078558792624e-02
4.180787713980753384e-02
-3.034482949583625078e-03
3.384208307964226004e-02
5.484592879216738937e-02
-7.901850305699079091e-02
3.972580446955893685e-02
-3.019087059089507058e-02
-8.711776187659477089e-02
5.480073209887277585e-02
-3.930208691403261345e-02
4.254330808278518339e-02
-7.561587650682043138e-02
-8.319926680405420605e-02
6.958387704033074106e-02
2.830479221268056289e-02
3.457879588320399156e-02
-3.961966463057972621e-02
-3.811779682301846828e-02
-6.236203034885076657e-02
1.882272324788143714e-02
-3.846470546745610342e-02
-8.044300811395546646e-02
1.405135270431179251e-02
-2.361876645266458574e-02
4.373926980947347165e-02
7.811658554486171357e-02
6.997892344167515322e-02
-1.808090249816961259e-02
-5.110221739923218043e-03
2.770232639129063812e-02
2.136687789859066655e-02
